1054 300
mov -0.07412882 0.22537887 0.5740574 -0.38447818 0.5263241 -0.72101116 0.6099005 -0.038195215 -0.15070377 -0.40416706 -0.20566426 -0.8583498 -0.10046272 -0.06924718 -0.022133283 0.29650512 0.15609898 -0.2151792 -0.35714948 0.26120716 -0.67980844 0.1416645 0.11722929 -0.613628 -0.30051982 -0.14582117 -0.44861323 -0.043641977 -0.5753855 0.57322407 -0.09866266 0.42095143 -0.9375301 -0.42601317 -0.3790223 -0.2509144 -0.36412105 -0.0703034 -0.29650003 0.013451028 -0.14243099 0.60164267 -0.5467629 1.2397076 -0.14837724 -0.11831633 0.0326232 -0.07217134 -0.3669236 0.16030583 -0.10496975 -0.21312849 -0.27011472 0.5531058 -0.09599156 0.26883236 0.016020754 0.31744182 0.29463542 0.26571327 0.31001386 0.6667521 -0.023792222 0.19160949 -0.24195078 0.49014014 -0.47744328 0.31164965 0.5849589 0.82623994 -0.99594647 -0.24410097 -0.16009206 -0.302852 0.07443 0.23112403 0.039255604 0.1300713 0.66203654 -0.13345027 -0.062853344 0.33736986 -0.10113184 0.4187379 0.16417502 0.69007266 0.9413067 0.4073362 0.33025423 0.55030596 -0.08509141 -0.1353646 0.46954396 -0.22546953 0.5050189 0.27501586 -0.14723808 -0.18895161 -0.29216242 0.15628219 0.34668046 0.4795719 -0.43823677 0.09740413 -0.21670109 -0.19988176 0.8942717 -0.35080424 -1.7692693 -1.119746 -0.17422576 -1.0551474 0.29376137 -0.3065933 0.55264103 -0.26736695 -0.64580697 0.39288625 -0.16418378 -1.1438648 0.7508196 0.92742276 0.8209676 0.06459842 -0.22146872 -0.1450179 -0.059648 0.14321102 0.41550383 -0.20750575 0.057531208 -0.15826115 0.3877377 0.0022281436 0.08712511 -0.12864622 0.27483886 0.012771618 -0.019690456 0.05537078 -0.73557514 -1.0272788 -1.1790638 -0.5718848 0.43626368 -0.23459126 -0.27702972 -0.46143708 -0.40316123 -0.07450895 0.6038888 -0.30541041 -0.22263628 -1.0193766 -0.9085377 0.16576561 0.26080152 -0.2871335 -0.30509755 -0.10810732 -0.5258419 -0.039902084 0.31546044 -0.0043362924 -0.070798345 -0.13819622 0.081280276 -0.040631775 1.1949246 -0.5423336 1.6389763 -1.1288428 -0.7597551 -0.7202948 -0.07721634 -1.7995155 -0.28073335 0.12596264 -0.79006237 0.24229778 -0.27797002 0.42937827 0.7663301 -0.0032093504 0.44639257 -0.8811572 -0.5901342 -0.28722966 0.34286848 0.3614155 0.29635295 0.15692417 1.5255921 0.7584336 -0.20806402 -0.20898859 -0.817524 0.0671485 0.663242 -0.026303997 -0.09598668 0.3285791 -0.13279262 -0.011393242 0.6148561 -0.11773788 -0.24389258 0.17956427 -0.06088797 0.36884317 -0.54263306 -0.14665683 -0.18806417 0.11600202 0.0057488205 0.023579234 0.13585894 0.06413514 -0.4371869 -0.24197805 0.10123113 0.3393336 0.68591297 0.1741834 0.16273862 0.15444496 0.03308744 0.0156097375 -0.58371574 0.16804445 0.09385745 -0.037156254 0.09702465 0.48544097 -0.7482874 -0.5065207 0.4829938 -0.27370113 0.16864955 -0.045608327 -1.1073405 0.7088828 -0.41756356 -0.73567647 0.1217868 -0.29678896 0.3343557 0.3228096 0.33311468 -0.051249903 0.24984597 -0.38441235 -0.18706466 -0.15710677 -0.036706895 0.12145072 -0.032706264 -0.24482138 0.62554395 -0.21671714 0.21754603 -0.4736087 -0.54719096 0.11826757 -0.20963456 0.2691358 -0.17886437 0.058253918 -0.12121705 -0.14261085 -0.61134475 -0.41372645 -0.21295735 0.0037375062 0.023046415 0.2869879 -0.8071071 0.17776121 0.35608366 0.13582414 0.07941815 0.014666859 0.601966 0.37396333 0.2811507 -0.009799872 0.056098998 0.20672458 0.43059644 0.37654763 -0.02266134 0.28817227 0.7147403 0.07459358 1.162546 -0.014797865 0.38412207 -0.5772003 1.5385754 0.03066888
r0 -0.8823289 0.53999054 0.8135977 0.17241322 1.1549399 -1.6618757 -0.7410842 -0.45852125 -0.2582491 0.006544516 0.21435523 -0.36700726 -0.46415988 0.289826 -0.29302868 0.5212933 1.0574634 0.94926727 -0.13213827 -1.0149807 -0.043858107 0.9501868 0.5474707 1.6989622 -0.40500468 0.22412418 -1.1243905 0.23555216 0.1252026 -0.049063258 0.35948163 -0.20050216 -1.1472069 0.87266684 -1.2012608 -1.1469448 -0.522762 0.26288927 -0.04619394 0.52432054 0.10288187 0.5170475 -0.38869047 0.7672167 0.16098835 0.7851967 -0.513988 0.31863034 0.6365573 -0.22023368 0.50104755 -0.32038897 1.6413008 -0.6559496 0.28857046 0.16618788 -0.039897304 0.638909 -0.8528043 -0.1586104 0.06632644 -0.0919444 0.8423461 0.36580262 0.163679 -0.12155136 0.3914304 0.2650569 -1.1632094 -0.88858604 1.1367873 0.4611053 0.23926555 0.42727578 -0.68339056 -0.4827636 -0.9923008 0.3373137 -0.5604077 -0.10549352 0.31320348 0.14080337 0.30572537 0.9782686 0.09183257 0.01676279 0.00041406363 0.24156994 -0.35195726 0.1147468 0.69000185 0.3153293 0.2380924 -0.48432034 1.0852163 0.7178534 -0.22951847 -0.5934115 0.33738783 -0.43763986 -0.42223632 -1.0189521 0.044780597 -0.981061 0.1975156 0.6416145 -0.62761045 0.3371079 1.5166861 1.4589018 -0.41359925 0.7944054 0.22405872 0.364365 -0.31431034 -0.2534455 -0.10569835 -0.19636808 0.11823045 0.020543514 0.23655656 0.013332155 -0.07617156 -0.27754632 0.11635289 -0.30756113 0.6093294 -0.09398035 -0.6903254 -0.11266921 0.49506366 -0.046169575 0.38485608 -0.033337936 0.09293917 0.35808334 -0.1195172 -0.14037299 -0.2429965 -0.08735391 -0.67699444 -0.82615423 -0.94635713 -0.480234 1.3350748 -1.032275 -1.6198311 -1.3882039 1.0721526 0.11282594 0.2025197 -0.12990539 0.316421 -0.15789565 -0.28338224 -0.018482838 -1.2168982 -1.063859 -1.0092508 -0.07977714 0.3311971 0.5957164 -0.046805453 0.09366617 0.19525458 0.26829723 -0.5646052 -0.108658865 0.033902746 0.09749191 0.45052373 -0.021918489 -0.285843 0.14539044 -0.0022373232 -0.36484206 -1.1973177 0.1609139 -0.2130831 -0.6867653 -0.59212965 -0.26210922 1.0702506 -1.2881758 0.53311944 -0.5502313 -0.13333657 -0.17128165 0.14624882 0.28018337 -0.19410664 0.12101839 -2.4171023 -2.364749 0.8318003 -0.1415634 1.5367607 -0.94543886 -0.35670137 -0.4251368 -0.6084731 -0.12529556 -0.6475901 -0.7726731 0.73699933 -0.77294654 -0.65573055 -0.056702513 -0.7543909 -0.19745028 -0.10881166 -0.8102456 0.12107233 -0.10581821 -0.11616291 -0.13387468 0.86049616 0.5973607 0.19331998 0.10379571 -0.10709033 -0.038328096 -0.28282815 -0.5266356 0.07933787 -0.16943212 0.030150639 -0.23714143 -0.28658915 -0.2437903 0.11117343 0.1951168 0.70960504 1.5519204 -1.1452128 0.124377035 -1.4153489 -0.4602639 -1.0534902 0.19280899 -0.5909569 0.1492682 -0.579364 0.04172057 -0.034587048 -1.2711229 -0.3813027 -0.190881 0.27767688 -0.08277682 0.56544596 0.23967478 0.82512075 0.030639205 0.5837382 -0.37601626 0.5368471 0.07499112 0.22483303 -0.6184001 0.065911606 -0.27063894 -0.35151404 -0.89539313 -0.51828 0.3946879 0.19938484 0.29143184 -0.058853585 0.021633275 -0.42714083 -0.368001 -0.26734892 -0.03268914 -0.31685567 0.049535863 0.3200314 0.114166796 -0.53526515 -0.2850733 0.87473273 0.12731224 -0.5326679 0.20821641 -0.60078377 -0.25346783 -0.6775068 -0.5227691 0.061043177 0.0017774382 0.28635353 0.98004144 0.3827945 0.2678486 1.413675 0.3486903 0.32274008 -0.20805681 1.3644099 -0.33625558
dword 0.9523249 -0.69071823 -0.14665349 0.0552236 -0.5773739 0.95707834 1.1585734 -0.15109979 -0.5638688 -0.42155436 -0.71787214 -0.979479 0.3510809 0.31142232 0.5038298 0.14616816 0.5044851 0.15054107 -0.16000746 -0.300159 -0.10197512 -0.25840932 -0.36430818 -0.8956544 0.44861978 -0.03245162 -0.09430134 -0.012292182 -0.43256485 -0.22490084 0.40738863 0.70289534 0.40670317 -0.15876138 0.29188684 0.40871152 -0.10598755 -0.01903129 -0.32068872 -0.26494974 0.24857613 0.056792416 0.017987277 0.039022353 -0.24708085 0.5024943 -0.6030585 0.20980072 -0.15544468 0.36909038 -0.033055004 -0.26097035 -0.14280406 -0.11567609 0.042767152 -0.7468346 -0.7648173 -0.22918183 -0.32102907 -0.36677912 -0.027544953 0.6903843 0.22723109 0.12261025 -0.13276897 -0.04559066 -0.6531291 -0.35793427 0.54506916 -0.24884337 -0.2887219 0.09773781 -0.06477274 0.04170096 0.16274844 0.570292 0.23772472 -0.46426 0.337302 -0.21589631 0.58615184 0.00560584 0.5175157 -0.68371636 -0.21980807 0.09506605 0.82091266 0.203046 -0.1681196 0.03124745 -0.44511795 -0.06516634 0.81005067 0.29463783 -0.26856568 -0.110417955 0.13349268 -0.17939235 -0.03788942 0.6986307 0.5194869 0.9731603 0.22209474 0.33388427 -0.090352066 0.43494087 0.9204818 -0.023812547 0.16616486 0.37029162 0.28880373 0.67959464 -0.07871063 0.31667966 0.18003348 -0.87003076 0.27801296 0.1428331 -0.55320364 0.83034533 -0.44347775 -0.85136575 -0.38450065 0.053499233 -0.6247454 0.22335418 -0.72186124 0.019238688 -0.3490134 0.6612234 0.18931834 0.030638888 -0.46160075 -0.03036194 -0.23440066 0.07848044 -0.41584316 -0.42143154 -0.47054675 0.61111754 2.8051965 1.844822 1.8590385 1.3912591 1.116222 -1.0974183 -0.08117565 -2.7178926 2.2694364 1.3929005 -0.10930029 -0.7103548 -0.23537138 -2.4504163 -2.1556456 0.9098581 0.063925214 0.27591372 0.15089424 -0.45674193 0.4574602 0.47217074 -0.25335214 -0.43542027 0.50676745 0.24801585 -0.37198147 -0.09778312 -1.1686857 -0.5647855 -1.9234909 0.41677222 0.47912505 0.5133051 -0.23039307 1.4497284 2.2448623 -0.69331056 1.1658679 0.58098257 1.0330023 0.5576425 -2.7157063 2.66379 -0.17521732 2.0940716 0.53701323 0.665967 -0.38218176 -1.5438871 -0.17074229 -0.57128483 -2.243155 -1.3616984 0.61629486 -0.5615042 0.75741845 -0.7068683 -0.54199564 -0.8550302 -0.47529182 0.29676044 -1.3005744 -0.6734083 0.25147378 -0.07176216 -1.3885636 -0.71478575 1.0520865 1.032544 -0.421929 1.1264355 0.3253042 0.41050017 -0.2468212 -0.09854733 -1.2448506 -1.0014559 -1.1935164 -1.0664009 0.5219755 0.5643472 1.702866 1.4428215 0.7100082 -0.57876927 1.214581 -1.7750945 -0.023387441 0.2644364 0.48856568 0.8343629 1.0123305 0.7787608 -0.9749371 0.06450026 -0.8661881 0.06773646 -0.9653949 0.48737654 -0.17432204 -0.56620985 -0.004790268 0.14946434 -0.8047987 1.1864994 0.29804647 0.34833428 0.48338956 -0.75123924 -0.1755468 -0.19419397 -0.252857 -0.51018655 0.7816525 -0.41160226 -0.20775205 0.23282422 0.26613155 -0.061290793 -0.18422526 -1.2410294 -0.7206352 -0.5067877 -0.71006554 0.71456605 -0.42785832 0.25588417 -0.45360172 0.2127724 -1.8274765 -0.761609 -0.50669366 0.5931383 -0.545625 0.38764724 -0.4731271 0.19378704 -0.54422206 -0.3245257 -0.15195791 -0.048865236 0.7198868 0.20445417 -0.10182951 0.2568334 0.0262291 -0.121501856 0.36680266 0.10653303 -0.44557562 -0.108625226 0.45711827 0.003002059 0.20584917 -0.40864137 0.6123856 -1.2985108 1.6250485 -0.41860828
address -0.27720842 -0.32944915 -0.22458693 -0.3261307 -0.28539824 0.48937172 0.93593293 0.5854438 0.44155303 -0.5692944 -0.22461078 -0.3444364 -0.6141049 -0.9203025 -0.44358838 -0.21325192 0.17610082 -0.021385936 -0.42135915 0.07315008 0.7039009 0.70089823 0.31158194 1.2154584 0.8025144 0.5890066 -0.31981844 -0.34866205 0.11861835 -0.7168661 0.24889491 0.51825774 0.37127185 -0.043108273 0.7487351 0.4020179 -0.6094002 0.07088163 0.11269326 -0.2953551 -0.4883002 0.5556272 -0.8513221 1.8605261 -0.5649443 -1.5982573 1.7987381 -1.8433886 -1.3746524 1.0381594 -0.20383754 0.5044963 -1.0593933 1.7626745 -0.6339847 0.85017765 0.49141392 -0.017810557 0.47348887 0.4530748 0.2502244 0.45064425 -0.4044558 -0.4260389 -0.3051948 -0.013952583 0.23484056 -0.3729486 0.18393038 0.13965091 -0.105308376 0.3362958 -0.2343058 -0.3114081 -0.49129638 -0.54642755 -0.059827268 0.76854414 0.36934045 -0.018162552 -0.34922326 1.338969 0.24122113 0.064275295 0.20444526 0.7591813 -0.07605417 0.0021210925 -0.102599524 0.19363269 -0.45494193 -0.12350957 -0.5468946 -0.17607623 -0.08983096 -0.4928123 -0.4502503 -0.33069324 -0.11421473 -0.029669037 0.3125372 0.3850598 -0.30245063 0.22770156 0.03640931 0.13218859 0.45311925 -0.15865022 -0.81974304 -0.5296047 -0.09654805 -0.31473804 0.64421874 -0.04157639 0.20883253 -0.5290178 -0.2576794 0.48737246 -0.2595311 0.37939605 0.14831002 -0.043914467 0.28054354 0.23759 0.032533087 -0.1543609 0.7630888 -0.09220665 0.47860935 -0.036448378 -0.14405566 -0.3087585 -0.17373058 -0.067188546 0.6518274 -0.1722993 0.32235062 0.25297558 0.27219564 0.3087403 -0.008638874 -0.080954716 -0.27934512 -0.0065407692 0.11592554 -0.04602121 -0.017250424 -0.06178148 -0.0020180678 -0.05839724 0.5194134 -0.21071994 -0.25239304 -1.0300112 -0.86666083 0.17400976 -0.09048162 -0.19028404 -0.2516758 -0.24988113 -0.35082322 -0.087890916 0.26928353 -0.15738551 -0.28445286 -0.17110944 -0.17158541 -0.091699496 0.018001629 -0.58203816 -0.18727744 -0.18727255 -0.12782304 0.2633283 0.08350067 0.539447 0.6736734 -0.45359346 0.21507119 0.46153563 -0.110314384 0.20445712 0.22686237 0.015311807 0.4620295 -0.4127899 -0.46320137 -0.21814488 0.3015384 0.43050638 -0.24976292 -0.023599332 0.37611306 0.11988437 0.19336319 -0.12992895 -0.07895442 -0.14777036 0.44695863 0.14267138 -0.2670797 0.15389392 -0.10378665 -0.019557074 0.3234401 -0.64767057 -0.886044 -0.01453705 0.67859674 0.13929003 -0.36136386 0.30934718 0.08867702 0.17954299 -0.23855282 -0.10050121 0.7898145 0.83477134 -0.02400996 0.6056534 -0.07520707 0.00079227245 -0.40927798 -0.5063095 0.3967901 0.11494014 0.04916648 -0.12097227 -0.7842548 -0.33830085 0.40239972 0.3358323 0.34297618 1.7474625 -1.5700076 -0.39766595 -0.041471023 -0.75858355 0.18670729 -0.10869314 -0.78147095 0.75012803 -0.55634296 -0.52983695 -0.025295934 -0.3281428 0.44507095 0.5060683 -0.1823391 -0.11927403 0.078451276 -0.7742932 -0.067881584 0.2767333 -0.6351515 0.44030896 0.53508955 -0.7100581 0.48671398 -0.5444582 0.5865305 0.26312843 -0.27866647 -0.33589566 -0.18890809 0.38688517 0.006337905 0.15424702 0.2700789 0.14494559 0.58058643 0.050647482 0.25756708 -0.17331436 -0.0040041357 0.660353 0.0731431 0.10292555 0.10202995 -0.8878015 0.70842034 0.33560658 -0.23527777 0.15065753 -0.6927044 -0.35140732 -0.52236736 -0.64640623 0.10128328 -0.76852936 0.24697798 0.70267195 0.57821804 0.031686846 1.1923479 0.8922706 -0.10288321 0.708073 0.5633018 -0.019719437
r1 -0.35256928 0.2494865 0.27695706 0.1653508 0.59703326 -0.7416217 -0.6411367 -0.22446415 0.17390403 0.35599378 0.15545294 0.0083998125 -0.12465474 0.2547978 -0.22925992 0.14101626 0.4034275 0.41074425 0.15630236 -0.6365457 -0.17570016 0.4303438 0.26828563 1.0471227 -0.3025548 -0.05621758 -0.34331158 0.19111024 0.11761997 0.39181787 -0.038428217 -0.534526 -0.5641929 0.764424 -0.8444315 -0.7510023 0.08498582 0.1877888 -0.012279738 0.36704338 0.060139768 -0.0036183356 -0.0118164765 -0.37357593 0.22377987 0.6163058 -0.30138963 0.49383938 0.9005323 -0.35181257 0.5877043 -0.021789642 1.2428688 -0.61644524 0.069458894 0.1825807 0.3002062 0.088422924 -0.23007844 0.13731582 -0.084165014 -0.75341105 0.34712514 -0.1597258 0.16898985 -0.4643278 0.63371736 -0.012971843 -1.009386 -0.89765805 1.1935247 0.21206188 0.23281275 0.16410266 -0.267611 -0.18276824 -0.55843365 -0.07556636 -0.7227721 0.20850292 0.03424468 -0.2590429 0.25449142 0.2549374 -0.074429445 -0.2151054 -0.3147266 0.14615378 -0.12699476 -0.24769998 0.505444 0.27061236 -0.11124111 -0.2421421 0.23329864 0.09764193 0.057090957 0.14639491 0.17576052 -0.18559669 -0.5464597 -0.3199786 0.21061882 -0.16664512 0.18304697 0.07801521 -0.8626477 -0.048716545 1.1532563 0.86494446 -0.15156277 0.60544026 -0.3731141 0.118741624 -0.4328903 0.48922566 0.13037965 -0.508512 0.37776583 -0.08354829 -0.21027152 -0.18161508 -0.29700503 -0.13126086 0.24723142 -0.058038723 0.3714144 -0.09445451 -0.38729432 -0.17477107 0.3315532 0.10147258 0.28271642 0.14636345 -0.16201334 0.12596461 -0.10002172 -0.022041306 -0.19727813 -0.29802376 -0.68174756 -0.6548056 -0.38923475 -0.37406093 0.6181929 -0.7372523 -0.7030206 -0.68319213 0.5215865 -0.07638884 -0.16737752 0.11264523 0.4542511 0.035729814 0.036427084 -0.06564324 -1.539655 -0.6138403 -1.1215746 -0.015154398 0.8362765 1.198615 -0.43254176 -0.22562125 0.005068142 0.29416144 -0.7361697 -0.15140064 -0.6171794 0.76262295 -0.61130273 0.84503776 0.15151112 0.5530446 0.16844013 0.73444164 -1.2505878 0.4597445 -0.06302843 -0.64539 -0.27976188 -0.54790944 0.42083508 -0.995789 0.013940767 -0.14385594 0.36058795 0.059084833 -0.097024605 -0.056078453 -0.17528862 0.05686729 -1.9671468 -1.8212599 0.37096247 -0.19931376 1.3102981 -0.6479099 -0.47243753 -0.28453964 -0.15300049 -0.2726494 -0.837979 -0.9054496 0.3503716 -0.44137895 -0.44806832 -0.099797316 -0.6695173 -0.23878548 0.029976388 -0.7119399 -0.07452994 -0.47879034 0.23240761 -0.15227182 0.82281005 -0.10525171 0.22434558 -0.13021629 -0.078373596 -0.6185557 -0.5095224 -0.51244754 -0.6168862 -0.16298023 -0.15930569 0.37943754 0.28802317 0.058516808 -0.12648058 -0.25228268 0.09797565 0.382804 0.07476305 0.38599855 -1.0911789 -0.21507642 -0.46055764 0.03988537 -0.0322241 -0.545731 -0.4146461 0.622442 0.026177663 -2.6025262 -0.59138453 -0.66476893 -0.07064218 0.22046281 1.1705195 1.2638172 2.0360482 0.1651872 0.9327395 -0.9189265 0.62919563 0.60517067 -0.22675112 -0.28036094 -0.35536036 -0.6654446 -0.35800007 -1.0800878 -0.61521703 0.29915738 0.39534307 0.52818334 -0.43073556 0.3016896 -1.2123649 -0.8011017 -0.38500267 0.40777558 -0.6987911 -0.18229735 0.4751918 0.018193694 -0.4326394 0.11952237 0.87498677 0.23279436 -0.43367437 0.022325348 -1.0237124 -0.2817478 -0.6130618 -0.57595515 0.057428557 0.14576797 0.0391782 0.94483626 0.37668738 0.3665121 1.205827 0.4786892 0.55367035 -0.31761238 0.44427773 -0.27121645
 -1.4539876 0.78383833 1.1203802 0.25960186 1.3133198 -1.8866618 -1.4943871 -0.714021 -0.5707075 0.22122142 0.9453431 0.7869163 -0.20686977 0.51640004 0.18287364 0.45515338 0.37642205 0.6065302 0.26629767 -0.44779375 -0.21886341 0.56804794 0.20666747 0.6980905 -0.87855697 -0.16718423 -0.5716901 0.27065304 0.077372834 -0.008390942 0.15280041 -0.07460047 -1.0246114 0.19061375 -0.687079 -0.7323099 -0.5622319 0.08182122 0.16830054 0.465145 0.19728172 0.20429382 0.13995679 0.25559795 0.23435986 0.99671483 -1.4158479 1.1814715 0.5681274 -0.22226149 0.06559826 -0.30790535 0.22832736 -0.37679324 0.39678183 -0.39847916 0.090806104 0.3616911 0.02222154 0.17173617 0.30168068 -0.12604955 0.3605257 0.07560534 0.13156876 0.056541685 -0.04793697 0.5012974 -0.34943107 0.27870762 -0.27852714 -0.2853353 0.08037143 0.28112414 0.1298159 0.20934768 -0.61256534 0.025091695 0.07886788 -0.25978228 0.21517417 -0.304019 -0.64997435 0.9190179 0.003807908 -0.016632533 0.4797502 -0.17912962 0.1730634 0.40135983 -0.0027101154 0.0053084544 0.7329644 -0.4229676 0.9637121 0.84831744 -0.03464067 -0.6952206 0.017148634 -0.13691294 0.08126026 -0.37769294 0.06297931 -0.6149456 -0.4207302 0.07810086 0.34265646 -0.17103419 0.106165424 0.39447716 -0.3950542 -0.1310343 0.30498034 0.07244466 0.0684627 -0.35417488 -0.6020227 0.2869314 0.00509079 -0.71396583 0.8666519 1.0414724 1.0542437 0.060608037 -0.33377552 -0.12783945 -1.0732156 0.24116498 -1.2778211 0.030412663 0.5287532 -0.03522743 0.4832854 -0.40355426 -0.2918973 0.47808674 -0.17335351 -0.040067133 -0.2759896 -0.10289464 -0.7423891 -0.63932043 -1.0734534 -0.49549866 0.73734176 -0.24517936 -1.0877061 -0.49461538 1.3545787 0.698969 0.3878003 -0.50178117 0.14280957 -1.0211315 -1.014594 0.12997265 -1.4296057 -1.4644603 -1.2137501 -0.15589732 0.62774515 1.2894303 -0.30945963 0.09295848 0.44413847 0.30283585 -0.58392584 -0.08945021 0.05620702 0.17303674 0.54770845 0.019140681 -0.217608 0.29849482 -0.3496758 -0.5116646 -0.5618488 -0.11902041 -0.124089964 -0.28165162 0.030255802 0.011674637 -0.6584462 0.4941367 0.14620467 0.21144126 0.07787521 0.2965432 -0.065480344 0.17690775 -0.2816668 0.12313255 -2.0993083 -2.0200074 0.78338706 0.044138666 1.6867009 -0.9924149 -0.52831525 -0.7484601 -0.9473798 -0.17932665 -1.4186715 -1.4446007 1.4583298 -1.1438311 -1.0762575 -0.17216076 -2.0391219 -0.13108538 -0.12723842 -1.7825706 0.27029142 -0.12861629 -0.060706753 -0.26742008 1.435071 0.42086783 0.171516 -0.45781067 -0.12538631 -0.44864154 -0.7979548 -0.78498095 -0.2824713 -0.47689807 -0.15082112 0.072230406 0.056538712 -0.1370406 -0.19947052 -0.5466899 -0.5759582 -0.29785326 0.8138659 0.87513363 -1.0016259 0.5440558 -0.050199464 -0.29657847 -0.14378633 -0.58051366 -0.9556144 0.74048626 0.19345276 -2.9435072 -0.8339225 -0.5186581 -0.3214879 0.5805883 1.583996 1.2209705 2.6695566 0.20109934 0.6455437 -0.9052772 0.80765134 0.4100352 -0.18080698 -0.5377444 0.062509224 -0.18505007 0.09194131 -0.5323302 -0.4355588 0.09640455 0.3512469 0.34070024 0.05541435 -0.5075095 -0.15298033 0.06416128 -0.16676553 -0.17458132 -0.03953232 -0.39140865 -0.22389665 -0.014742264 -0.2769326 0.46544713 0.9844089 0.16153994 -0.4858055 0.20126191 -0.22868401 0.06234784 -0.7870621 -0.5579017 0.51916206 0.98749167 0.32692888 1.3940958 0.48995367 0.6198805 1.8185217 -0.22434926 0.71636 -0.8055941 2.0420315 -0.78489
eax 0.4454697 -0.32994142 -0.1798388 -0.06384047 -0.24651338 0.433751 0.4027784 -0.025609503 0.07141546 -0.22762182 -0.47465825 -0.73576117 -0.25651667 -0.17106864 -0.21339232 -0.13905194 0.19831912 0.054446675 -0.12499427 -0.33307248 0.24798353 0.18231079 -0.106237784 0.4220913 0.611323 0.3359462 0.08026593 -0.08022746 0.08936115 -0.9847448 0.39654964 0.60263354 0.42234057 0.18435948 0.3709237 0.32375008 -0.1647433 0.12640601 0.0937297 -0.07370057 0.17494127 0.2746321 -0.12084921 0.45205355 -0.32482687 -0.79987365 0.44950366 -1.033832 -0.9583929 0.26852307 -0.64845455 -0.13454777 -1.0201844 0.47928712 0.014472408 -0.20592242 -0.08212586 -0.40844613 0.21331438 0.14673004 -0.11913825 0.2422166 -0.10603344 -0.25255832 -0.2557438 -0.04295304 -0.36682823 -0.018301833 0.8741657 0.28295216 -0.42467546 -0.03893234 0.34247327 -0.13551831 -0.18441367 0.5848958 0.23131198 -0.23761146 0.11450451 0.22179714 0.13362546 0.3756448 0.12700553 -0.37550896 0.21696547 0.22159043 0.1644121 0.006164023 -0.105210416 0.07222862 -0.23128797 0.0042606327 -0.2341148 0.09280034 -0.4502282 -0.34152117 -0.09778216 0.14595713 0.028376654 0.22850083 0.040642135 0.22843213 0.07884708 0.26954618 0.2630709 0.28710306 0.047082916 -0.18164301 0.29478827 0.033108655 0.2969217 0.5698934 -0.08639688 0.2763303 0.036996882 -0.18686111 0.31952125 0.37759402 -0.19638412 1.1792743 -0.6479045 -0.9516267 -0.5515523 0.16069858 -0.30479214 0.2787517 0.08388558 -0.2076246 -0.09228234 0.2993183 0.093386516 -0.06966292 -0.31027696 0.04494535 -0.01708331 -0.121390104 0.090751246 0.21291617 -0.05481803 0.18619221 1.3906227 1.1313101 1.288102 0.8689873 0.49384665 -0.9018681 -0.030373381 -1.5376513 1.2194225 0.7772996 -0.11587001 -0.52879536 0.049474597 -1.8244759 -1.4794705 0.5904288 -0.013233557 0.37344402 0.11782168 -0.2813059 0.1747597 0.31354305 -0.12568535 -0.39440477 0.013395463 -0.22083095 -0.06937142 -0.09134076 0.20805492 -0.49429792 0.10661172 -0.018462379 0.16445096 -0.18860245 0.1549132 0.18532781 1.1053594 -0.34119314 0.20046723 0.33327433 0.74314886 0.60250455 -1.2984159 1.2283696 -0.09096639 1.1139452 0.3736786 0.34165487 -0.36703706 -0.8659704 -0.42886582 -0.4356849 -0.92165476 -0.35048637 0.13605669 0.063946486 0.66061383 -0.22643776 -0.25293198 -0.35800695 -0.46710783 0.105801456 -0.36433446 -0.4119907 -0.2778178 -0.19211678 -0.44585973 -0.33785087 1.8116032 0.26497072 0.108677775 1.6622043 -0.2823934 0.1302817 1.2634171 0.30639294 -1.26499 -0.5357559 -0.7688208 -0.6707183 0.2570585 0.3632608 1.1664394 1.1654267 0.41140038 -0.13325816 0.68129456 -0.72694176 -0.3624377 -0.14404823 0.18780552 0.5987772 0.76050377 1.1712127 -0.96861327 -0.2408594 -0.53047466 -0.4122702 -0.8827398 0.37189865 -0.19153586 -0.27242482 -0.118761875 -0.14995234 -0.21866147 1.2286868 0.28394142 0.26321214 0.13861729 -0.17740563 -0.3915878 -0.17289513 -0.17114113 -0.19581516 0.14089364 -0.16127169 0.17915149 0.2615406 -0.20638128 -0.16250281 0.024544436 -0.57009876 -0.3270125 -0.04302347 -0.24908084 0.5888085 0.038199585 0.20335564 0.05688929 0.56684196 -0.9039917 -0.8391357 -0.6013022 0.6555131 -0.63698536 0.7363878 0.03409292 0.4016307 -0.57263464 -0.29302114 0.005823127 0.0058409316 0.5524501 0.05700798 -0.5791895 -0.020226186 -0.004451014 -0.25196224 0.18131366 -0.08391754 -0.06123512 -0.03180483 0.29015353 -0.025950054 0.22820915 -0.022648191 0.0910286 -0.2617367 0.37923586 -0.010498256
symbol 1.5667821 -0.054348078 -0.55179614 -0.6207853 -0.54944986 0.038509052 1.8304871 0.7649042 0.652427 -0.6102913 -0.57539046 -1.1191137 -0.41782323 -0.98109186 -1.1400034 -0.10523887 1.6249286 1.0457507 -0.7316157 -1.2705729 0.28365123 0.26232094 0.08994857 0.64771116 0.066922836 0.030532576 -0.23251374 -0.07280959 -0.5161859 -1.688291 0.5776806 1.5503536 -0.32429335 -0.7757542 0.100986585 0.4424994 0.5654606 -0.38579145 -0.31641018 -0.41618702 -0.39169362 -0.16690397 0.27043137 -0.28567067 0.29629263 0.32189217 0.7620794 0.9075923 0.17306907 0.10766016 0.06491977 0.5041198 -0.40129918 0.6611069 -0.47767237 0.4177431 0.13422252 0.53175277 0.13396055 -0.07460301 -0.010978704 0.9314564 -0.31409672 0.66996276 -0.123701386 0.66354215 -0.13473849 -0.082222745 -0.45174482 -0.12356004 0.13603994 0.23372112 -0.57077295 -0.100684345 0.34809422 -0.8316707 0.09628435 0.4669031 0.46754524 -0.24777831 -0.6459929 0.4706663 0.06396253 0.6824354 -0.07898212 0.5065887 0.15748686 0.18261033 0.40708497 0.425977 -0.087665476 -0.16241877 -0.039874814 0.22230005 -0.019755358 0.07848725 0.12760034 -0.56261766 -0.3994061 0.2563875 0.16274284 0.8020747 -0.34118465 0.22723605 -0.07653975 0.39172074 0.23425643 -0.030880013 -0.68369406 0.08768686 -0.3802552 -0.4970597 0.4402644 -0.23402591 0.48033145 -0.4072427 -0.15789148 0.5099702 -0.21190389 0.053272855 0.24153803 -0.052465364 0.22592604 0.47000554 -0.061891954 -0.03949274 0.048539694 -0.37133822 0.29151344 0.35902363 -0.154662 0.40308645 0.051598135 -0.0563412 -0.38412264 0.3675909 -0.043873426 -0.84886044 -0.13879468 0.15986846 -0.008635058 -0.79494774 -0.9249683 -0.37996325 0.7744068 -0.25510094 -0.7129234 -1.1953304 0.3657873 -0.5917103 -0.07768289 0.016316408 -0.27545202 0.3208558 0.32911044 0.06049427 -0.7184366 -0.70443594 -0.50708187 -0.09596198 0.7295975 0.6270101 0.07930505 -0.19462033 0.26782742 -0.13651599 0.017634591 -0.11755629 -0.10153775 -0.78640765 -0.17421661 -0.9576247 -0.61329734 -0.6777541 -0.12848175 -0.13023575 -0.7856964 0.838322 -0.21929179 -0.38428533 -0.7516811 -0.8273076 1.559734 -0.958798 0.08210212 -0.602311 0.20931554 0.007384824 0.19684558 0.04813785 0.98137873 0.1072854 0.30303484 0.09700644 -0.041807204 -0.702352 -1.3347305 0.007789323 0.5074717 0.042594846 1.3154589 0.5955906 0.7441022 0.9900227 0.38723522 0.91173995 0.04181865 0.18348558 -0.21328546 1.0566969 -0.77063686 -0.3447723 -0.14595497 -0.38088015 -0.9873833 -0.13263574 0.15443662 -0.40976432 -0.16623086 0.09306937 0.45075205 0.48049432 0.84787804 -0.058716178 -0.039461263 -0.02351573 0.22549349 -0.7092205 0.38385162 0.2371165 0.48403537 0.40807265 0.9980324 0.8531831 -1.1610575 -0.15777263 -0.2546493 -0.09778634 -0.46422577 0.114362136 -0.40901816 0.013213337 -0.16393463 -0.5488845 -0.28824332 -0.63274366 0.16606991 -0.033361606 0.93356395 -0.45793328 -0.021287153 -0.1691721 -0.15083784 -0.16507815 0.6864189 -0.24915417 0.15896517 -0.19531481 0.6481668 -0.31666216 -0.20648567 -0.4464301 -0.6037175 -0.43797833 -0.14393589 -0.034021612 -0.40091404 -0.1338351 -0.34716073 -0.0839379 0.034374047 0.05098762 0.08230909 -0.27755278 0.38828412 -0.42688316 -0.9640698 -0.13573281 0.77380455 0.1360561 0.08671469 0.09739318 0.01782132 0.24055636 -0.12100481 -0.15174831 -0.10879623 0.121296406 -0.2388667 -0.08476382 -0.12437422 0.3008917 0.5009856 -0.12295022 0.70313185 0.44597408 0.028255116 -0.27761728 0.49768746 0.3068048
ldr -0.51606107 0.67844325 0.91822654 0.029425494 1.2611552 -1.6227018 -0.6669434 -0.6529176 -0.27700135 0.049475238 0.18959808 -0.21540323 -0.514827 -0.06947728 -0.3478059 0.44034374 1.0523865 1.1477109 -0.12219525 -1.1022252 0.24967702 1.029823 0.3442494 2.0088062 -0.820813 0.021923237 -0.5226861 0.21642628 0.18781865 0.05753089 0.07534739 -0.1247582 -1.2890266 0.53472465 -0.89954543 -1.1765988 -0.4599196 0.46556664 0.09869273 0.71312517 0.08508495 0.3913578 -0.11776608 0.6247325 0.24859178 0.46651882 -0.5985682 0.43861592 0.42510453 -0.44476974 -0.081747286 -0.39941016 1.294478 -0.81864583 0.43630365 -0.27150047 0.08720155 0.79639435 -0.45178026 -0.04318442 0.21682975 0.24599701 0.65369135 0.6546971 0.14549595 0.39654568 -0.268943 0.8669448 -0.4500072 0.39836365 -0.24173221 -0.19127761 0.12341301 0.21746504 -0.066464536 -0.052988023 -0.5126225 0.33192766 0.2010629 -0.6031138 0.15607159 -0.26180333 -0.5067883 1.2119975 -0.005834087 -0.078962564 0.58597386 0.13325548 0.1184987 0.27186385 0.4265565 0.08843735 0.7338129 -0.34832883 1.409928 1.1363932 -0.11596716 -0.9524014 0.10927392 -0.5760796 0.09542294 -0.8239963 -0.26001215 -0.8897546 -0.36950016 -0.067916326 0.07034557 -0.07881352 -0.07877233 0.2440708 -0.5482353 -0.5199428 0.6861512 -0.04025461 0.15315989 -0.43679523 -0.5244369 0.1374205 -0.012708099 -0.49098197 0.8202856 0.6162737 0.62180185 -0.15363191 0.123675644 -0.5027364 -0.022859244 -0.1332282 -0.779722 -0.078734666 0.3701825 -0.03612136 0.719499 -0.33235353 -0.39057434 0.4427285 -0.1547816 -0.5490482 -0.36453474 -0.18820402 -0.9579057 -0.9805999 -1.3526039 -0.5596543 1.1810639 -0.70181084 -1.764065 -1.0540608 0.44534615 -0.25878352 0.48426256 -0.16700193 0.24579842 0.356392 0.04734304 -0.330036 -0.5810087 -1.2056652 -0.64548063 0.17888921 0.1807409 0.4918945 0.20633504 0.42557225 0.5158231 0.6259042 -0.58100116 -0.045000505 -0.070553884 0.07628503 0.5311443 -0.4692135 -0.5094683 0.24597871 -0.38199824 -0.8645129 -1.0356547 -0.18509944 -0.06957645 -0.3968089 -0.5349211 -0.11674032 0.96423554 -1.049055 0.5323953 -0.69557166 -0.04600861 -0.025270782 0.12598033 0.67945033 0.056600697 0.341254 -3.042257 -3.1752365 0.988306 -0.21504521 1.370024 -0.99385834 -0.39361188 -0.62449527 -0.6224569 -0.21380897 -0.71767294 -0.82891023 1.4592794 -0.71396714 -0.3333193 0.23157698 -1.6370413 -0.23668213 0.007837956 -1.4306506 0.31464866 -0.32874972 -0.65476847 -0.27201408 1.4397402 0.76078165 0.51434183 0.095185466 -0.05213563 0.024960859 -0.5457643 -1.1598105 -0.23586158 -0.35680613 -0.39002275 0.04266164 0.19865972 -0.15572171 -0.2374834 -0.124451466 0.32503456 0.42168307 -0.21237428 0.49469373 -1.5234656 0.07887527 -0.9858627 0.17344588 -0.7030441 0.2214007 -0.557194 0.21864732 0.29612777 -2.3464065 -0.8462527 -0.6340779 0.3301182 0.23567091 1.0176066 0.6168047 1.3047025 0.11301838 0.789166 -0.5458022 0.57684094 0.2703758 0.2344396 -0.80934316 -0.2605712 -0.25564438 -0.4219599 -0.94220996 -0.724629 0.16529785 0.39082897 0.3485079 -0.2610176 -0.33003613 -0.70710075 -0.30299047 -0.1354521 -0.31354734 0.073291264 -0.5254448 0.3279732 -0.066259995 -0.4545421 0.20440586 0.44168738 -0.14754432 -0.6841405 0.3899146 0.39973485 -0.023349006 -0.37653723 -0.04143094 0.012889384 0.59997785 0.340139 0.9106121 0.17797972 0.35074225 1.2749146 -0.045199227 0.1884691 -0.20435634 1.5485839 -0.36038312
r2 -0.56651264 0.33943793 0.14851396 0.14553003 0.4618462 -0.67888236 -0.95503885 -0.18951078 -0.016174607 0.38815963 0.3594555 0.51051164 0.21352598 0.46936125 0.1217327 0.05506901 -0.14469779 -0.07672645 0.20870148 0.0060424926 -0.35806683 -0.14276162 0.109151304 -0.21944581 -0.40531307 -0.21755305 -0.21700054 0.19106336 -0.13966261 0.2572453 0.24521942 -0.35513282 -0.63739014 0.44629276 -1.0453943 -0.6621577 0.33454403 -0.06631755 -0.18038818 0.2564192 0.16986038 -0.097729094 0.11357716 -0.50668424 0.24353106 0.6191489 -0.3642064 0.55293816 0.91040826 -0.43070126 0.54864717 -0.013358601 1.1533692 -0.93347424 0.21830538 -0.15650037 -0.3015853 0.31926233 -0.6124699 -0.49240452 -0.084132224 -0.08035941 0.7748655 0.7119691 0.20504601 -0.06742589 -0.05564426 0.22674288 -0.59859407 -0.6338237 0.65034956 0.043489568 0.43168026 0.09755452 -0.034286108 0.39844358 -0.45311162 -0.44611955 -0.5969558 0.40525004 0.06181089 -0.6336897 -0.109489866 0.47614092 0.24833678 -0.13064246 0.012892542 0.40697747 0.22803518 0.36642948 0.7820634 0.29304624 1.2387818 -0.4780431 0.74905 1.055061 -0.043818668 -0.58591086 0.093062714 -0.11222925 -0.21724692 0.122488216 0.4349028 0.016641151 -0.16011827 -0.47526202 -0.36632252 -0.29654053 0.7391245 0.69107074 -0.07645374 0.39579192 -0.50405604 0.08677197 -0.49369603 0.24867423 0.16757117 -0.6459048 0.26533094 -0.7014976 -0.042556748 0.07203505 -0.11392099 -0.124525435 0.101364344 -0.12584941 -0.3659301 0.078624025 -0.68408203 -0.08651315 0.37663442 0.22746268 0.28857535 0.122661464 -0.24513271 0.29112485 -0.2210527 -0.26801333 -0.37871286 -0.3097008 -0.29512095 -0.26620066 -0.05723304 -0.11362715 0.7617882 -0.79072386 -0.7045054 -1.0505458 1.093082 0.18089846 -0.24660848 -0.13518962 0.5415589 -0.6157646 -0.514664 0.036315694 -2.014458 -0.8972894 -1.3898504 -0.009895288 1.1685314 1.7115875 -0.7179047 -0.3776131 0.2823485 0.7279858 -1.483465 -0.23289736 -1.1714772 1.1966864 -1.2907009 1.335351 0.53532344 1.216255 0.05077906 1.322108 -1.4512619 0.5931213 -0.028174695 -0.8477635 -0.33574235 -0.68713015 0.36099312 -1.0289258 -0.0035237279 -0.028908955 0.226001 0.056499384 -0.07418844 -0.04283704 -0.057757877 0.018145218 -1.4701084 -1.3621122 0.24163288 -0.14009172 1.0956239 -0.5442296 -0.41917455 -0.17941526 -0.389821 -0.36217007 -1.0663664 -1.1246815 0.25829127 -0.52494186 -0.62791634 -0.20687503 -0.38120848 -0.15820558 0.16132428 -0.39513293 0.020249953 -0.40992808 0.16895172 -0.12215081 0.43999848 -0.20853473 0.15682086 -0.15832372 -0.052360304 -0.45999017 -0.49677047 -0.3420029 -0.6992133 -0.2450091 -0.2842566 0.43415052 0.34984463 -0.025496846 -0.18938543 -0.4224625 -0.75314146 -0.9793205 1.1389159 0.38512352 0.20150383 0.33567727 0.6647189 -0.3339083 0.54529643 -0.35591608 -0.103814155 0.4197135 -0.018035106 -1.3085178 -0.3615027 -0.41851372 -0.20394112 0.16793667 0.5971583 0.85242474 1.1884819 0.21632002 0.3889841 -0.5622152 0.19151713 0.36465994 -0.312643 0.13532577 -0.27115405 -0.36825314 0.021513883 -0.62567335 -0.33888143 0.090321444 0.20023103 0.29531726 -0.43797278 0.065726615 -0.8534364 -0.3925266 -0.31319976 0.34465936 -0.53680325 -0.20678893 0.13336024 -0.113950476 -0.10532122 0.2620831 0.47200638 0.20682423 -0.33684325 -0.103117116 -0.66230804 -0.05866884 -0.46923548 -0.38145098 0.083328925 0.41167894 -0.11756778 0.7614453 0.3402071 0.33470222 1.0550278 0.21163693 0.40886927 -0.36569387 0.094466865 -0.46357015
[sp -0.124736495 0.31380802 0.28857556 0.40166023 0.54360944 -0.6080566 -1.2525605 -0.81155294 -0.32580987 0.64170843 0.7168866 1.5039507 0.58014363 0.8122192 0.8624445 0.21809234 -0.6449303 0.19595575 0.5929984 0.2038749 0.6103326 0.13099349 -0.22776794 0.8359772 -1.2128099 -0.3341055 0.11167412 0.44422093 0.33467567 -0.8317661 0.5108072 0.11009671 -0.4018746 -0.10021506 -0.5769109 -0.30392006 0.3605538 0.026288329 0.20915177 0.7073468 0.2101157 -0.49813768 0.76410526 -1.3066756 0.30255938 0.6764558 -1.5358026 1.2333617 0.42383036 -0.68313974 -0.52312183 -0.4694856 0.6506035 -1.3806136 0.661837 -0.88259333 -0.71297705 0.6503088 -0.5141221 -0.73495626 0.23105271 0.31731293 0.76519334 1.6635475 0.42866358 0.6541692 -0.80309546 0.9795294 0.2894975 1.2910696 -1.1424686 -0.6862287 0.49607822 0.019007804 0.8188997 0.95107096 -0.03242385 -0.58770955 0.26819032 -0.04207063 -0.36824003 -1.2115701 -1.8652498 1.190956 0.37730822 -0.41363925 0.56377023 0.0602679 0.44781753 0.26247168 0.41831672 -0.21852288 1.1064909 -0.07364064 1.0937362 1.1153833 -0.026610564 -1.1086454 -0.037153423 -0.41113254 0.30410638 -0.18424161 0.18466757 -0.19716164 -0.9398739 -1.274339 0.24245259 -0.50382763 -1.188749 -0.79196423 -0.39996743 -1.4203844 0.5570229 -0.37198836 0.25686777 0.052734118 -0.2296902 -0.24441689 0.26069933 -1.2439251 1.0685947 1.3222572 1.3969883 0.058546875 0.12443348 -0.32707566 -1.5567837 0.21832117 -1.4971387 0.005326834 0.28248718 0.2705623 0.70588773 -0.5222159 -1.4101171 0.86531687 -0.5415429 -1.0837923 -0.77603894 -0.5473185 -1.094492 -0.96899945 -0.9686787 -0.3159867 -0.5001115 0.8651178 -0.4261282 1.2464324 -0.20425501 -0.499635 0.047823463 0.4918522 0.2469086 1.3545728 1.1763041 -0.66159356 -0.76531893 -0.9839316 -0.5439789 0.22623034 0.52229047 0.53430843 -0.32500914 0.4349715 0.8265049 0.99592143 -0.7093226 0.098359875 -1.5022377 0.92454 -1.5767144 0.33768117 0.063616164 0.89613914 -0.7026557 0.9495019 -0.58522797 -0.1782762 0.9731634 -0.1919123 -0.62160975 -0.837296 -0.2923012 -0.3661581 -0.09874427 -0.58880866 0.09169712 0.12174286 0.11109369 0.8766194 0.47767472 0.47921625 -1.7614561 -1.572368 0.1569946 -0.025032016 -0.15628448 0.051961932 -0.3672646 -0.13687022 -0.011997221 -0.55257076 -0.51282567 -0.36955032 0.9952777 -0.100852355 -0.020831889 0.12269565 -2.289661 -0.32608712 0.33698133 -1.7366343 0.6227133 -0.46120626 -1.4664876 -0.43047723 0.9872989 -0.3972236 0.5441653 -0.3288166 0.16975191 -0.13070986 -0.59297436 -1.1465446 -0.13382903 -0.4080456 -0.2521908 -0.114882775 0.7007775 0.13018994 -0.20887153 0.020128986 0.59792876 0.6019141 -0.19343361 0.60904384 -2.6020842 -0.4133405 -1.6144352 0.44525194 -1.0154512 -0.40831634 -0.3587589 0.8336795 0.35748473 -3.2774715 -1.4595647 -1.10079 0.2921569 0.38697028 1.3288836 1.4308273 1.7147369 0.098596744 1.2614007 -0.9146791 0.52440834 1.2268833 -0.29348108 -0.648938 -0.7495795 -0.7224746 -0.55042505 -1.371331 -1.0846319 0.20853566 0.7918658 0.86902016 -0.5714952 0.44356743 -2.2400608 -1.201567 -0.52065784 0.51781285 -0.859497 -0.32755426 1.3923125 0.11185633 -1.4110973 0.4289397 0.57267004 -0.1843971 -0.8221856 0.5898064 -0.43021768 -0.10574339 -0.3940265 -0.46914145 -0.06581911 0.83479345 -0.026565412 0.9776088 0.58057237 0.78687596 1.6210328 0.60521513 1.026952 -0.79640335 1.7421347 -0.49738458
add 0.917434 0.11530122 -0.098028176 -0.398149 -0.26704898 0.099978834 0.9403077 0.14258035 -0.19443247 -0.38466287 -0.14337063 -0.24085468 -0.18131067 -0.5742542 -0.24928723 -0.08750874 0.7344762 0.42064327 -0.369953 -0.5037219 0.18926401 0.1942784 -0.0068176608 0.30258304 0.09373297 0.033169243 0.11813256 -0.1411871 -0.587961 -1.0653653 0.495628 1.221603 -0.35321036 -0.6211121 0.16724768 0.35072756 0.02398691 -0.32117563 -0.16341455 -0.2829555 0.0715227 -0.049456444 0.39183334 -0.09805484 -0.05303091 -0.27639768 0.22117808 0.23751064 -0.3774196 0.04223876 -0.42576864 -0.04154093 -0.5071054 0.19454937 -0.17266506 -0.34849963 -0.3601277 0.43203503 0.051368173 -0.48242116 0.041280694 1.2397584 0.12902142 0.92137116 -0.14589642 0.748738 -0.9210933 0.41956642 0.5179251 0.65381414 -1.0292737 -0.34261057 0.003705502 -0.22229281 0.40292457 0.6093188 0.025399059 -0.20322745 0.39523247 0.16478544 -0.22181803 -0.061434556 -0.26170415 0.601169 0.44963485 0.64096236 0.6293741 0.4785989 0.6893496 0.7369776 -0.09748219 -0.0052081817 0.7840478 -0.19144413 0.16641644 0.52100575 0.10060487 -0.57083476 -0.35330853 0.2685874 0.3196176 0.8162076 -0.20502332 0.16641156 -0.39157945 -0.08909432 0.74487954 -0.5160951 -1.009132 -0.3927088 -0.1298944 -0.5459125 0.20375343 -0.27622297 0.41900876 -0.6598965 -0.46544832 0.3916499 -0.24492596 -0.7481814 0.25555405 0.40658534 0.5430227 0.49484465 -0.28880352 -0.03008464 -0.76993704 -0.028101515 -0.23251581 0.27198857 0.13863651 0.23685984 0.34396312 -0.059618007 -0.34350014 0.16491373 -0.07752612 -0.45814255 -0.19962817 0.064447135 0.36405462 0.112347566 -0.16735852 -0.031749234 0.75061446 -0.30627006 -0.5257738 -1.1464913 0.4967264 0.17223528 0.10026607 -0.40087816 -0.20011976 -0.79782706 -0.6694146 0.12751885 -0.33645195 -0.52768415 -0.34052324 -0.03854701 0.3605201 0.6314276 0.086133584 -0.27674022 0.12277939 0.24299185 -0.65858036 -0.1308144 -0.15258679 -0.10683982 -0.03798524 -0.1495425 -0.10729096 0.18024275 -0.17251311 0.040375594 -0.5175341 0.4153712 -0.36597204 -0.25164187 -0.2806184 -0.27634305 1.0089731 -0.49661937 0.2386045 -0.61419517 -0.25938323 -0.1163106 0.194469 0.13619581 0.4169189 0.095996626 0.01846233 -0.28473276 0.18830031 -0.26326466 0.28204533 -0.46580204 0.24782209 -0.18171316 0.075889625 0.19752026 -0.3946087 -0.34470522 0.39752468 -0.022824062 -0.15806797 0.18919925 -0.6697517 0.33857068 -0.49508888 -0.7711744 -0.057215247 -0.12273477 -0.5966808 -0.104329094 0.66423076 0.19484916 0.14025068 0.06477717 -0.05773874 -0.26442087 -0.23632656 -0.3971803 -0.59410197 -0.06973377 -0.32628074 0.4339654 0.11634943 0.10436666 -0.2327956 -0.58407634 -0.7219831 -1.1938125 0.9898358 0.056662448 1.1989226 0.5647107 1.0390306 -0.39752173 0.36970595 0.01161229 -0.1682713 -0.28377447 -0.058936816 -0.114998735 0.13369021 -0.038099702 0.2814868 -0.08389246 0.04445426 -0.08310114 0.2054582 0.01419789 0.397216 -0.29863277 0.038100645 -0.31572717 0.22050491 0.1890555 0.08593664 -0.039056204 -0.031140247 0.09551588 0.12035747 -0.105977215 -0.21659574 -0.20427124 -0.051168565 -0.3942941 0.17823966 0.18988663 -0.15563679 -0.15475333 0.09061285 -0.1486002 -0.72728443 -0.09723261 0.49588385 0.36814913 0.115518145 0.10804671 0.17611445 0.09741984 0.13968155 0.042191684 -0.14753461 0.1002422 0.25367728 0.45949733 0.002877828 0.42994064 0.3837847 0.21255532 0.9628969 -0.14017224 0.16304119 -0.29947373 0.58706653 -0.22320713
push 1.744669 -0.19024844 -0.4319483 -0.7187885 -0.75220793 0.7810942 2.0479834 0.6501394 0.50423217 -0.28113133 -0.9618056 -1.5033205 -0.0136276055 -0.73005676 -0.55849683 -0.09468194 1.2944891 0.7557789 -0.52546805 -1.0945892 -0.32501492 -0.46363854 -0.30958313 -1.416313 -0.2194144 -0.55526215 1.1001967 0.027310738 -0.74790573 0.09196729 -0.09126017 0.35835618 -0.6277318 -0.3062524 -0.068063855 -0.05004939 1.099337 -0.4309161 -0.41663834 -0.6493502 0.10719813 -0.7435807 1.3812536 -1.6541309 0.317055 0.94200927 -0.099700846 2.040237 0.56388664 -0.5513023 0.074629575 0.29050928 0.28580153 -0.2699207 -0.4136653 -0.45864773 -0.20559387 0.4498818 -0.08063063 -0.7464074 -0.26466885 1.275363 -0.004246851 0.8192024 -0.27003288 0.82607895 -0.82862955 0.6591409 -0.32521608 -0.53179544 -0.12527038 -0.054396324 0.13635743 -0.109339096 0.14854884 0.17925796 0.14070581 0.040708117 0.20631942 0.21502043 -0.4943446 0.014304976 0.14629483 0.5875527 0.35998994 0.630449 0.093249656 0.54956794 0.5097269 0.6737008 -0.15268835 0.381791 0.5910257 -0.1043595 -0.11408384 0.31549597 0.3431196 -0.41889176 -0.56751114 0.2206293 0.2470842 1.2489146 -0.4283988 0.65323514 -0.43329266 -0.70971256 0.777273 -0.8994307 -0.9494843 -0.21222012 0.01808383 -0.6132107 -0.21030821 -0.6214364 0.31897068 0.082212254 -0.40526068 0.24667715 -0.12536506 -0.612448 -0.11621814 -0.13539998 -0.0796977 0.216981 0.21267965 0.17431496 0.062045086 -0.121051446 0.2102796 0.15725236 -0.1023276 0.6283778 1.0971022 0.582507 -0.69064426 -0.17537744 -0.5261978 -1.3946235 -0.72391653 -0.12570454 1.1327802 0.50439054 0.39264143 0.4168635 2.3277514 -1.9242445 -1.4729549 -3.396593 0.7727828 -0.38940316 -0.36050934 -0.3853698 0.4448008 -0.2537389 -0.521393 0.0013547351 -1.5086678 -0.46191788 -0.96459186 0.41319466 1.1542782 1.7509099 0.06513511 -0.6664155 -0.39746478 0.6613782 -1.286038 -0.020004475 -0.8217515 0.3257694 -1.1418828 0.8068926 0.65344507 1.0398469 -0.40785336 1.5366905 -0.056217324 0.02864969 -0.4568565 -0.19165449 0.6617207 0.17182884 0.63056487 -0.2350039 -0.933656 0.9445877 0.82952654 0.2036234 -0.22736484 -0.62853575 0.8802837 -0.071659066 0.77273107 0.48313287 0.52010506 -0.33805358 -0.04524673 -0.5917117 0.1095857 -0.097458296 0.49975187 0.15300427 0.7017869 0.50673044 -0.08875375 0.85885036 0.09908005 0.063219115 2.493611 0.7054257 -0.076922536 2.1722443 -1.2013454 -1.0508133 1.827185 0.28638753 -1.1103975 -0.59522396 -0.4668949 -0.32118604 0.087591484 0.92809707 1.3395007 0.6584421 -0.41824615 0.5145892 -0.7135478 0.39271826 0.4426503 0.23616199 -0.13982965 -0.14072797 0.19970673 -0.6528148 0.17828658 -0.38364232 1.8130143 0.5578767 0.7679531 -0.405336 1.0043015 0.6769369 0.6098014 -1.0099398 -0.12761489 0.30486807 0.6885768 0.071482435 0.7732556 -0.5545084 -0.25908938 -0.2986995 -0.91212726 0.112476125 0.12685747 0.04242239 -0.40925804 -1.2841209 0.9717167 0.5005921 0.14810254 0.5322235 -0.13503326 0.5835813 0.9095614 -0.41622666 -0.8861061 -0.90301996 -0.52789056 -0.75467014 0.77000403 0.34329903 -0.18655105 -0.3979041 0.48156193 -0.7317103 -0.7651303 -0.2217909 0.7167898 0.30066508 -0.38431415 -0.050400965 0.32522553 0.19724034 0.12231968 -0.12968303 0.053507376 0.5040259 -0.23785122 -0.34550142 0.006128971 -0.5379267 -0.8602085 -0.9341705 -1.442408 -0.06289526 -1.2170209 0.6915513 -1.7837685 0.40323108
cmp -1.2832212 0.2305795 0.37943476 -0.5418992 0.19560125 0.22115768 -0.050010305 0.14178675 0.14443949 -0.0733299 0.4071219 0.6116458 -0.6623666 -0.8495493 -0.10803734 -0.36035123 -1.0652847 -1.0291681 -0.11867939 1.1084169 0.54554164 0.7327705 0.6252876 0.5741361 0.5498159 0.46534666 -0.32614502 -0.43685666 0.31977814 0.72242874 -0.38882995 -0.6365174 -0.21461266 0.20411511 0.5854104 -0.296892 -1.468831 0.70604885 0.18376695 0.10350899 -0.45495647 1.0746199 -1.3436542 2.9662986 -0.7873473 -2.2205215 1.8997347 -2.5029163 -1.7287334 0.8396002 -0.40433797 0.25929236 -1.0699661 1.9774197 -0.5265375 1.0026768 1.0019509 -0.25352326 0.6661398 1.055882 0.3714588 -0.39990044 -0.15563051 -1.1732802 -0.40800923 -0.5954797 0.36031148 -0.2670618 0.44826713 0.35475233 -0.44847804 -0.11833675 0.11267319 -0.3824793 -0.5284697 0.07956268 -0.19479327 0.3708181 0.4611138 0.36304227 -0.14535758 0.9456869 -0.26261124 0.09865293 0.62713575 0.7722458 0.28611726 0.24157982 0.07611211 0.49383205 -0.48194727 0.025170436 0.24593627 -0.48256975 0.30045828 -0.13531038 -0.4749702 -0.19769064 -0.15060283 -0.13884327 0.46410644 0.469208 -0.34247738 0.42513308 -0.14331853 -0.6530997 0.50741565 -0.827762 -0.99970114 -0.87128526 0.1085411 -0.5095065 0.29234353 -0.05068267 0.08896828 -0.06637128 -0.44763076 0.21911877 0.1090158 -0.54751444 0.44235796 0.44933632 0.45178893 -0.032954786 0.018457375 -0.16413437 0.6268839 0.2866154 0.2845609 -0.48191342 -0.02517952 -0.6274483 0.2889419 0.09738105 0.5985735 -0.5052476 0.25124192 0.39075693 0.022054994 0.07017402 0.22442456 0.37879062 0.16379622 0.3924338 0.028249715 -0.004855134 -0.09592119 0.09827134 -0.37917128 0.39109293 0.7033522 -0.48504695 -0.06296737 -1.7168975 -1.5566483 0.25487304 0.3149673 0.027003499 -0.25689706 0.068331815 -0.8680593 -0.056757554 0.33413625 0.012252624 -0.5774814 -0.19673759 -0.028638186 -0.03259153 0.16661234 -0.009450941 0.2873178 0.21269964 0.12362467 0.6684006 -0.2604703 0.020907843 0.6479941 -0.6075407 -0.047185745 0.6784122 0.35423014 0.74808425 -0.55096066 0.70395213 0.057162922 0.4064512 -0.27082926 -0.044128176 0.013502944 0.14323685 -0.54796416 -0.20383939 1.0793204 0.68346214 -0.026157357 0.60642374 0.53771245 -0.27925277 0.29377452 0.005111662 -0.9219279 -0.005279996 -0.3241649 -0.6657542 0.40704042 -0.8321728 -0.31612694 0.16577995 0.40399185 -0.40540388 -0.020661714 0.04271114 0.111963525 0.13817169 0.46893832 0.075625524 0.7561913 0.9921997 0.07120482 0.18970744 -0.32365474 -0.22010633 -0.622109 -0.63298 -0.12548584 0.098509036 -0.40993115 0.578794 -0.6099473 -0.2705546 -0.2902366 -0.24752915 -0.6152983 0.14177535 0.021237604 -0.09125132 0.60444206 -0.21222873 0.6623186 -0.36359346 -0.66430765 0.642442 -0.71200645 -0.4090087 0.27599597 -0.45965138 0.16224201 0.29250762 -0.47349122 0.3109755 0.3206167 -0.39377385 0.60408854 0.46904072 -0.51569223 -0.017858708 0.5938604 -0.3326732 0.22081684 -0.6084016 0.4124314 -0.15206678 -0.36340365 -0.100558475 -0.09011032 0.424725 0.1715206 0.15091468 0.14230923 -0.017672056 -0.03134425 -0.33699995 -0.13575676 -0.15762302 -0.19851895 0.601588 -0.07972919 0.022682162 -0.048871182 -0.38240406 0.4956932 0.06851767 -0.19519751 0.24796997 -0.061972596 -0.12960331 -0.580259 -0.36119127 0.45873067 -0.06812663 0.35833687 0.88825613 0.46240708 0.19897576 1.296784 0.59698665 0.13418189 0.3699131 1.2784057 -0.36891773
qword 0.1662383 0.17302647 -0.42365178 0.024400359 -0.87089807 -0.031415623 0.1581854 0.49781582 0.250473 -0.6672757 0.29262468 0.55112046 -1.3611289 -1.9861137 -1.6490266 -0.6141048 1.8164583 2.2157433 -0.084970556 -2.4082212 2.2773433 1.7342192 0.9457762 4.4918737 0.5257902 0.92307967 -0.41730276 -0.1844293 1.1625168 -3.1320937 0.96332246 0.26647723 1.7580744 -0.13965051 1.7785605 1.3051465 -0.37844592 -0.664128 0.69370914 -0.38575196 0.4895742 -0.7913677 1.5539681 -1.6873889 0.484927 1.4043977 -2.0710213 2.2327576 0.4622719 0.04684835 -0.27781785 0.28131288 0.6839524 -0.5882317 0.47603235 -0.86618775 -0.5813038 0.9236926 -1.2749741 -1.4274876 -0.034243517 1.081387 0.5665648 1.274959 -0.26984337 1.430978 -1.1007899 1.4899894 1.4672377 2.3009758 -2.2554438 -0.47597325 1.1381958 -0.47462624 0.07344204 1.3135787 0.25485608 -0.5426608 0.767054 1.1396422 -0.899707 0.072725914 -2.7355947 2.1011474 1.4024405 0.35918152 -0.06655952 0.00036040583 0.47396106 2.1317039 0.3175675 -0.50926083 2.163132 -0.31982484 1.6401452 2.2145243 -0.73451287 -2.0497863 -0.43742085 -0.7008606 1.1201819 0.69167036 -0.014078395 1.2008779 -0.7290463 -2.5995502 1.0194248 -0.90902805 -2.6108937 -2.155788 0.020193039 -2.2804854 0.76551086 -0.5773776 0.4585966 0.48977473 -0.28114098 0.49557078 0.06967199 -1.972644 2.1072452 2.6475353 1.9722724 -0.25269836 -0.13046706 -0.3129403 -1.2190623 1.0418383 -1.4508028 -0.34726655 -0.35256493 -0.01706273 0.68452096 -0.32750785 -0.48912394 0.094955675 -0.5800215 -1.1730199 -0.58917934 -0.009096083 0.8700044 0.8157381 0.051575772 0.9492932 -1.0119896 1.7445762 0.019161675 1.9510747 -0.9525131 -0.26565015 0.33860075 -0.25863445 -0.19327028 1.5916457 1.1300969 -0.48498964 1.3623375 -0.6915072 0.6304609 0.789843 -1.017362 -1.3122058 0.2235022 1.1297163 -0.31479767 0.08229668 0.54744214 0.48713413 0.36559695 -0.604473 0.42941013 -1.4950504 0.37247854 0.37867862 -1.1951163 -0.5770269 1.8935734 -1.743181 0.86861575 0.673515 0.23622204 0.6192291 -1.2353263 0.89101464 0.17951812 1.4663815 0.41436848 0.67878073 -0.25764284 0.59331375 -0.19454218 -0.38766843 -1.570232 -0.9696927 0.74987054 0.7849803 0.26564094 -0.42973074 -0.3014935 -0.03779755 -1.1653854 -0.17122206 0.5653703 0.64347214 0.7556059 -0.3869192 0.4526543 -0.03340211 -1.2912952 -0.5230298 0.5641582 -1.4300301 1.0655724 0.031332433 -1.3473258 -0.13045107 0.5426752 1.0453565 0.58337563 0.58857745 -0.01646868 0.7112608 -1.3318666 -1.1984769 1.0784483 -0.12144139 -0.0054112095 -1.1252023 -0.1503766 -0.8017664 0.41598764 0.85332054 0.74758893 1.1612622 -0.88996637 0.5065432 -1.2875389 0.15337475 -0.9769503 -0.029614672 -0.482044 -0.07190107 -0.3068359 -0.08934586 0.06658222 0.41737086 -1.0578675 -0.25752112 0.47341472 0.075168975 -0.1081267 -0.21233574 -1.2613769 0.023196822 0.033278998 -0.0007107992 -0.14486751 0.02311199 0.017418792 -0.80211806 0.121031284 0.81316847 0.33441302 -0.0034901137 -0.052214786 -0.22181912 -0.101629116 -0.07547247 0.4251195 -0.3937894 0.86426353 0.9673848 0.58366454 -1.1597297 1.0729631 -0.6646453 -0.27950045 -0.4095429 -0.14409342 -0.012957338 -0.494726 -0.65600955 -1.0552962 0.41762695 1.7110167 0.5473233 0.1528663 0.282967 -0.3869585 0.17640628 0.2084463 0.00066413695 -0.19101831 0.17469782 -0.42710057 -0.32940382 -0.5406002 0.4811574 0.39298657 -0.093090154
r3 -0.49982646 0.26700833 0.09069775 0.17768995 0.25913554 -0.500116 -0.79818636 -0.034279186 -0.06579436 0.38111135 0.45909244 0.5902484 0.16707085 0.2832025 -0.055892546 -0.01972557 0.09028109 0.037658907 0.22473049 -0.2349123 -0.61564445 -0.07215625 0.28702116 -0.073017344 -0.31802806 -0.26019514 -0.3550649 0.16971155 -0.24823481 0.40710005 0.11370872 -0.4332531 -0.371782 0.5671399 -0.83110887 -0.39828083 0.5106369 -0.39366367 -0.209237 0.046241835 0.24105112 -0.3933548 0.49523112 -1.1786205 0.39039236 1.2446884 -0.8521493 1.328017 1.494172 -0.49145517 0.91997415 -0.0024292963 1.6736964 -1.2239262 0.15402088 -0.16654995 -0.41476604 0.3287336 -0.7716029 -0.7486755 -0.15511064 -0.07357423 0.6623794 0.615524 0.15635487 -0.03328566 -0.020893501 0.24856487 -0.51692116 -0.56915003 0.5343282 -0.041580036 0.5431759 0.046208832 0.059215505 0.741716 -0.4494502 -0.64215666 -0.78396255 0.6598403 0.059784614 -0.8543909 -0.1306598 0.39518687 0.25367853 -0.09064049 -0.08165391 0.38718823 0.17860793 0.21315584 0.7966951 0.3501064 1.0411195 -0.4832669 0.43464157 0.78600043 0.0773463 -0.050604623 0.050642394 -0.004960465 -0.39315727 0.19469857 0.44320828 0.21733202 -0.06950483 -0.40264317 -0.41412166 -0.2814532 1.2368735 1.0096364 0.012215616 0.7777241 -0.8821554 0.10512761 -0.70118266 0.51315475 0.24255945 -0.9803338 0.47642472 -0.7505698 -0.4070079 -0.19687824 -0.5127848 -0.2331609 0.14839116 0.0033333453 -0.15547787 0.18034698 -0.52474976 -0.24952714 0.38292834 0.20180658 0.32924604 0.31540558 -0.10243218 0.11815547 -0.18041798 0.07036281 -0.29473138 -0.43863657 -0.62484235 -0.48474312 -0.1712374 -0.32308176 0.70762545 -0.833943 -0.55967516 -0.85820884 0.90572864 0.291486 -0.29091308 -0.14295617 0.627439 -0.6240837 -0.5192217 0.0958527 -1.9396908 -0.57002866 -1.3076967 0.0047237854 1.0256659 1.6242782 -0.7657772 -0.41376367 0.05780744 0.5516512 -1.4497732 -0.23746249 -1.0414383 1.6127473 -1.1213224 1.8089898 0.69567287 1.2785673 0.15709296 1.3153118 -1.4907216 0.6539284 -0.2561648 -0.844799 -0.14816262 -0.6646545 0.2031917 -0.7582278 -0.16428925 -0.19368792 0.12176518 -0.01768587 -0.10178495 -0.16192019 -0.07113745 -0.0017016956 -0.5322971 -0.5425265 -0.018421357 -0.012473222 1.1647011 -0.43890166 -0.3838749 -0.1906385 -0.25985685 -0.35049218 -1.2295417 -1.2916565 0.13157709 -0.39405578 -0.48557004 -0.17630751 -0.77702427 -0.12673503 0.091126904 -0.75444084 -0.053205173 -0.3719513 0.28831655 -0.11894108 0.5324539 -0.35673517 0.1020446 -0.31816655 -0.0862265 -0.686056 -0.42818847 -0.05749638 -0.9228028 -0.26806054 -0.34952122 0.6908452 0.5651615 0.14823295 -0.35523137 -0.7548151 -1.2362876 -1.7263181 1.9586791 0.61243653 0.63168585 0.64727426 1.1143218 -0.4807111 0.9382256 -0.75662905 -0.18797883 0.7072232 -0.054699946 -1.9078721 -0.39414364 -0.6547697 -0.4251297 0.30527404 0.91379714 1.3262533 1.9905611 0.16705534 0.62446123 -0.87664616 0.11595401 0.6271411 -0.58974934 0.4483409 -0.34046033 -0.47864193 0.10488777 -0.3504335 -0.26133358 0.077042595 0.22134665 0.27379423 -0.4505473 0.008082903 -1.0266237 -0.4254657 -0.47522607 0.56022626 -0.69357663 -0.18563907 0.10079008 -0.11259143 -0.1464469 0.43827084 0.6308017 0.27230984 -0.12020507 -0.15316966 -0.84560466 -0.069847114 -0.4882886 -0.4556845 0.22466716 0.67746294 -0.21986145 0.769409 0.29479015 0.4281127 1.0104923 -0.10622593 0.6914225 -0.7187311 0.03273414 -0.5961074
edx 0.4396925 -0.6973279 -0.13807383 0.43808055 -0.6120173 0.75377965 0.5658521 -0.1027967 -0.7109021 -0.6730637 -0.49319023 -0.8782717 0.26179573 0.46072146 0.5056032 0.16214108 0.16838408 -0.14098269 -0.0918337 -0.1795601 -0.04146772 0.05214872 -0.08457025 -0.071034186 0.83281493 0.44890898 -0.6961638 -0.004113287 -0.16765597 -1.5210891 0.9562416 1.2925578 0.91375566 -0.064833224 0.46806723 0.8312647 -0.25584376 -0.23856413 -0.17976806 -0.118328005 0.40822455 0.38707662 -0.28420073 0.39002627 -0.47800115 -0.009654053 -0.7227904 -0.7143904 -0.78512424 0.6942834 -0.5046944 -0.47247308 -0.6816695 0.12387174 0.31776914 -0.68647224 -1.0910708 -0.17405877 -0.49273527 -0.54754555 -0.073449396 0.96588343 0.33336103 0.4288785 -0.22454871 0.31053624 -1.0132858 0.08781858 1.8633944 1.0404611 -1.2791293 -0.1415094 0.45376003 -0.27564624 0.074141145 1.4257984 0.4933762 -0.91642094 0.4412296 0.3620895 0.35478017 0.008082933 -0.17338386 -0.6185754 0.20951918 0.13301423 0.89000916 0.12827975 -0.16628626 0.25067392 -0.079956345 -0.3010864 0.94770074 0.26896518 -0.017665718 0.1770119 -0.22038908 -0.23259614 0.13669008 0.5499483 0.44142613 0.73931557 0.4671906 0.4991069 0.13350496 -0.080562815 0.7169876 -0.10941511 -0.21338814 -0.29667228 0.36050484 0.46636122 -0.17279197 0.51582146 0.19746593 -0.66981626 0.47304687 0.20617579 -0.47099712 0.671752 -0.23485832 -0.47379094 -0.17071317 -0.0058288598 -0.8024626 0.243846 -0.7805537 0.08303231 -0.2693698 0.50304604 0.2694925 -0.17119108 -0.8388052 -0.16647758 0.024778962 0.12904964 -0.047045086 0.26162577 -0.2952296 0.3716962 2.3036563 1.5248393 1.9058365 1.3679317 0.4001746 -0.99489665 0.27865615 -2.0818613 1.9378327 1.5627062 0.10400216 -0.8285532 -0.2615628 -3.206292 -2.5350542 1.0542867 0.50096375 0.51603204 0.31599906 -0.6515728 -0.042470712 -0.0032090272 -0.5062042 -0.46840224 0.42406458 -0.09681715 0.030252397 -0.1556233 0.4981185 -0.55754566 0.2908368 -0.2584094 0.08262911 -0.42133632 0.28727373 -0.36921903 1.4519587 -0.37780386 0.5125786 0.39129445 0.5786999 0.8398966 -1.9690776 1.7215713 0.46471202 1.0129848 -0.14414199 0.2305025 -0.10468309 -0.97562295 -0.5435302 -0.48621836 -1.2466574 -0.45260894 -0.06755325 -0.1587716 0.5121662 -0.27247125 -0.31575114 -0.5183488 -0.9239308 0.2145675 -1.3791211 -1.07217 -0.029527111 -0.6948496 -1.2253817 -0.65804493 0.39436397 0.39993703 -0.23126231 0.34300798 0.5749524 0.8555309 -0.39639163 -0.057294615 -0.64304954 -0.36683324 -0.84889036 -0.61036134 0.33482787 -0.030655636 0.6682765 1.076317 0.58819056 -0.6807129 1.3068345 -1.2693483 -0.6867083 -0.033252396 0.6183697 0.7655429 0.4743334 0.8637791 -0.8860373 -0.06854647 -0.8384854 -0.3289679 -0.7559124 0.42170346 -0.5036024 -0.61071956 -0.18209629 0.28792682 -0.5152729 1.6261878 0.24041887 0.5442559 -0.027662916 -0.28239435 -0.39460993 -0.14106593 0.114060186 -0.4466196 0.22745468 -0.2947203 0.089614004 0.61580056 -0.4122392 -0.08211272 -0.07177742 -1.1332333 -0.3848266 -0.32747862 -0.91868865 0.9031496 0.02904973 0.5986463 -0.06946605 0.7089293 -1.8033286 -1.009255 -0.6122475 0.9135034 -0.9058367 1.0874058 -0.0111131305 0.5679827 -0.95554644 -0.49692154 0.15295976 0.0013183501 0.81713647 0.18089336 -0.9072792 0.11909414 -0.18039024 -0.5766701 0.56220925 0.29847294 -0.43518612 0.46973357 1.1904408 0.46428436 1.4590015 0.042812604 1.0054564 -1.4860411 2.235262 -0.48786727
rax 0.43200213 0.016841486 -0.4917434 0.11926667 -0.6670686 -0.04147609 0.093067326 0.3158355 0.13837036 -0.6549925 -0.10443921 0.00010498805 -1.2247725 -1.4890066 -1.3705162 -0.4752455 1.3292092 1.6777402 -0.12397627 -1.8760355 1.9945763 1.40507 0.5677154 3.9352977 0.7404341 0.9964347 -0.10837337 -0.19883318 0.9243838 -3.4039397 1.2009777 0.9479498 1.6549004 -0.14830755 1.412775 1.3531085 -0.107882515 -0.51860577 0.5088885 -0.2052655 0.50291514 -0.4240326 1.0194298 -1.0061929 0.24222146 0.48061082 -1.0253226 0.75205857 0.036086455 0.075931765 -0.35400915 0.2771877 0.12417348 -0.23667818 0.3469343 -0.5708222 -0.44545713 0.40103984 -0.7007764 -0.98047143 -0.088696145 0.97614336 0.24283527 1.0324496 -0.3192337 1.123359 -0.9366912 1.0912433 1.5863328 2.0285218 -1.961106 -0.28947648 0.99950105 -0.4208391 -0.0060641533 1.2090687 0.36733162 -0.37851247 0.61126566 0.76865447 -0.6731696 0.26718196 -2.0086803 1.4576155 1.1544905 0.36825392 -0.004417557 -0.03139677 0.45750895 1.7694805 0.25208524 -0.36210483 1.420979 -0.198662 0.9521281 1.5772476 -0.73250633 -1.7970557 -0.28292072 -0.43334708 0.8745595 0.6082966 0.1799194 0.85645604 -0.44071284 -2.0064313 0.77636516 -0.7881386 -2.1277227 -1.9125412 0.0739864 -1.5947229 0.78820336 -0.37865636 0.55474806 0.0026792046 -0.00373577 0.66490686 -0.08928906 -0.7641628 1.3128597 1.6435337 1.4327492 -0.012594264 -0.214555 -0.1479332 -1.0606928 0.5551312 -1.1850132 -0.07710042 -0.22756195 -0.10229549 0.21102184 -0.35357067 -0.14970048 0.1620589 -0.20171665 -0.52432513 -0.25170258 0.0053832172 0.61500967 0.6753654 0.20482588 0.7731965 -0.824293 1.1653574 -0.060147833 1.2691282 -0.24085958 -0.05683789 0.21734579 -0.31516334 -0.058125045 0.6976598 0.4810377 -0.14105864 1.2291131 -0.35501483 0.798074 0.41545382 -0.78750956 -1.1827984 0.11987091 0.86612415 0.0064375782 -0.10681523 0.56644064 0.36734456 0.2940197 -0.79526716 0.41428408 -1.3016596 0.21749449 0.010691851 -0.71994334 -0.42122784 1.5270528 -1.2681658 0.84595275 0.39195874 -0.04821438 0.16703576 -0.8779963 0.4852974 0.33249882 0.8722509 0.19531684 0.4469013 -0.2740313 0.41029793 -0.25205538 -0.36887857 -1.8012199 -1.1804252 0.5391912 0.5533464 0.33884335 -0.29019332 -0.3395437 -0.15237018 -1.0360463 -0.12966344 0.12688304 0.21155906 0.58132845 -0.5622651 -0.13863261 -0.2403556 -0.5267705 -0.22603601 0.42069945 -0.5828574 0.8473018 0.085346244 -0.97733086 -0.09609174 0.39688933 0.70028216 0.35339382 0.35024226 0.13931166 0.53587484 -0.74956936 -0.6350673 0.9124918 -0.2269902 0.37489244 -1.18264 -0.07698334 -0.7430407 0.43993023 0.87941307 1.049729 1.5029651 -1.1690179 0.32680246 -1.1670002 -0.00038625445 -1.1438581 0.184364 -0.39217752 -0.31260344 -0.33802763 -0.064730875 -0.14511104 0.9236046 -0.7200918 -0.13170165 0.54880035 -0.15334168 -0.25933787 -0.2429901 -0.96313506 -0.17710114 0.20356178 -0.0199334 -0.22884098 0.2723715 -0.20943147 -0.32986993 -0.054792184 0.3441922 0.27243224 -0.14382023 -0.28477097 0.002653581 -0.087875545 0.0141767245 0.22965811 -0.19870035 0.2693265 0.5927287 0.23290768 -0.5456874 0.6644394 -0.48211572 -0.6513164 -0.26033828 0.10921311 0.15068033 -0.55379933 -0.4033995 -0.68498534 0.1893399 1.5057678 0.5948877 0.26635954 0.21737735 -0.39135468 0.26222527 0.22194818 -0.044841874 -0.14264049 0.11950536 -0.34525603 -0.58165693 -0.44057354 0.28437084 0.25749308 -0.08239468
call 2.096116 -0.55492264 -0.26209676 -0.054089274 -0.57187074 0.7059514 1.8998133 0.053276435 0.056575943 -0.60588354 -1.3805087 -2.414939 -0.7352966 -0.934046 -0.97478473 0.10850224 1.6478559 1.3019649 -0.45445815 -1.8705068 0.6183169 0.46852565 -0.36063132 1.3114914 0.27527562 0.13468663 1.1243416 0.036640294 -0.05219866 -1.4182966 0.3037214 1.0288423 -0.006960539 0.05344271 0.3027218 0.37435082 0.79356015 -0.29964796 -0.0057872483 -0.10771008 0.54183704 -0.4141105 1.1674386 -1.5397604 -0.08363165 0.11974915 -0.25325018 0.2941841 -0.36488238 -0.51052743 -0.9061379 -0.53114724 -0.94031304 -0.24120116 0.06525142 -0.95914805 -0.17847334 -0.17585877 0.4560049 0.0313699 -0.30001917 1.195102 -0.13010067 0.83607566 -0.17005622 0.82044053 -0.75622874 0.87123173 0.64875823 0.63223 -0.6937655 -0.04091258 0.32441223 0.003305874 -0.0047408366 0.4707411 0.24080156 0.024261791 0.21319602 -0.4826393 -0.09087649 -0.06532983 0.10210402 0.26513055 -0.15372999 0.058012735 0.2800088 0.008937743 0.1254224 0.22647889 -0.27909368 0.10747827 -0.23738357 0.398212 -0.29678842 -0.064646736 0.12813143 -0.51716214 -0.10042533 0.116732314 0.23543869 0.52648133 -0.025197508 0.050448902 -0.16175437 -0.28528053 0.51419485 -0.39183763 -0.47145006 -0.23389359 -0.09772345 -0.26968253 0.42163718 -0.18828695 0.63216525 -0.37806675 -0.15955454 0.8254981 -0.38911352 1.138359 -0.17786047 -0.56794083 0.15284263 0.39720228 -0.039264664 0.16306509 0.058223125 -0.56696796 -0.16390203 0.49849603 0.1499829 0.23287007 0.43472913 0.06415012 -0.69350874 0.10523319 -0.05944445 -0.34736565 -0.032942634 0.062529765 0.5660595 0.24287528 0.34283262 0.18948202 0.9722026 -0.9231927 -0.9731881 -1.787534 0.87855256 -0.032222766 -0.16850995 -0.08636732 0.08026861 -0.008978257 -0.12846588 0.14035618 0.20958208 -0.10030385 0.38740906 -0.028799636 0.55857867 0.30971506 0.34721687 -0.10634854 0.51838255 -0.0047106305 0.51754206 0.16021143 0.37987524 -0.9892831 0.60494924 -0.92634153 -0.3566625 -0.85606384 -0.14292672 -0.69303185 0.46785673 -0.18631057 0.033135135 -0.08891534 0.49385604 0.3276128 -0.046629623 0.34794015 -0.16214336 0.014643074 0.26822633 0.028778132 -0.16934055 -0.40374482 0.47134176 0.009635729 -0.8857142 -0.47594574 0.41245344 -0.13353126 0.07356557 -0.36170805 -0.23008832 -0.448151 0.25145325 0.2544836 0.57775635 0.44745088 -0.049207944 0.6472128 0.40501902 0.07171569 0.9226029 0.44075933 0.05893451 0.991125 -0.383248 -0.3032315 0.56164557 0.12904948 -0.26653135 0.10953414 0.043843944 0.011727726 0.17369926 0.60089433 0.8839537 0.34178925 0.20452218 0.15457791 0.120372705 -0.2427238 0.22387217 0.024737192 0.06358413 0.44716236 1.6241734 1.3334239 -1.4921029 -0.25065085 -0.91841435 -0.25294036 -1.6353022 0.71237534 -0.3335608 0.15857291 0.22475432 -0.41511855 -0.098893285 0.15560538 0.11082859 -0.052894622 1.036207 -0.5133813 0.055565648 0.1613128 -0.25991488 -0.39600834 0.86607325 -0.31578442 0.08946792 0.08084419 0.49589846 -0.06490629 -0.29785818 -0.32746986 -0.5280771 -0.05161632 -0.084456444 0.16319796 -0.27128565 -0.18408869 -0.34686425 -0.053570274 -0.55115116 -0.3492957 -0.41888955 0.018654354 0.09708331 -0.36602485 -0.23466289 0.21288913 -0.23294768 0.23583513 -0.5696732 -0.21064997 0.48237437 0.13299312 0.40452754 0.08266473 0.37956503 0.40285257 -0.3201599 -0.017383767 0.08503181 -0.5160731 -0.61421144 -0.49869233 -1.1429561 -0.5909429 -0.65691996 0.0488249 -0.4479318 0.41626683
ecx -0.3766871 -0.25438523 -0.046573196 0.20242205 -0.045507167 0.27752554 -0.35752672 -0.1521802 -0.18284275 -0.09890946 -0.2529255 -0.2332165 0.09484013 0.38851884 0.3348424 -0.13138354 -0.45528856 -0.5573847 0.0900103 0.29018208 0.14536712 0.05550203 -0.19505669 0.32358062 0.68839496 0.29939887 -0.036621824 -0.13092673 0.03823722 -0.86595434 0.4723258 0.71604925 0.5337682 0.15400442 0.30852965 0.40717024 -0.29814354 0.39303112 0.02117144 0.21164456 0.16155504 0.50795436 -0.5874717 0.9810427 -0.40871006 -0.80771285 0.39812186 -1.3308483 -0.7875114 0.39078048 -0.45640102 -0.09720207 -0.6836366 0.3517157 0.12519275 -0.32726598 -0.17917867 -0.574725 0.31871477 0.21543695 -0.021709355 0.044434335 -0.02085578 -0.37887132 -0.20053996 -0.5326316 -0.31699646 -0.35193932 1.0933269 0.20684783 -0.36256516 -0.14498346 0.33273986 -0.23421943 -0.11479067 0.9117981 0.2939371 -0.47417998 0.053978696 0.24596694 0.31854948 0.27419937 0.14998971 -0.9589066 0.2695499 0.085655026 0.30897206 0.054757994 0.11306798 -0.00517505 -0.16843373 -0.0635353 0.434186 -0.053319827 -0.34830222 -0.075222135 -0.22102802 -0.052271977 0.12849572 0.4442291 0.14295915 0.5141329 0.3775167 0.449746 0.33810875 0.296486 -0.046972983 -0.29414064 0.57324624 0.14938273 0.4565262 0.9497521 -0.19860622 0.55144495 -0.15332143 -0.47016704 0.53190476 0.19886547 -0.20728862 1.0809057 -0.72407746 -0.8259677 -0.38414505 0.23223369 -0.53208095 0.3169325 -0.47723013 -0.09139148 -0.37255207 0.37724423 0.3031333 -0.12571034 -0.7712832 -0.16418746 0.029144391 -0.048451386 0.23679264 0.5578377 -0.15038455 0.14895004 1.6724552 1.5266421 1.9585553 1.2575471 0.31571034 -1.3067396 0.39754182 -1.9711547 2.0696442 1.4495655 -0.089926936 -0.826048 0.10244333 -3.5650215 -2.7927759 0.9014339 -0.23142697 0.5423455 -0.0035285973 -0.49982202 0.3149177 0.6684948 -0.53878295 -0.69464654 0.018160995 -0.05921956 -0.51491183 -0.22320643 -0.7630224 -0.008766394 -1.2897975 0.99047637 0.5806522 0.7160605 0.310677 1.4253289 1.6832887 -0.48040953 0.7515696 0.6534049 1.1800543 0.8776964 -2.6927848 2.3494978 -0.20669313 1.7083696 0.4745854 0.57150817 -0.52601415 -1.1582026 -0.9490984 -0.56431 -0.9886439 -0.1001781 -0.07989865 0.16871424 0.8419315 -0.04902894 -0.37627712 -0.47424096 -0.7866794 0.040442076 -0.8850114 -0.989398 -0.41844475 -0.48777497 -0.7282653 -0.47985193 2.168246 0.21103609 0.16468546 2.089493 -0.24936616 0.32852665 1.6546841 0.40170458 -1.6834183 -0.77260333 -0.92174166 -0.82707494 0.3162292 0.16287823 1.2632976 1.4053437 0.17020647 -0.27836382 0.7415586 -0.5522525 -0.4394972 -0.1084468 -0.069918014 0.27421892 -0.13679825 0.050630227 -0.0030477156 -0.18144138 0.2985179 -0.11441001 0.047858026 0.24481787 0.2220311 -0.54670334 0.022491772 0.08078074 -0.25250578 2.5394535 0.4592204 0.50579774 -0.18629499 -0.10926851 -0.95854807 -0.50791097 -0.37492234 -0.1575276 -0.067593224 -0.14167608 0.08597875 0.4519147 -0.60461587 0.13419233 -0.0014825532 -0.7279039 -0.08769909 0.275205 -0.17173128 0.5395924 0.0951796 0.25254658 0.24456045 0.53157735 -0.5804417 -0.55708987 -0.40317145 0.77387494 -0.5575 0.823602 -0.16218497 0.3706201 -0.3732385 -0.2806464 -0.22736648 0.06974227 0.8936617 -0.11907977 -0.4279175 0.18212996 0.13619243 -0.12876879 0.3759986 0.06246836 -0.25109893 -0.17517911 0.4366447 0.17122988 0.18184622 -0.19949181 0.16918193 -0.4627809 0.23273323 -0.026535328
str -0.8755619 0.624526 0.75329214 0.17080104 0.9679058 -1.3079332 -1.1434782 -0.5348494 -0.28345007 0.29129118 0.80665416 1.0620947 0.049748685 0.2808935 0.23515354 0.26031363 0.19856289 0.464351 0.2478751 -0.252674 0.008477647 0.5142966 0.2210063 0.9903336 -0.9276246 -0.21844614 -0.51659465 0.21330312 0.09060031 0.15776025 0.0751841 -0.20686756 -0.8978025 0.14244647 -0.67091393 -0.7591684 -0.41435096 0.18924582 0.106901616 0.5053072 0.07293754 0.07436441 0.03748614 0.10582011 0.38237944 0.9765309 -1.2999604 1.2587624 0.7259556 -0.27767396 0.16003388 -0.22812049 1.3765452 -1.0025839 0.45524246 -0.4074028 -0.17991592 0.8088084 -0.536591 -0.41096497 0.2684069 0.23747449 0.56256807 0.69597083 0.2332291 0.4196206 -0.45447448 0.6848522 -0.11523097 0.7153969 -0.7186023 -0.49555004 0.1203229 0.051708143 0.3691459 0.44117317 -0.34553117 -0.12488574 0.26686236 -0.15726079 0.083788015 -0.5485654 -0.88322216 1.0185591 0.20312011 -0.044053167 0.63299674 0.15694663 0.4055712 0.43601874 0.4659268 -0.11178074 1.41024 -0.44008234 1.4574633 1.4517317 -0.044194892 -0.9868384 -0.09572377 -0.30801168 0.278825 -0.25060278 -0.13166389 -0.4279254 -0.7272561 -0.2676329 0.49371138 -0.219634 -0.54636455 -0.053593084 -0.40422612 -0.7485935 0.47736683 -0.17768346 0.13203865 -0.384298 -0.5691404 -0.05755239 0.030871296 -1.3002357 0.96641445 1.175666 0.9882327 -0.051566135 -0.071289875 -0.39773846 -0.9648303 0.29312092 -1.0552015 -0.09457192 0.36455798 0.110329874 0.5829355 -0.49544302 -0.65847456 0.5763922 -0.30434328 -0.64991164 -0.5100812 -0.21236804 -0.9389804 -0.85755616 -1.2529135 -0.5254383 0.44350034 -0.018209178 -0.7999584 -0.08169306 0.17933206 -0.07960724 0.3337159 -0.09578226 0.03746337 0.14682831 0.057807986 -0.37773517 -0.85808414 -1.167715 -0.85099405 0.14593291 0.351865 0.7176011 -0.10741659 0.2538491 0.6436271 0.81558514 -1.0064102 -0.09964452 -0.629546 0.5449991 -0.37150276 0.029208519 -0.24604218 0.6234345 -0.49260238 -0.060150266 -0.78437173 -0.0052322433 0.08897028 -0.13647 -0.3240877 -0.21673894 0.100576654 -0.1810074 0.23504831 -0.41421014 0.009145098 0.20118351 0.1086736 0.6486268 0.12080783 0.33514202 -2.001633 -2.139937 0.606035 -0.23506449 0.9220757 -0.5965196 -0.21692841 -0.4048843 -0.4422254 -0.29418477 -0.7733903 -0.7020594 1.2425221 -0.63516665 -0.36140442 0.20463048 -1.9651718 -0.26955873 -0.06310639 -1.7718996 0.28298983 -0.22909194 -0.76205546 -0.2864129 1.1981263 0.27928555 0.3422804 -0.029837342 -0.07041445 -0.24655877 -0.79061556 -1.0535738 -0.33986545 -0.2414958 -0.52195334 0.2884054 0.11098041 0.05682232 -0.29077032 -0.3709089 -0.39432094 -0.24255016 0.4400083 0.41087198 -0.8323386 0.14904594 -0.106346786 -0.1115053 -0.4648879 0.037982076 -0.42075992 0.38558087 0.36074615 -2.0529938 -0.80469316 -0.6068434 -0.045219332 0.43793344 0.8231285 0.5563663 0.983606 0.17972025 0.43116397 -0.3794008 0.40536448 0.19811198 0.058560863 -0.6334102 -0.07799944 0.014930217 -0.19487134 -0.626828 -0.4232675 -0.11669018 0.48145548 0.36965176 -0.016858237 -0.2773792 -0.31568804 -0.07386072 -0.038016476 -0.19513042 -0.106973566 -0.0679858 0.5867267 -0.0562884 -0.42059514 0.131606 0.5219606 -0.10447695 -0.5374138 0.33403003 0.062016852 -0.10303556 -0.36029553 -0.15078801 0.17586061 0.5033839 0.20126839 0.8101988 0.4517698 0.53428185 1.4715871 0.41176695 0.43595532 -0.16099964 1.3253387 -0.31536394
esi 1.0879165 -0.08370581 -0.4374266 -0.28738105 -0.48291558 0.20254168 0.8666116 0.58004594 0.59828305 -0.26979688 -0.40610096 -0.66616565 -0.28919512 -0.4955875 -0.65300506 -0.2851485 0.77289796 0.4085312 -0.2768539 -0.72595483 0.42724264 0.11567935 -0.28343397 0.7108807 0.29354128 0.008704396 0.3409464 -0.23488794 -0.15365894 -1.3772049 0.25457567 1.0223376 -0.19068083 -0.36777472 0.114167735 0.27489874 0.078629345 -0.01871847 0.01142847 -0.10606337 -0.0024469781 -0.12569694 0.37064508 -0.5721884 0.27660957 0.065764695 0.28638315 0.50646347 -0.034713086 -0.14348644 -0.4599937 0.13068472 -0.5416135 0.17468067 -0.001893499 -0.3253103 0.33000454 -0.13435407 0.5598066 0.37045792 -0.14614382 0.27261305 -0.36867452 -0.042019486 -0.15844956 0.15320563 0.025362205 -0.10684952 0.06695054 0.111759305 -0.08250809 -0.09902583 -0.032475002 -0.2416554 0.13822803 0.15269142 0.19642237 -0.0026283413 0.1684616 0.03762327 -0.19936821 0.13937898 -0.02067427 0.22404301 0.2844908 0.24993353 0.0075150505 0.1886402 0.7245195 0.5480583 -0.15199399 -0.18467885 0.31223315 0.17574623 -0.0765369 0.48657697 0.19860782 -0.40073702 -0.3813731 0.47918916 0.065180615 0.6199345 -0.026230313 0.15202443 0.08810335 0.5377516 0.04862204 -0.13341394 0.02063866 0.26811993 0.06425694 0.16036761 0.09978019 -0.051538777 0.3360771 -0.31255174 0.0325083 0.6842772 -0.13448563 0.36301836 -0.29109114 -0.12224471 0.043503467 0.47974724 -0.34448016 0.32313728 -0.3411168 -0.14341247 -0.22361852 0.2936396 0.0038364308 0.45482117 0.13948806 -0.13711035 -0.86253184 0.05508386 0.07907767 -0.4089129 -0.29379398 -0.051578343 0.58318645 0.23162682 0.21448556 0.20023109 0.5429506 -0.94358665 -0.22074354 -1.6170316 0.49271637 0.08205837 -0.2939191 -0.40218246 -0.15213157 -0.90078115 -0.55287415 0.17235918 -0.4307376 -0.24477446 -0.21736686 -0.0023469536 0.39029032 0.48335245 -0.09959072 -0.40112156 -0.05061946 -0.46137297 0.029359529 -0.12078516 -0.09897807 -0.4646865 -0.19695266 -0.35990614 -0.24912502 -0.20740658 0.09602838 0.007718596 0.43832347 0.3397046 -0.1648352 0.16602473 0.88504905 0.49253494 -1.2690668 1.5246236 -0.531932 1.3725013 1.1011237 0.8949883 -0.58797896 -0.79117763 -0.05881574 -0.3406126 -0.8436443 -0.28761944 0.32879734 -0.25064576 0.38889164 -0.259114 0.026231049 -0.37372294 0.31618485 0.43159348 0.3982209 0.36253208 -0.07785437 0.5212699 0.16598539 0.08544553 1.3029227 0.70235014 -0.2307829 1.1983875 -0.8316168 -0.46945825 1.4848067 0.48158482 -1.4153448 -0.9392562 -0.6435722 -0.45810455 0.32973826 0.5914264 1.3919148 0.9184832 0.031791292 0.37310737 0.1523318 -0.20164229 -0.110309206 0.11212289 0.022579677 0.27074018 1.0248094 1.3785009 -1.2858226 -0.41919395 -0.18270892 -0.47676384 -0.6735112 0.20767131 -0.49360228 -0.19505318 -0.052320898 -0.6267422 -0.0008507843 0.961752 0.2884767 0.124463305 0.54565173 0.029825402 -0.36591697 -0.05937982 -0.7388468 -0.14932527 0.2783064 -0.17891635 0.3807051 0.021265315 0.17334652 -0.4565654 -0.031554025 -0.40868643 -0.42670807 0.124907255 0.49658257 -0.210348 -0.059591323 -0.24238126 0.4233197 0.18006794 1.0524188 0.19091317 -0.118523315 -0.1305708 0.19650659 0.36900052 -0.7491688 0.25805816 0.5841151 0.061276916 -0.46727785 -0.12176673 0.69651514 -0.11042995 0.20563492 0.021059617 0.3666948 0.52070117 -0.115581445 -0.047371943 0.012372889 -0.5644751 -0.037868157 -0.26361096 -0.4454151 0.018742757 -0.532283 0.12084542 -0.56863946 0.65442836
xor 1.5843403 -0.56161463 -0.53022695 0.03526167 -1.117196 0.8798177 1.8426963 0.6114433 -0.12691684 -0.8290339 -0.75358224 -1.4185822 -0.19318424 -0.5773529 -0.54137915 0.07710318 1.2068683 0.7927864 -0.38328257 -1.1052285 0.07394195 -0.019973045 -0.087358154 0.0050777798 0.33163235 0.13814463 -0.19576252 -0.021287084 -0.31379396 -1.2372553 0.5154673 1.0219929 0.47500396 -0.5044625 0.4254768 0.8275088 0.37822735 -0.79380846 -0.19668357 -0.552281 0.25415894 -0.4150343 0.79044336 -1.2819484 0.05601256 0.715609 -0.72824097 0.8506862 0.009827446 0.107210696 -0.27214888 -0.17560798 -0.49588466 -0.06590091 0.0034891432 -0.5189303 -0.74902046 0.23810793 -0.4256381 -0.6554221 -0.20786825 1.1690648 0.013631358 0.8936869 -0.14430307 0.98813057 -0.6890608 0.39335993 0.8498319 0.8531919 -0.9314808 0.08654167 0.008667075 -0.12211316 0.24544331 0.29558992 0.36554608 -0.27707866 0.4109828 -0.0047619487 -0.13485229 -0.12285159 -0.1301257 0.23418352 -0.07335703 0.11355626 0.3952928 0.068449944 0.05597143 0.42308313 -0.033592034 -0.24553001 0.41799283 0.43441084 -0.035983153 0.20204203 0.09858042 -0.25895393 -0.14391781 0.2997746 0.31680736 0.62936765 0.055403393 0.31390932 -0.16587459 -0.28654143 0.83524764 -0.0039433865 -1.1459495 -0.63228416 -0.0909246 -0.6343434 0.13781342 -0.13588159 0.5866464 -0.35840148 -0.009649577 0.42348954 -0.37938848 -0.12235141 0.30392462 0.25173175 0.29331392 0.113526456 -0.35546544 0.10799576 -0.51753765 -0.003940975 0.032270223 0.34399807 -0.023719115 0.20640267 -0.0143476 -0.01986415 -0.3328425 0.23830907 -0.2155346 -0.4837073 -0.13649185 0.24131438 0.85535985 0.07888119 0.121018425 0.20361069 0.16700558 0.1762339 -0.12895729 -0.5881786 0.12855497 0.024611091 -0.010830135 -0.05036756 -0.41299886 0.14933084 0.14017268 0.25768197 0.6358708 -0.059206698 0.36724788 -0.18933603 -0.016272087 -0.4428152 0.048246235 0.067830525 0.48654887 -0.099277794 0.5816844 0.0841127 0.67653555 -0.76873684 0.768299 -1.1904556 -0.4317352 -1.0890402 -0.016777849 -1.1366799 0.30608436 0.1768036 0.036051482 -0.10980775 -0.27485636 -0.10810131 0.2934783 0.031188894 0.31098092 -0.23844264 -0.1543874 -0.042566203 0.16178082 -0.20465127 0.484994 -0.04989838 -0.4521789 -0.20247404 0.06848607 -0.44508794 -0.47152713 -0.17623125 0.06586067 -0.1497794 0.24452345 0.39014757 -0.07758766 0.31849682 0.10642919 0.30495864 -0.26400492 -0.21321079 -0.5451871 0.62692016 -0.468306 -0.5563753 0.32891116 0.26715112 -1.2293386 -0.21004114 0.027223771 -0.13945082 -0.19665276 -0.0029271024 0.26926756 0.25553498 0.34647056 0.2726807 0.46572894 -0.19940165 0.72748965 -0.9474619 -0.06235044 0.184347 0.6690699 0.6335763 1.2583591 1.332121 -1.4403086 -0.088072374 -1.2527642 -0.37875724 -1.2820266 0.42381445 -0.72554314 -0.21784183 -0.088834986 -0.06054028 -0.34028727 -0.34909037 -0.051287316 0.05946014 0.6534382 -0.40195805 0.2636039 0.25976047 -0.13328469 -0.48408467 0.6001228 -0.21835364 -0.10146998 0.24846993 0.26527297 -0.16133283 -0.22708322 -0.5898112 -0.52607197 -0.45010975 -0.5395822 0.31205466 -0.27223974 0.1985044 -0.3294698 0.2491033 -1.1209587 -0.4222775 -0.2886261 0.20744805 -0.20945476 0.16532953 -0.42274454 0.20883127 -0.12946628 -0.0018524759 -0.24046254 -0.14228944 0.40232784 0.21465416 -0.008472151 0.09204986 0.13805251 0.04678214 -0.008143976 0.21467958 -0.285546 0.072126254 0.52413106 0.06298755 0.45260498 -0.08935451 0.4464885 -0.99926203 1.2512255 -0.043699227
#0 0.12076917 -0.05587791 0.1075881 -0.19295903 0.21899068 -0.6136737 0.9304756 0.29822817 0.15552671 -0.695396 -0.28012127 -0.8837733 -0.9430848 -1.0221887 -0.9355347 -0.010347026 1.8140882 1.1371436 -0.75940657 -1.2949482 0.4285289 1.0105081 0.5005666 1.9929472 0.6626374 0.4787569 -0.87871367 -0.29440883 -0.18907444 -0.6011465 0.25756583 0.6101824 -0.4291411 0.20727497 -0.09462917 -0.22361366 -0.75097466 -0.06859634 -0.06308333 -0.3099109 -0.14186256 0.35994604 -0.5742727 1.1613364 -0.15719846 0.020301133 0.4501457 -0.42122898 0.06274478 0.42104673 0.34234396 -0.35197055 0.44765866 -0.05309942 -0.062071897 -0.032458823 -0.06676229 0.48889908 -0.35677782 0.012321889 0.17631526 0.864049 0.34877875 0.46115687 -0.06635123 0.14820541 0.44968286 -0.27202627 -0.80643445 -0.553384 0.73948044 0.6049452 -0.35707882 0.03711733 -0.4481588 -0.7159092 -0.68800074 0.47800976 -0.035458997 -0.48636058 0.2669132 0.7623681 0.8636561 0.5149112 -0.25129336 0.36994356 0.19931422 0.3313486 -0.29315102 -0.15390015 0.07702699 -0.04484225 -0.59818923 -0.045720328 0.39431247 -0.040626902 0.008234502 -0.119629756 0.06560725 0.0041369125 -0.3580198 -0.6698567 -0.15864469 -1.141429 0.34311792 1.196801 -0.24896231 0.5778271 1.3861 1.6321458 -0.35099825 1.0595245 0.40187338 0.29450867 -0.22639742 -0.81127775 -0.0755325 0.08329805 -0.31244054 0.7579215 -0.29235843 -0.79039663 -0.8239205 -0.06827952 0.04228474 -0.44906807 1.2322239 -0.19604857 0.0761075 0.086369395 0.12857078 -0.0034271958 0.043317277 -0.03701643 0.3921325 0.05346784 -0.07069643 -0.25275993 0.061213672 0.36315134 0.085748784 -0.51772314 -0.86887515 -0.5965784 1.3707112 -0.91530126 -1.0664716 -1.5718148 0.8979848 0.04932263 0.23095281 -0.21714269 -0.19218636 -0.28922603 -0.24342947 0.06782131 -0.96570015 -1.2355981 -1.1089329 -0.15845484 -0.12438401 -0.016281314 0.12704429 -0.076138884 -0.20675597 -0.23942022 -0.14803745 -0.10630306 0.51672137 -0.54444647 0.7281863 -0.6400343 -0.6057034 -0.41548792 0.25570557 -1.0567467 -0.75914145 0.22657415 -0.68751746 -0.43709698 -0.82633936 -0.14619444 1.9472696 -1.9150094 1.1735137 -0.8277477 -0.44826534 -0.13809502 0.3161008 0.30363074 -0.2638515 -0.05848358 -2.755602 -2.6854143 1.1916674 -0.62534636 1.6546478 -1.2828541 -0.03546434 -0.4195085 -0.7125175 0.08436757 -1.199359 -0.7578709 0.819744 -1.0244875 -1.2666781 -0.08339398 -0.85165787 0.18971024 -0.6176318 -1.3218298 0.4077843 -0.011459278 -1.1903745 -0.39169893 1.6801332 1.0590953 0.13812682 0.70507675 -0.13672152 -0.29345068 -0.94195044 -0.9088299 0.19693826 -0.24066895 0.36087856 -0.41854727 -0.62060326 -0.18625785 0.59939003 0.35185328 1.0022184 2.4615772 -1.9704275 0.12732433 -1.9874709 -0.9124629 -1.1199551 0.21704343 -1.2376562 0.09222647 -0.88720113 -0.10004047 -0.17177756 -1.8332196 -0.04178366 0.10422598 0.050002642 -0.111570545 1.1767986 0.4129192 0.7246396 0.1919213 0.4260222 -0.3570959 0.73572505 -0.6942355 0.6877267 -0.638819 0.4521803 -0.026159124 -0.35521677 -1.124942 -0.5116581 0.31860378 -0.063509025 0.31899896 0.15212983 0.1389843 -0.052535262 -0.12431974 0.10053536 -0.43037358 0.010120645 0.38143194 -0.21533199 0.10064851 0.09532884 -0.7695542 1.0160861 0.29027972 -0.35576537 0.11836529 -0.76535374 -0.31041455 -0.7125536 -0.6096238 0.15600868 -0.34594804 0.07973045 1.2520925 0.9318993 0.4639399 2.0536997 0.6493325 0.39254352 -0.16003121 1.5632913 -0.29202086
esp 1.3936207 -0.2133294 -0.29144788 -0.6841972 -0.3541889 0.504533 1.9263937 0.3435851 0.29931805 -0.6642426 -1.3116837 -2.1776788 -0.5234033 -0.8812841 -0.71837914 -0.050593365 1.3094046 0.6620466 -0.6783264 -1.1256278 0.19955412 0.10572909 -0.2340202 -0.024972824 0.37978575 -0.04429501 0.91265243 -0.065941475 -0.52691096 -0.714773 0.33809993 1.0067906 -0.21835443 -0.121777885 0.32452396 0.29495838 0.7098205 -0.16290803 -0.36391932 -0.468574 0.08849867 -0.26538345 0.7664172 -0.37026545 -0.17762548 -0.045565233 0.8013818 0.2270553 -0.17112459 -0.09469397 -0.038259692 0.20973527 -0.24771143 0.3949128 -0.45677808 -0.20095854 -0.049091645 0.17460388 0.18040213 -0.3449184 -0.119823955 1.4029052 -0.068598725 0.5670698 -0.44012085 0.52935594 -0.70978415 0.42996287 0.16408777 -0.378335 -0.12568091 0.18447852 0.25738484 -0.3283285 -0.24623977 0.2909267 0.13894562 0.21844855 0.34385547 -0.09531627 -0.31199127 0.66822416 0.3377073 0.2357407 0.26051775 0.7548398 0.32630536 0.48774663 0.33152708 0.48472387 -0.25206578 0.40000814 0.56233567 -0.21593937 -0.1054603 0.1834109 -0.08616974 -0.9156317 -0.3884016 0.19262223 0.4108868 1.5545121 -0.21921203 0.751047 -0.24296856 -0.73089993 0.89128715 -1.144859 -0.6698924 -0.13766587 0.06357576 -0.114507295 0.20556606 -0.23326406 0.34898695 -0.58618283 -0.20715405 0.46233776 -0.39691767 0.3253402 -0.20387784 -0.52261335 -0.055286083 0.4007812 0.042944003 0.058110926 0.101755716 -0.2935672 0.09812182 0.3628428 0.073276736 0.32045275 0.5566227 0.39554897 -0.19599493 -0.12484261 -0.20968655 -0.8802097 -0.48310098 0.14123926 1.6539944 0.93481636 0.91068006 0.72932667 2.7896564 -2.6330588 -1.7798216 -4.612619 2.3323455 0.30556002 -0.13108332 -0.79261553 0.45512787 -2.1376717 -2.0671718 0.5141455 -1.4860063 -0.53202266 -1.0211923 0.009833796 1.3003052 1.9919988 -0.03489914 -0.9354962 -0.17309466 0.6569233 -1.3461206 -0.10814875 -1.325587 -0.20672731 -1.8415694 0.9372115 0.64891964 1.2170118 -0.23697886 2.1871643 0.57479143 -0.30708286 0.058892295 -0.022819493 0.5783976 0.24579723 0.41936493 -0.1908322 -0.50221163 1.0016485 0.6155268 0.13714243 -0.27438328 -0.80041355 0.34341875 -0.28479084 -0.29029834 -0.19929637 0.68422806 -0.3417045 0.30154487 -0.7196871 -0.013313948 -0.36144438 -0.04801705 0.13564736 0.07355257 -0.011749592 0.117898054 0.19284995 -0.6778798 -0.17581955 3.0016835 0.7352776 -0.20192102 2.6045294 -0.88263804 -0.7291935 1.6354599 0.22825114 -1.0488973 -0.3458657 -0.6179858 -0.33826092 0.22026229 0.9872172 1.6035893 0.8224382 -0.11271131 0.22740202 -0.102029674 -0.21386792 0.16144079 -0.0033119975 -0.0143834185 0.24091211 0.6694172 0.19779125 -0.6177254 -0.3807824 1.2350221 0.31220564 0.23094031 -0.008744183 0.61067593 0.5136553 0.39005762 -0.96104574 -0.33990565 1.2490779 0.8556045 0.40512457 0.89135087 -0.85065216 -0.6347448 -0.7993903 -1.0400394 0.08141991 0.3020826 0.0317473 -0.26009977 -1.1549032 0.8482123 0.4510485 0.20779258 0.3021928 -0.0469795 0.4693244 0.6021976 -0.13497296 -0.94209987 -0.7799321 -0.39440212 -0.74407923 0.92746115 0.5235084 0.010477279 -0.42676887 0.7707003 -0.6889649 -1.0563177 -0.19616973 0.84375113 0.05835117 -0.5124247 0.056152057 0.44145188 0.1460179 0.19234915 0.00427668 0.048922285 0.44997537 -0.19521844 -0.48969296 0.0035527237 -0.2703506 -0.5929642 -0.68932116 -1.0729948 -0.20611057 -1.0654936 0.56977254 -1.2610623 0.38320217
edi 1.8412821 -0.5422649 -0.83431786 -0.20684625 -0.99589473 0.8384503 1.4630511 1.0868613 1.1124328 -0.10963728 -0.46777242 -0.74188244 0.015397012 -0.22896817 -0.5293524 -0.34803152 0.32999766 -0.17776936 -0.22986199 -0.17558555 0.02757538 -0.3042767 -0.5146719 -0.34417844 0.35571066 -0.14476489 0.10042023 -0.2115198 -0.18535843 -0.96604025 -0.087423846 0.81961954 -0.34294012 -0.32337725 -0.0717874 0.14049806 0.08378184 -0.020274831 -0.008472187 -0.22465074 -0.27908078 -0.28708476 0.38285202 -1.0897355 0.3838113 0.2124059 0.43998083 0.83358383 0.049108356 -0.12184838 -0.5242038 0.14593004 -0.9079219 0.5055482 -0.088230595 -0.04059921 0.86962277 -0.45940298 0.9517061 1.1282972 -0.29325268 -0.63356805 -0.7287762 -0.98996884 -0.106585905 -0.35745126 0.90168035 -0.7511318 -0.6153056 -0.5887984 0.911728 0.13029395 -0.36799815 -0.20387024 0.17414626 -0.4134932 0.22250292 0.032256152 0.011354758 -0.048685737 -0.19469061 0.01796412 0.4966988 -0.13615775 -0.019853596 0.08444168 -0.16565223 0.1423279 0.6486303 0.14030549 -0.3112647 -0.35269684 -0.28768724 0.6070988 -0.545732 -0.070230916 0.55601466 0.3227472 -0.428376 0.82165 -0.3081958 0.44244412 -0.036051895 -0.027727166 0.48840058 1.5697066 -0.59230334 0.4251893 0.8114171 0.92886233 0.054303255 0.6922844 -0.21220778 0.082885504 0.31807265 0.03156372 0.16807395 0.7443185 -0.037271034 0.6059164 -0.643526 -0.4377748 -0.447632 0.4826899 -0.5322578 0.565983 -0.09119703 -0.2780251 0.112249464 0.45750538 -0.12319171 0.69220215 -0.027374152 -0.088908516 -1.38553 0.06657988 0.021383578 -0.61728317 -0.45603877 -0.05784453 0.9416182 0.12311312 0.25696668 0.12010332 0.79486424 -1.4196563 -0.24982181 -2.3665423 0.37773842 -0.013986631 -0.59329265 -0.27084652 -0.33475524 -0.79870754 -0.2098964 0.26765522 -0.9668883 -0.24056181 -0.58396906 -0.20159353 0.49325442 0.49372426 -0.23350288 -0.6610698 -0.26602238 -1.0502182 0.5082685 -0.25969085 0.33981803 -0.5058965 0.29405504 -0.5110006 -0.61635077 -0.8087741 0.4616705 -0.532821 0.11763333 0.99898225 -0.6364811 0.066755824 1.2214121 0.70333713 -1.6713192 2.0192988 -0.92717236 2.2360246 1.8520759 1.325794 -0.8126391 -1.5143318 -0.035653487 -0.53148556 -1.2089157 -0.33660406 0.3752553 -0.61109793 0.3760074 -0.30904335 0.09402076 -0.4732702 0.83581954 0.77348393 0.58129644 0.61310977 -0.36737964 0.91607964 0.17115903 0.07133821 1.9327456 1.1609361 -0.43853882 1.7941004 -1.3374976 -0.6827186 2.3309069 0.69179827 -2.1959589 -1.8203855 -1.2007122 -0.9044441 0.4868607 0.61986023 2.2219152 1.5561723 -0.0060614613 0.44050914 0.52674264 -0.4620801 -0.08370609 0.4896895 0.29532567 0.573255 1.9126335 2.5103323 -2.327186 -0.533158 -1.3562036 -1.0909021 -1.697222 0.44328383 -1.1627624 -0.5405894 -0.23254359 -0.58938295 -0.118705496 0.30263954 0.35071906 0.12518205 0.5554848 0.12011662 0.00395139 0.48423144 -0.36367208 -0.21227397 0.6662764 -0.51061445 0.8283751 0.34505984 0.30514437 -0.86246955 -0.18312107 -1.1764674 -0.97198504 -0.17771584 0.55177253 -0.15796089 -0.0073164017 -0.20193894 0.45808357 0.5893268 0.9761859 -0.17766665 -0.28412256 -0.02145826 -0.06391524 0.82232153 -0.77395594 0.57380885 0.56336486 -0.10524531 -0.20122755 -0.0006738485 1.1036695 -0.18957612 -0.7805364 -0.30694568 0.18754 0.38290748 -0.0039534844 -0.14385863 -0.14356402 -0.3233179 0.515955 -0.19645171 0.38545746 0.6635664 0.006837607 -0.6672704 0.35811764 0.7673707
bl 1.6452361 -0.10008682 -0.24464278 -0.3154301 0.21028604 -0.5751024 1.3512673 -0.08856302 0.432552 -0.41625243 -1.0231596 -1.7357553 -0.6176665 -0.7680865 -1.0295938 0.18212487 2.115683 1.7539152 -0.62388515 -1.9870179 0.73522395 0.735468 -0.07130746 2.1150396 -0.0017705068 0.00301009 0.5401648 0.026832782 -0.052632283 -1.1187028 0.15688187 0.828106 -0.18418683 -0.28562528 0.1287714 0.22026883 0.76736194 -0.14723365 -0.12548837 -0.09833117 -0.08804253 -0.4271572 0.45781428 -0.9509275 0.13288397 0.29188067 0.3562689 0.3016792 0.52311885 -0.4487636 0.0030501185 -0.2967282 -0.56936955 -0.093428135 -0.14882 -0.16364649 0.16700202 0.1641986 0.5944625 0.38506693 0.11020164 0.77496433 -0.34469265 0.76486856 0.10058655 0.5661512 0.13459384 0.08702533 -0.84716594 -0.22391137 0.6218372 0.44859922 -0.5324332 0.059587494 0.15339601 -1.2063317 -0.3930766 0.6873151 0.06686559 -1.3120794 -0.16538994 0.34286842 0.69065493 0.4013413 -1.0327463 -0.23240335 -0.18102905 -0.12833203 -0.094385974 -0.7665979 -0.25042474 -0.09939222 -1.3610611 0.5144877 -0.25461382 -0.7518649 0.25515938 -0.2808144 -0.051073164 -0.15482719 -0.24120638 -0.10075717 -0.26878265 -0.5352133 -0.11743816 0.6540931 -0.11526222 0.30351105 0.500932 1.1005317 -0.617675 0.028227497 0.86691326 -0.12785263 0.14214881 -0.6113807 -0.07070796 0.2251141 -0.23673452 1.0206212 -0.020846747 -0.6763482 -0.09803282 0.35332233 0.4177256 -0.3957202 0.75984323 -0.5469501 -0.10222565 0.24672744 0.019942716 0.41111618 0.33317688 0.034622665 -0.54691225 0.4472236 -0.1803807 -0.8849206 0.032754827 0.11567923 -0.8866553 -1.3753643 -1.4600346 -1.0057431 0.906791 -0.32643694 -0.9930427 -0.7691185 0.39179033 -0.96803766 -0.1737103 0.6087721 -0.11566924 1.5567676 1.3712782 -0.34673938 -1.1723715 -1.2766775 -1.009693 -0.1167049 1.1240677 0.9096686 0.10497974 -0.13915806 0.25687155 0.12933579 -0.03516828 -0.023110585 -0.23976846 -0.86517817 -0.2951532 -0.93516475 -0.8060623 -0.83816624 0.05155188 -0.117074735 -0.9430067 0.4786824 -0.061825354 -0.39766407 -0.8822801 -0.8549242 2.2069845 -1.9738594 0.31073537 -1.3595991 0.07690727 -0.27821964 0.21346276 0.42895287 0.6349721 0.2423435 -1.0658312 -1.2206212 0.44158205 -0.7205156 -0.7737186 -0.24674417 0.19234997 -0.044407874 1.1609293 0.19124058 0.71551675 1.0860362 0.33391568 0.8706268 0.27650693 0.3445165 0.17912035 0.64148164 -0.4683912 0.12764825 -0.1957866 -0.70441824 -0.61124164 -0.28050533 0.5359571 -0.10357753 0.2137169 0.40015933 0.31304416 0.40677643 0.49391767 -0.56666535 0.14451076 0.1628357 0.12944409 -0.48990276 0.46342322 0.19379517 0.40246207 0.6446913 2.2963724 2.6888285 -2.5019271 0.056322735 -2.8567863 -0.9608276 -2.3154802 0.8997068 -1.2698803 -0.15353183 -0.34020495 0.020877361 -0.22729869 -2.757408 -0.38591173 -0.47629476 1.1464118 -0.57901585 1.0498706 0.59943926 0.4547653 -0.028812008 1.4535266 -0.6022034 0.34548622 -0.2605252 0.9249663 -0.5169069 -0.20354068 -0.15266246 -0.60880184 -0.79394406 -0.330107 -0.16698772 -0.24157913 0.034756206 -0.53572345 0.015440429 -0.3415114 -0.21479645 0.2857581 -0.44182694 0.45156026 -0.8829531 -0.13334498 -0.14907454 0.33479905 -0.04172924 0.27218768 0.16333981 -0.48399398 0.28717256 -0.15041418 -0.2553152 -0.1176537 0.10929355 -0.48222205 -0.34227464 -0.16387755 0.43774727 0.08891131 0.07735266 0.17535825 0.23998909 -0.14025816 -0.029994607 -0.115266114 0.5758112
rdi 1.6025316 -0.5675025 -0.89025116 0.20520349 -1.511146 1.0193799 1.6712748 0.9517895 0.3555004 -1.0258394 -0.7531014 -1.30216 -1.2790802 -1.811814 -1.7678946 -0.43501392 1.8431541 1.8484724 -0.31869435 -2.3749065 1.6539054 1.0434533 0.26679498 3.2367425 0.7289614 0.78863716 0.13610886 -0.07399367 0.5129122 -3.7598138 1.3581553 1.551615 1.566808 -0.19924092 1.2067187 1.58333 0.7839007 -1.1234188 0.2875293 -0.53439957 0.5192037 -0.94432455 1.756986 -2.3831203 0.30698994 0.9617999 -1.0581226 1.4431908 0.07447443 0.10153897 -0.5333872 0.34122056 -0.2550611 -0.25096428 0.13092853 -0.73023903 -0.7717959 0.41478503 -0.7427152 -1.3539814 -0.42801216 1.6395506 0.1236455 1.5842855 -0.32651323 1.6553628 -1.1592392 1.3938537 1.6634711 1.9928379 -1.9433583 -0.11040851 1.0155375 -0.3851051 0.10948036 1.2985834 0.6773014 -0.4420141 0.53787225 0.84728634 -0.82924706 0.008576676 -1.7714396 1.3197262 0.9554442 0.34733513 0.023812456 -0.175786 0.3266853 1.5584624 0.2707707 -0.32549706 1.2130286 0.1353401 0.561072 1.3829483 -0.46568653 -1.543867 -0.2341035 -0.16935888 0.71698564 0.7995482 0.2857643 0.8926335 -0.30997318 -1.7644877 0.7907557 -0.59119445 -2.0234702 -1.7822975 -0.05309962 -1.448293 0.58975995 -0.33326846 0.68533903 0.13716045 0.07025244 0.83925986 -0.19409508 -0.111037716 0.92041135 1.0827403 1.1423032 0.13068974 -0.24371505 0.10763072 -0.9387436 0.19319668 -0.75879276 0.3052047 -0.20162441 0.16926056 0.14560999 -0.26494944 -0.44580767 0.32731643 -0.16562295 -0.51954013 -0.26499948 -0.06101839 0.6997265 0.32041442 0.33236334 0.63279325 -0.39495263 0.5279079 -0.33582136 0.31718498 0.026945714 -0.22910674 0.03561284 -0.19775447 -0.035787698 0.79345626 0.61828727 0.018630864 0.87784445 -0.10217304 0.78193617 0.23864 -0.4027902 -1.0544672 0.078108594 0.59268284 0.20081758 -0.1968671 0.797955 0.34515682 0.3721483 -0.771202 0.4734068 -1.2028397 0.07008802 -0.48215628 -0.3843308 -0.4523912 1.267126 -0.8360763 0.6864416 0.12741569 0.0017661387 0.044809334 -0.5359214 0.36270955 0.17619576 0.2864297 0.14844285 0.2384503 -0.11362736 0.19148953 0.18665464 -0.17201547 -1.4215354 -0.6023885 0.29813126 0.19890654 0.00941254 -0.1857929 -0.33237568 -0.17314605 -0.43677005 0.05960228 0.30044457 0.34001687 0.23451921 -0.13073964 -0.1720255 -0.3444668 -0.36086428 0.17455654 0.21815653 -0.4060986 0.59697825 0.10306524 -1.1342895 -0.15895422 0.33854148 0.5575338 0.34501478 0.46523932 0.21550998 0.46765965 -0.51700073 -0.36442038 0.7556494 -0.25267187 0.50187093 -1.0665247 -0.0039483723 -0.4962986 0.62435573 0.89423 1.3750547 1.689691 -1.5740017 0.09226869 -1.2013803 -0.17778412 -1.4105835 0.30638167 -0.2921672 -0.17067757 -0.0408022 -0.09998846 -0.16651747 0.53718066 -0.47236556 -0.07325989 0.68018633 -0.23508604 -0.18694048 0.058953166 -0.5114395 -0.39756906 0.23188873 -0.026569635 -0.032598466 0.44884288 -0.23245758 -0.21245752 -0.25733328 0.14479078 0.0037512295 -0.40477732 -0.4124476 0.119979694 -0.11541242 0.12627359 0.057226382 0.16203995 -0.040806368 0.25235927 -0.013157045 -0.13782477 0.29878277 -0.16618447 -0.2559277 -0.0063189818 -0.2544519 -0.040356595 -0.547739 -0.37108606 -0.2998208 0.1390956 0.70211804 0.3658104 0.27090555 0.028872633 -0.50835806 0.08634488 0.14436044 -0.18674521 -0.17228563 -0.13346902 -0.5896098 -0.2471534 -0.43811917 0.15183263 -0.009138351 0.038602218
sub 0.23010439 0.05178934 -0.1732874 -0.37280384 -0.28489137 0.33969948 0.59254646 0.4828905 0.33399913 0.028145606 -0.17711419 -0.2239968 -0.16420919 -0.5890193 -0.38664338 -0.24973075 0.14507094 -0.07768937 -0.18280345 -0.15265083 -0.14042851 -0.1973919 -0.0073129907 -0.60132056 -0.08915614 -0.27614954 0.66297966 -0.031148814 -0.33640373 0.34627795 -0.18946144 -0.102006204 -0.41978657 -0.03087671 -0.04325003 -0.17878185 0.42252508 -0.06728822 -0.103979774 -0.21415316 -0.09473135 -0.26127923 0.4573268 -0.37206313 0.040843274 -0.1755033 0.5908422 0.4166211 0.04526298 -0.17169556 -0.005407477 0.3487584 0.0013429853 0.21803612 -0.3407403 0.047603544 0.1459511 0.12998137 0.21058553 -0.16827355 -0.12172122 0.50919753 -0.032139044 0.29343036 -0.17410322 0.21749702 -0.28054285 0.3520896 -0.15978916 -0.29499948 0.0269879 -0.123100534 0.23402856 -0.18969758 -0.022019569 0.2932982 0.026170546 0.025547072 -0.015137022 0.32398236 -0.31822544 -0.033123903 0.003324017 0.21144317 0.37365294 0.38903502 -0.03474303 0.32909223 0.45294708 0.37727204 0.041844055 0.3009454 0.6552524 -0.30037922 0.10908978 0.38651747 0.06970853 -0.34933642 -0.26780197 0.057589043 0.11717894 0.7236036 -0.1398967 0.4822731 -0.21200235 -0.72743696 0.26194382 -0.75502205 -0.5374341 -0.2462347 0.05984979 -0.33615163 -0.23123686 -0.3113259 0.0035739932 0.17647925 -0.2718423 -0.044548888 0.10363764 -0.68001425 -0.0943969 0.03492047 0.019959131 0.13516495 0.18258469 0.08898049 0.13271125 -0.053682514 0.26797152 -0.07032587 0.027631478 0.25935715 0.58260506 0.35574034 -0.12074894 -0.17350136 -0.074657805 -0.37224984 -0.2528213 -0.24949968 0.11760521 0.047178 0.15788846 0.073915556 1.2271549 -1.3270574 -0.79597193 -1.8587499 0.4844284 -0.11469106 -0.12575424 -0.3449675 0.42052415 -0.8456037 -0.8132235 0.066100776 -1.227263 -0.24941361 -0.8266196 0.22760835 0.75294685 1.4325444 -0.15612073 -0.5808836 -0.34691176 0.46700093 -1.1475079 -0.12811755 -0.69149965 0.66347593 -0.8740035 1.1169424 0.53035235 1.0523345 -0.053274136 1.2904549 -0.57129633 0.27932855 -0.408754 -0.2461437 0.3392933 0.023906134 0.54262376 -0.37614554 -0.4915861 0.025459424 0.22178383 -0.09663265 -0.018388117 -0.14709355 0.388678 0.07741089 1.2839894 0.93259716 -0.06541211 0.04092352 -0.033877864 -0.16337751 0.16578986 0.069044665 0.23575926 -0.02554438 0.33320695 -0.08001545 -0.16402012 0.29747343 0.227884 0.21192981 1.1523433 0.15180287 0.019042015 0.9413608 -0.6629233 -0.5894666 1.0651641 0.17948458 -0.21904287 -0.055992868 0.060031764 0.05561055 -0.10403993 0.13677496 0.30353212 0.05714785 -0.7865001 0.31908906 -0.8082276 0.98149246 0.2571869 0.09144823 -0.41616574 -0.655266 -0.97751063 -1.6252092 1.2972624 -0.14792241 2.1861851 0.6320489 1.6359372 -0.61830044 1.0499026 0.40798312 0.32945585 -0.47999948 0.11848895 0.24181446 0.49231 0.057773933 0.033479165 -0.06091976 -0.23772617 -0.20058194 -0.17174263 0.27861857 -0.24112093 0.027749307 -0.16023484 -0.76769495 0.251729 0.5580606 0.15010895 0.51965743 0.2841296 0.6343474 0.76406914 -0.42791647 -0.36641628 -0.5584855 -0.19034487 -0.6094551 1.0646895 0.52842164 0.06493396 -0.3112968 0.44019148 -0.48680234 -0.49869323 -0.22272083 0.65130424 0.2873957 -0.17598484 0.116135724 0.1713794 -0.023656555 -0.0037134856 -0.07469452 -0.083581865 0.2416666 -0.033650752 -0.108770445 0.0637654 -0.08906133 -0.4455663 -0.40071273 -0.537816 0.04668378 -0.72104764 0.567938 -1.3238233 0.123586774
