1054 300
mov -0.3331144 0.10361314 1.076813 0.3539422 0.09875543 -1.0398743 0.26281795 -0.33065173 -0.70437056 0.03980719 0.7317375 0.34478092 0.22558829 0.34223324 0.4589195 0.5442732 0.20302774 0.052933373 -0.08907657 -0.17435747 0.31594196 0.21529359 0.5257241 0.12444709 0.02222005 0.0348065 -0.2651995 -0.09763552 -0.019302512 -0.25566974 -0.15078093 0.14158082 0.43330947 -0.21558787 0.700387 0.27504122 -0.21849787 -0.68571645 0.055109315 -0.4854112 -0.3032605 -0.4485487 0.46939024 -0.21967193 -0.12441758 0.32658076 -0.9918792 0.48513532 -0.31950068 0.6454426 -0.45631266 -0.16089126 -0.27881682 -0.25721714 0.076491944 -0.5018899 -0.12999213 0.6827731 -0.45068452 0.11404919 0.18885179 1.3140349 0.086595654 0.99367917 0.4907365 0.055249985 0.29036883 -0.2615759 -0.40190858 -0.2531018 0.17919737 0.31834424 -0.06474116 0.022339923 0.7059813 0.9044852 -0.2786528 0.15615213 0.5110477 -0.7672002 -0.34871918 -0.20134258 -0.41145647 0.45650116 -0.08569822 0.31443968 0.85004926 -0.15120798 0.125695 -0.072784066 -0.07978121 -0.12993643 0.2030974 -0.13908729 0.4645521 -0.2614526 -0.5833513 -0.44834605 -0.1113094 -0.22159019 0.1414673 -0.32280844 -0.24099252 -0.05067109 -0.22317807 -1.0486904 0.41881356 -0.28928995 0.17883103 0.25349602 -0.33393595 -0.5577629 0.31040043 0.08424118 -0.32659483 -0.090439655 -1.2778187 0.19304879 -0.14050268 -0.5374428 0.47523728 0.42601025 0.8429526 -0.20487179 0.36494407 -0.207204 0.13905892 0.033813186 0.16011997 -0.0011279942 0.48057884 -0.15564956 -0.0028323524 -0.5179359 0.25838733 0.3676839 -0.06623822 -0.64723545 -0.2954288 0.17671001 -0.0912303 -0.5943378 -0.52330273 0.017747665 0.27509612 0.10724976 -0.19114965 0.22943793 0.70798486 0.18788527 0.867367 -0.062112324 -0.33095613 -0.2685947 -0.13711186 -0.0072564585 0.1716044 -0.5536851 -0.2586337 -0.26701596 -0.35835448 -0.21110561 0.7733552 -0.0949843 -0.26288378 -0.03885547 0.3022084 -0.001705828 0.49439898 0.64225835 0.3263354 0.43473288 -0.89630765 0.06809357 -0.36725846 -0.43982822 -0.48787597 -0.5681588 0.28505203 0.60561246 0.079935886 0.5977153 0.4409788 -0.59599596 0.024769558 -0.13731883 -0.37905133 -0.17566612 -0.013640263 0.69861805 -0.7842226 0.49471852 0.55951357 -0.50311047 0.34876072 -0.027017245 0.38918513 -0.106405176 0.024612121 0.0032646977 0.033387605 -0.46278682 -0.27151698 -0.8114049 0.49091032 -0.012873856 -0.19468844 0.5521013 -0.24254207 -0.13070115 -0.16508576 -0.14609885 -0.42725042 0.14599924 0.007290197 -0.4719237 0.27289677 0.46082705 -0.48623297 -0.19279888 0.14836042 0.20441452 -0.18044534 -0.53808975 0.24934812 -0.29156154 -0.4124618 0.45553005 -0.4282628 0.57709855 0.26559848 -0.083491884 -0.59242773 -0.926034 0.08058962 0.0259713 0.2562164 0.63172096 1.1700501 -0.011858104 0.25271946 0.40124062 0.17658159 0.37505928 0.4899961 0.38800535 0.45678428 0.22924364 0.26060113 0.2950651 -0.12446256 -0.4776108 0.27174866 0.503815 0.1060134 -0.023123425 0.19184618 -0.42769858 0.23276417 0.056826707 0.6953937 -0.19091664 -0.3871508 0.123812035 -0.30201986 -0.29287586 0.22685158 0.2889759 0.009213402 -0.37187555 0.36397633 -0.2515573 0.40659392 0.25732535 -0.04415599 0.20269486 0.6711582 -0.0058011557 -0.008165531 0.16386253 0.37264532 0.05914528 -0.07919006 0.4810813 0.006146061 -0.4021696 -0.13926609 0.16646723 0.692225 0.51782805 -0.020910842 0.1458709 0.39256048 0.20294584 0.5675229 -0.22644961 0.151299 -0.23825054 1.0812998 -0.41935876
r0 -0.1032419 -0.472848 -0.06911034 -0.94506013 1.0366033 0.76253915 0.95061016 -0.5955299 1.232155 0.6242241 -0.79553425 -0.9466707 -1.0604483 -0.4527407 0.153731 -0.1183432 -0.23794547 -0.31807646 -0.16704836 -0.29930156 0.35084254 0.37983334 -0.99683046 0.5879999 0.64625424 0.9460478 1.5467967 0.0989099 0.59526587 -0.99920344 0.26523456 1.1256622 -0.3008907 0.55799276 0.7144757 0.0030664618 1.056593 0.4318358 0.098357655 0.87334365 -0.18214552 0.62545633 -0.18790339 0.184086 -0.4111374 -0.09077247 1.0446644 0.37286702 1.225171 -0.2254638 0.43757808 0.18459198 0.0542803 1.12662 -0.30377126 -0.14593492 0.8981706 0.19232625 1.6845723 -0.14727888 0.8146901 -0.056672905 -0.31290308 -0.36321276 -0.21202484 -0.35776326 -0.29640543 -0.09309076 0.2237153 -0.35473564 0.54804313 0.015440278 0.4198435 -0.9776482 0.7508131 1.3335156 0.31641325 -0.39042506 0.21377768 -0.768417 -0.64862955 0.6100172 -0.14566039 -0.36837545 0.5089383 0.81837225 1.0685178 0.6343515 0.7874798 -0.06327023 0.19544935 0.28977713 0.12783858 -1.0048866 -0.0073282034 -0.43124092 -0.12686603 0.18865527 -0.01450139 0.5152048 -0.32868394 1.3477262 -0.14882396 0.20127605 0.104955584 0.50964713 -0.74073327 -1.3930553 -0.81451386 -1.0381418 -0.48803383 -0.06507395 -0.20585735 0.6898488 0.24418207 0.034347914 -0.309053 0.233318 0.4536942 0.14122643 -0.24760301 -0.5810544 0.5130183 0.7763888 -0.27294877 0.056327946 -0.796385 -0.76365066 0.09400955 0.54277414 0.4088773 -0.14385283 0.19736895 -0.80509657 -0.7604462 -0.2512792 0.7166579 0.1620646 -0.6690636 -0.44500494 -0.09698017 0.16411558 0.4593564 0.42145255 -0.033618364 -0.5783496 0.26560932 -0.7447453 -0.221588 -0.10390219 0.46101153 0.4302558 -0.45695597 -0.74831367 0.22370383 0.07565642 -0.3637671 0.54782027 -0.22801328 -0.5012022 1.1505464 0.89392245 0.271329 -0.27909696 0.9920728 0.13974048 0.47374925 -0.4525235 -1.0751239 -0.75907075 -1.4766325 -0.31147772 -0.71703297 -0.91754866 0.93199146 0.7274563 0.043992136 1.1141131 0.5038014 0.15566824 -0.80181086 -0.5644188 0.8266447 0.43794784 -1.2433339 -0.4736333 0.6449044 0.21501924 0.36181906 -0.8336779 0.5950717 0.7339641 -0.66438967 0.3351868 -0.22528213 0.063223325 -0.10234886 0.54372984 -0.21736312 -0.5982124 0.14513761 0.027356703 -0.49215424 -0.8980992 -0.23180698 -0.5857193 -0.17200252 0.24651916 0.67870766 -0.5492664 -0.69250655 0.9567422 -0.35364687 0.67613316 -0.799094 0.4174267 -0.6241181 -0.21031374 0.5930569 -0.01974693 -0.3548019 -0.8775309 1.2741784 0.113739684 -0.45825985 0.44541562 0.23160753 0.33471605 0.10644975 0.7749981 -1.1124457 0.18019973 0.009452533 -0.2695304 -0.034818817 -0.8345421 0.3826512 -0.34700587 -0.1764118 0.6126483 -0.059822217 -0.13143937 -0.060796175 0.10731347 0.3533754 0.043196697 0.47401112 -0.110632956 0.46246946 -0.13335022 -0.44417024 -0.49393654 0.104664266 -0.11070194 0.8524252 -0.26966834 0.62570894 0.27851576 0.14751722 -0.47433499 0.10445866 -1.3804173 -0.7339156 0.43840256 -0.5402221 0.7790446 0.36959058 0.42896003 -0.21534821 0.47631723 -0.87606525 -1.2627093 -0.48859748 1.374185 -0.69062656 0.72634774 0.45779395 0.86789596 -0.484261 0.18681169 -0.06852034 0.38540834 0.93285346 0.41917482 -0.6506817 -0.6845688 0.10231436 0.4340686 -0.027739108 -0.28054687 0.4425255 0.25386435 0.06991142 0.10385009 0.32454827 0.27717796 0.029921472 0.33937523 -0.2575096 0.82138175
dword -0.4413928 0.37442675 0.57320106 0.1206093 0.24596325 -0.7602255 -0.2587659 0.25565344 -1.0472594 -0.6735997 0.35781154 -0.82417995 0.9631963 0.7314032 0.052661676 0.572731 0.23161866 -0.24069318 -0.23401447 0.3258235 -0.7658931 -0.23530239 0.40653256 -0.2655362 -0.34193742 -0.58971703 -1.1056147 0.4041962 -0.9422919 0.3938113 0.36197323 0.136613 -0.021303844 0.39996895 -0.7922104 0.61506146 0.5192916 -0.3952512 -0.9000267 -0.10522251 0.08511597 0.11335346 -0.12611403 0.18866366 -0.046112277 0.6937733 0.2023752 0.23988537 -0.4438958 -0.04391278 0.28990206 -0.36048013 -0.07631191 -0.41575438 -0.14136316 0.5738676 0.23764703 -0.24796882 -0.26324886 0.4820132 -0.5567431 0.16411754 0.37098697 0.3609799 0.09020815 0.7275928 -0.3827623 0.04946175 0.08448111 -0.98145986 -0.21034756 0.5639913 0.7605899 -0.24723299 0.96155244 2.15219 0.004011315 -0.21649362 0.21355401 0.29613647 -0.4232409 -0.6375661 -0.44232762 1.2441578 0.10126936 0.1126549 0.81355345 0.25054166 -0.058049373 0.60635024 0.7453995 0.05141375 0.93034 0.43915716 0.5420237 0.979421 0.38009992 -0.6296614 -0.18686552 0.8799175 0.060174085 0.82383984 0.96149904 0.53629667 -0.20511739 -0.5606732 0.7627408 -0.25294995 -0.8558201 -0.0764556 -0.3151731 -0.28155527 -0.61141664 -0.029801827 0.14917488 0.22505142 -0.034136098 -0.2961507 -0.04914797 -1.0670644 0.062371124 0.7774678 0.6505942 -0.39566693 -0.24956158 0.3240699 -0.7225972 -0.02659528 -0.354598 0.7829674 0.29085502 0.7582521 0.18835975 -0.10760843 -0.38453004 0.53278357 -0.39596 -0.7597181 -0.283884 -0.19284338 0.8984393 -0.57358015 0.38834444 0.4490767 0.9302114 -0.47665095 -0.86344594 -0.9617387 1.7143468 -0.06798118 -0.10603735 -0.43672252 0.47972742 -0.51354516 -0.81711036 0.63532627 -0.82355314 -0.4481422 -0.18931226 0.06814584 0.9208804 0.73707473 -0.57568324 -0.37192163 0.9188084 0.5154974 -0.56094235 0.43999767 -0.27744937 0.68450034 -1.0554292 0.17778401 0.5785333 0.51844 -0.08954969 0.93406343 0.75343966 -0.9159353 0.65671885 -0.5704364 0.13086675 0.08538188 -1.5350844 0.3148338 -0.14260563 0.58642143 0.6047757 0.56873 -0.19832768 -1.2086084 0.19823858 -0.10840636 -0.9921748 -0.6766453 0.04764499 -0.99904346 -0.109641686 -0.71464866 -0.1057187 -0.40805092 0.07947203 0.2506036 -0.8449045 -0.5043095 0.3558092 0.23834102 -0.92486215 -0.35660067 0.12859038 0.89757663 -0.036310036 0.0152773755 -0.26977304 -0.599673 0.79701966 -0.60748625 -0.31550384 -0.8217762 -1.1688193 -1.0071138 0.61492234 0.55087376 0.3090031 0.31333277 0.013663782 -0.9512863 0.48440617 -0.76240313 0.27897212 0.08743048 1.1795183 -0.0117125735 0.591579 0.83641535 -0.94520646 0.40297577 -0.96510893 -0.064772554 -0.6399398 -0.6165557 -0.10523505 -0.1423839 -0.35075688 0.2969442 -0.6923216 -0.983423 0.3763699 0.038880657 0.20592414 -0.0658815 0.48627773 0.4615106 0.8887237 -0.6578648 -0.45135093 0.26698628 1.2039427 0.92577386 -0.014867518 -0.6971534 -0.5383001 0.15138805 -0.09926813 -1.9166279 -1.446136 0.5635358 -0.11384476 0.72982377 -1.6029216 0.102316245 -2.5393825 -0.6787597 -0.65886366 0.9528585 -1.1541907 0.03731072 0.44525194 0.22512028 -1.4655602 -0.2834326 0.8735339 -0.09784199 -0.017232783 -0.0053369915 -0.649487 0.16914155 -0.909941 -0.92064077 0.18213393 0.80398256 -0.27394462 0.78620815 0.8579598 -0.13517429 1.8366498 0.59622824 0.8468273 -1.3422253 2.2016199 -0.8769028
address -0.55177754 0.06646229 0.7116019 -0.35743397 0.6980316 -0.9675925 0.11822997 -0.89999235 -0.9949049 -0.95153844 0.15770926 -0.38782707 -0.6674907 -0.28773886 0.34182033 0.61693865 0.53139484 0.41506428 -0.48525202 -0.7070866 0.5499821 0.74655807 0.35639676 0.32281497 0.3744366 0.2545228 -0.6396343 -0.29209408 0.3753393 -0.4587688 0.56716806 0.5321722 0.012732675 0.142648 0.7926881 0.22138238 -1.1140409 -0.81377774 0.24043581 -0.57751256 0.5515751 0.03763358 0.7495294 0.15725574 -0.80023384 1.050527 -1.5909053 0.60496473 -0.02030398 1.3262718 -0.010255872 -0.2185964 -0.011494258 0.6006034 -0.2736434 -0.6963004 -0.51913106 0.8270018 -0.30540887 -0.2634491 0.42684287 1.5390031 0.67630726 0.8578064 -0.18804839 0.00391974 -0.13813092 0.42802966 0.6243059 0.9913487 -0.4106666 0.14964859 0.5015158 -0.37053782 -0.43464756 0.37331772 -0.68444914 -0.03966734 0.52312523 -0.19939953 -0.03561244 1.0107547 -0.34757861 0.41751164 0.26466578 0.8605905 1.076665 0.13388419 -0.16867182 0.26360235 -0.43925896 -0.08167329 0.29235113 -0.44495913 0.5812206 -0.40380952 -0.8156636 -0.5249274 -0.030788654 -0.24996181 0.62344193 0.53210354 -0.34623876 0.017123362 0.10231497 -0.1417974 0.49252775 -0.44001833 -0.7213095 -0.7639242 -0.23848796 -0.26807782 0.9513662 0.6324533 -0.18193942 -0.13832386 -0.6231967 0.31744224 -0.12559293 -0.21913268 0.7291105 -0.1370772 0.56516415 -0.336274 -0.40346107 -0.34165162 0.017897777 0.12688917 0.37128222 -0.26678684 0.057777524 -0.85477406 0.02467928 -0.2885984 1.1578355 -0.13466957 0.25465843 0.32832423 -0.42362317 0.2978578 -0.039676543 0.3969424 0.24862999 0.27493683 -0.28184643 0.16033591 -0.42329732 0.39133707 -0.31848243 0.6739097 1.2769266 -0.31617942 -1.3234017 -0.29823098 0.07303458 0.43612275 0.60260034 -0.5064392 -0.47680274 -0.18906926 -0.6180277 0.100601465 0.2217638 -0.24923968 -0.48340806 0.17198974 0.31379437 -0.081796445 0.05204821 -0.8042303 -0.04760944 0.046302855 -0.45809835 -0.087518685 -0.21719283 -0.509641 0.7922509 -0.5057544 0.10092762 0.98751795 -0.13649818 1.0931634 0.71516776 0.08751457 0.14500457 0.16563363 -0.79459274 -0.1296765 0.7215199 0.17229524 -0.7356382 0.034775093 -0.2711776 0.26271227 0.15390912 0.19000039 -0.10554035 -0.21988577 0.7037754 -0.071958825 -0.6788058 0.39278156 0.13743556 -0.1579563 0.22195156 -0.8679001 0.54740703 0.59099907 0.1320992 -0.25567368 -0.28627244 0.21413118 0.11698088 0.7250927 0.4891 -0.00011662841 0.39207226 1.0104921 -0.46811858 0.053158488 0.0056549637 0.5585295 -0.41696575 -0.6767704 -0.25383446 -0.036426812 -0.21721941 0.07035987 -1.1777153 -0.1462781 -0.096920975 -0.08799259 -0.43260592 -0.13041532 -0.39444184 -0.110350005 0.3648944 0.44505724 0.7302578 0.02083986 -0.36497286 0.45263943 -0.43333465 0.11420967 -0.083489105 0.6054467 0.052653905 0.62412965 0.22408469 -0.46402213 0.08901529 -0.80103534 0.25856334 -0.021654375 0.14454176 -0.17362821 -0.20374449 -0.78115225 0.3352306 0.16674636 0.8585291 -0.119963095 -0.3778746 0.3287095 -0.49417198 0.48089707 -0.318639 0.16122696 0.5555583 -0.443619 0.29904032 0.61517346 0.3678095 -0.5230734 0.7725384 0.5447593 -0.5410255 0.14043622 0.067082696 -0.27309692 0.17410238 0.08512226 -0.21669629 0.8756312 0.3339393 0.0071533206 -0.26744086 -0.5070331 0.34290853 -0.21451108 0.18818204 0.37923723 0.22760968 0.62871176 -0.109140545 -0.6297343 -0.76272094 0.9838208 -0.15623222 0.09238517
r1 0.3802948 -0.6424727 -0.5801709 -0.3595243 0.25937238 1.0590463 0.7571303 -0.119407035 1.2286677 0.6405567 -0.887727 -0.7937923 -0.6878702 -0.26385078 -0.08870111 -0.3452902 -0.20385943 -0.18214734 0.1557467 -0.42555434 0.25850278 0.3577513 -0.6651569 0.61559844 0.48744237 0.5650899 1.2099423 0.06448261 0.48944694 -1.1036314 0.33945787 0.7393912 0.12249166 0.34035477 0.37351128 0.029722175 0.7028398 0.60921407 0.17837101 0.63270193 -0.0038594357 0.38394347 -0.2910968 -0.5515774 -0.043406423 0.141885 0.4426913 0.37642583 1.5020733 -0.38590297 0.5034904 0.46114358 0.33307296 0.27048275 -0.119457245 -0.58568436 0.18802597 -0.35357 1.1715983 -0.51490945 0.47124588 -0.45620993 -0.4130288 -0.6428631 -0.33319765 -0.61350584 -0.33796942 0.034641836 0.61364627 0.39232567 0.37617403 -0.43446276 0.24114248 -0.9440326 0.12569423 0.32631314 0.59430224 -0.62158203 -0.16003779 0.22224104 -0.5179289 0.24671027 -0.13645844 -1.0621299 0.45091027 0.45569763 0.6093093 0.39871424 0.9006249 0.092165895 0.45263293 0.19098091 0.36071172 -0.88356715 -0.36589032 -0.6072555 0.0013872678 0.44363794 0.062575795 0.5861199 -0.6400192 1.3248849 -0.035697386 0.42080376 -0.080471195 0.33983493 -0.86800134 -1.3727283 -0.8705842 -1.2490857 0.0067117643 -0.15195255 -0.3964647 0.3919204 0.43577105 0.06479168 0.2301278 0.059095647 0.5390853 0.13161275 -0.4047812 -0.47270018 0.32101598 0.910724 -0.33396062 0.35009575 -0.6925142 -0.5038944 -0.37932125 0.285137 0.51976335 -0.030890588 -0.2868483 -0.31622428 -0.96668935 -0.01317392 0.67377084 0.5252017 -0.57138604 -0.38819754 -0.094799995 0.23193215 0.74216455 0.20631988 -0.06685024 -0.8349701 0.73708147 -1.0898342 -0.19171424 0.25562575 -0.2567099 0.4385469 -0.41328058 -0.7476465 0.16390184 0.43542016 -0.4251644 1.2710975 -0.12500341 -0.6138578 0.712359 0.7362828 0.05329839 -0.27226007 0.16967109 -0.31956324 0.3509558 -0.80025643 -0.76335275 -0.33436045 -0.9510298 0.45280585 -0.1711347 -0.9729641 0.86327106 0.76347 -0.27701777 1.4092997 0.06832406 0.21376452 -0.1298475 -0.56782883 0.44139034 0.36590677 -1.2778926 -0.23173575 0.6749847 -0.23078232 0.1926431 -0.5513327 0.49077982 0.12309255 -1.2030134 -0.038004007 -0.37574044 0.2414627 0.20127094 0.42781386 -0.5860045 -0.549067 0.07191708 -0.08848206 -0.46274585 -0.9066445 -0.6531156 -0.3221863 -0.50678694 -0.20938188 1.1508583 -0.4061893 -0.4108947 1.3533705 0.004184711 0.649252 -0.570118 0.5660225 -0.81861067 -0.7246392 0.64883584 -0.07107146 -0.2885067 -1.212674 1.0388004 0.5814373 -0.46607018 0.46719128 0.37908867 0.20689866 0.14224073 0.81853384 -1.2796764 0.24576452 0.16667429 0.055926494 0.010479284 -0.7442495 0.05799565 -0.5642056 -0.8361525 0.6906039 -0.23757182 -0.33102784 0.1331877 0.10393535 0.16249903 -0.058634 -0.032062814 -0.41082805 0.075657986 -0.14005524 -0.42917806 -0.10809319 -0.09156808 -0.26926646 0.66113883 -0.40930134 0.13009433 0.7031345 -0.6098627 -0.1413064 -0.085236765 -1.5759809 -0.5850888 0.6157798 0.040767763 0.5087473 0.48705253 0.34207132 0.13752443 0.89286214 -0.32899714 -1.1749827 -0.19089544 1.2352434 -0.516699 0.7715104 0.3301633 0.47304976 -0.11945873 0.22316791 -0.60075194 0.44109514 1.022844 0.034865778 -0.42254743 -0.35889682 0.42251006 0.7337223 -0.04698231 -0.5375535 0.31771988 -0.48029783 -0.0055056633 -0.13478589 -0.4534125 0.21213287 0.30512565 -0.0066993865 -0.7620595 0.5204989
 -0.97856206 -1.3967929 1.021906 0.6198029 1.5389129 0.2057582 0.6633461 -1.2238818 0.15218422 0.55885565 -1.0198429 -1.9895465 -0.30809388 0.25814673 0.5783034 0.4247405 -0.1024311 -0.75557387 0.28660846 -0.120602526 0.011299152 0.5617297 -0.84558046 0.8783831 0.45689586 0.51470053 0.6644304 0.40820298 0.21121074 -1.3935795 1.1155964 1.6121674 0.33003706 1.1539576 0.33778492 0.1945732 1.2865311 -0.046768777 -0.70104426 0.9770918 0.09748456 0.133372 -0.47495067 0.19797349 -0.595448 0.9425204 -0.4419103 0.21841478 1.2733868 0.08755908 0.6339206 -0.39214814 0.66955894 -0.007009254 0.16805282 -0.7591694 0.23104765 -0.1377372 1.132813 0.17447184 1.1116476 0.5757162 0.28893396 -0.07408338 0.20743343 -0.7101634 -0.33525357 -0.5565499 0.55189866 -0.26968795 0.16122064 -0.18477161 0.5859761 -1.2372848 0.7357831 2.8612106 0.09026919 -0.84366864 0.14258401 -0.36527586 -0.46132848 -0.10475546 -0.73486394 -0.77016366 0.30148992 0.409138 1.070363 0.013833308 0.4441149 -0.42486525 0.5167488 -0.19504964 0.4300601 -0.8903751 0.51555896 -0.590786 -0.5961473 -0.07112414 0.41707087 0.4082474 -0.27952307 1.0994464 0.85433435 -0.021879114 -0.058041174 -0.64413375 -0.7886738 -1.0251702 -0.11129706 -0.6345801 -0.4601482 -0.09653708 -0.18110739 0.85787594 -0.20062391 -0.2763371 -0.7850295 -0.34415516 0.1444082 -0.1206071 -0.25123 -0.10748862 0.8082506 0.18228005 -0.33498922 0.1489852 -0.6190336 -0.46514985 -0.1426535 0.3660086 0.8404975 -0.41963112 -0.50180966 -1.1539762 -0.53035873 0.37050417 0.23237953 0.35156485 -1.0897611 -0.3869636 -0.34081095 -0.1873596 0.5840261 0.04477402 0.100038886 -1.2754605 0.5963291 -0.526579 0.61278695 0.81538063 0.399626 0.74404037 -0.69475126 -1.2629895 -0.31004125 0.19343609 -0.90400755 -0.032607835 -0.40130496 -1.1020105 1.3032478 1.2517593 -0.0047485135 -0.7409944 0.52242523 -0.06890829 0.12104923 -0.8473028 -0.6235281 0.020551382 -1.5314732 1.5895287 -1.1500096 -1.3425645 1.4266816 0.4401573 -0.38890412 1.1137205 0.95327026 0.6900927 0.11731299 -0.40261042 -0.62444067 0.5545202 -1.4343027 0.18018474 -0.08689064 -0.059609994 -0.21725559 -0.9189282 -1.0362638 0.5959441 -0.41971007 -0.46560508 -0.35328156 -0.55529416 0.2028286 0.65673625 -0.5901013 -0.43865842 0.26274344 -0.16624926 -1.453399 -1.9870094 -0.35100695 -0.8327963 -0.8038794 0.5098739 0.5838693 -0.61562157 -0.62447345 1.4424309 0.1581697 1.1128751 -0.66319513 -0.2560158 -0.036773138 -0.38541055 0.39938584 -0.6373961 -0.17213102 -1.6295128 0.9573537 0.33330444 -0.53068364 -0.7245263 0.24938117 0.4835902 0.0032712035 1.355433 -0.7870112 -0.15426783 -0.14973399 -0.34998286 0.15902388 -0.22871326 -0.7994052 -0.2021247 0.08951325 1.0831146 0.070305176 -0.7797614 0.6001967 1.4148326 0.18351527 0.7523799 0.42461514 0.18435712 -0.11870007 -0.12126301 -0.6190371 -0.48325983 0.49855793 0.35125646 0.78794205 -0.62761456 0.28802714 0.5370869 -0.40531617 0.45911798 0.34564778 -1.5967064 -0.5051829 0.7018222 -0.5361189 0.31505355 0.7986181 0.8645554 0.15712516 -0.029663686 -0.57519305 -0.9603245 0.81281537 1.0543265 0.03980142 0.35669294 0.28870815 0.30349803 0.14459741 0.4596368 0.080589965 0.7318321 1.2106868 -0.036274627 0.15050794 -0.034151547 0.40780738 0.97507024 0.8688443 -0.09703941 0.23219882 -0.5740539 0.42455676 0.6116169 0.2373882 0.23919311 0.46336794 -0.8946909 0.3664348 0.35455325
eax 0.25873312 0.2075553 0.22679314 0.029297726 -0.41177523 -0.3308495 0.052692734 0.40972435 -0.6698485 -0.8785459 0.27186972 -0.5682632 0.0012115818 0.25121504 -0.19392046 0.29052615 0.24396533 0.100482985 -0.35992438 -0.18222289 -0.35861802 -0.043575086 0.28890428 -0.13823014 -0.00040257958 -0.11929402 -1.0035686 -0.0008847079 -0.22768742 -0.02456717 0.32555568 0.27350178 -0.30279714 0.06809678 -0.32776564 0.36620143 -0.37971994 -0.50681466 -0.056255773 -0.03894203 0.4093279 0.2628983 0.44913316 0.13351473 -0.17806081 0.39801311 -0.41351306 0.38563612 -0.3364318 0.26502597 -0.010496992 -0.16287272 -0.0871683 0.079270676 -0.083426364 0.12351612 -0.18328689 0.068709515 -0.47656783 -0.068897806 -0.5660155 0.1431396 0.39521635 0.32401377 -0.18595305 0.8691216 -0.21489823 0.020018704 0.2059405 -0.24118282 -0.18602775 0.86705506 0.61321384 0.29504073 0.51562643 1.1367849 0.21866582 -0.35131568 0.45068887 0.3756756 0.05088343 -0.17039344 -0.43239844 1.1908582 0.18312326 0.18300305 0.9149193 0.26651227 -0.038920596 0.5988468 0.29055804 -0.05664774 0.5153579 0.37550476 0.29888973 0.77101296 0.031010054 -0.5935471 -0.013067207 0.35662055 0.45461267 0.56319624 0.64841133 0.4001837 0.08739818 -0.42952314 0.7387179 -0.28936073 -1.1770765 -0.75478745 -0.10943358 -0.32585394 -0.24333572 0.06680405 0.25355622 0.36453608 0.3744982 0.09243694 -0.18172951 -0.7762303 0.3621805 0.37674505 0.45747823 -0.40826192 -0.6873712 0.32862455 -0.7059624 0.04960902 -0.3494953 0.51069856 0.35152546 0.21133055 0.12398378 -0.10216101 -0.02691681 0.13751225 0.0778583 -0.039020296 -0.32492813 -0.24745236 0.685807 0.016625911 0.68692625 0.7592921 0.11918108 -0.19813566 -0.8646332 -0.7169114 0.9114054 0.3161934 0.37931526 -0.88737905 -0.16070716 -0.4892549 -0.5554418 0.80889016 -0.006992181 -0.25570276 0.02488871 0.0437094 0.24465641 0.39839336 -0.6685855 -0.13505165 0.95182514 0.2699293 -0.30036962 0.3665838 -0.341482 0.15851727 -0.6144842 -0.41276315 0.52725625 0.6344399 -0.14729959 0.35891274 1.0527908 -0.71895224 0.39026517 -0.26475063 -0.48544008 0.26820803 -0.7537257 0.22179376 0.48365566 0.16024119 0.19076543 0.7405976 0.17806903 -0.8197879 0.279725 -0.098123886 -0.8659614 0.0019241079 -0.37883416 -0.32130468 -0.40707016 -0.36080223 0.43852493 -0.2533228 -0.19908126 0.85790616 0.07859029 0.28832102 0.29781145 -0.10084114 0.17783847 -0.19193345 -0.36613187 0.6393574 0.12121484 -0.5101416 0.085883416 -0.04065646 0.7664888 -0.21993633 0.00303306 -0.094541356 -0.9192681 -0.773478 0.5387665 0.62767917 -0.23005399 0.039130628 -0.163401 -0.54458344 0.4730373 -0.58076155 -0.24375011 -0.3555058 0.55093837 -0.17122158 0.37016177 1.038265 -0.8420287 0.06783965 -0.6016626 -0.1588692 -0.70808953 -0.39132002 -0.243901 -0.3485482 -0.8720338 -0.056997474 -0.42330992 -0.74371237 -0.041332908 0.017984979 0.21792644 -0.011600277 0.46937868 0.51380384 0.67775935 -0.8526746 -0.32964647 0.08908514 0.43321085 0.599376 -0.49953645 -0.22397755 -0.3210148 -0.030397722 -0.04128069 -0.95834124 -1.0199575 0.81334716 -0.10390364 0.437732 -0.49111882 0.12050269 -1.1943828 0.18360141 -0.4314828 0.20112762 -0.22304279 0.51152414 -0.51397943 0.4030689 -0.8636787 -0.3213441 0.51863843 -0.14251216 -0.050019924 0.0696358 -0.4616609 0.31185493 -0.735586 -1.1702727 -0.15893908 0.4605753 0.10048054 0.7126179 0.37904543 0.004354823 0.8403894 -0.29924518 -0.17997141 0.32136708 0.7781724 -0.40065777
symbol 0.29038727 0.9182963 -0.06277929 -0.8755711 0.11633431 -0.48373076 0.13311045 0.0496367 0.40529603 0.12432961 0.79589266 0.8583774 0.1702783 0.123459674 0.24057205 -0.011001137 0.08901443 0.33714733 -0.12733164 -0.10680822 0.5503672 -0.14494582 -0.12331899 -0.14616671 -0.12525305 0.20639652 0.31690535 0.043760225 0.26950794 -0.10228195 -0.6494757 -0.1754451 0.06651067 -0.7377479 0.6595752 0.5685697 0.116533175 -0.35606053 0.3916345 -0.44798806 -0.41358578 -0.34645897 0.8582831 -1.1063273 0.2771057 -0.041442897 -0.3686677 0.83300257 0.06515318 -0.038451772 -0.53554565 0.0924694 -0.8857574 -0.018470677 -0.30977893 -0.31264403 0.33284813 0.7732511 0.282837 -0.29673564 0.023839485 0.6152692 -0.4861447 1.0604479 -0.06369882 0.43333906 -0.038663536 1.0230322 -0.19863153 0.5706702 -0.124457374 -0.3275046 -0.045040783 -0.053206343 0.32437703 -0.75046074 -0.38672698 0.58053124 0.2159973 -0.5551334 -0.8269384 -0.1189915 -0.5470294 1.08974 0.09458994 0.42920437 1.0417554 0.19968429 0.54923314 0.10867695 -0.18933457 0.070705645 0.18354237 -0.2392268 0.055144 0.14217405 0.06072754 -0.16324964 -0.5607895 0.082460135 0.0501607 0.24214663 -0.8549369 0.5857921 -0.4566353 -0.23433268 0.4230225 -1.0494841 -0.84522283 -0.4124123 -0.5833899 -0.9079172 0.28562638 -0.08021104 0.08119133 0.3102412 -0.83236223 0.70764554 0.3328309 -0.6475309 0.6455175 0.5136276 0.7988004 0.73291343 0.2350293 -0.13262671 -0.5268332 -0.17654556 0.10489701 0.16504934 -0.033115752 0.31494644 0.36225072 -0.55809927 -0.5145944 0.19960754 0.13131435 -1.1573796 -0.2681733 -0.16121747 0.38742888 -0.36152175 -0.4552388 0.54303914 0.4575815 0.37350047 -0.4256188 -0.6670567 0.57560694 -0.49549615 0.41830403 -0.20930305 -0.037500847 -0.5031258 0.0018316684 -0.028220994 0.012782274 -0.109298736 -0.24688216 0.036220256 -0.04012409 -0.2631524 0.62429637 0.37813303 0.6344698 0.46337366 0.22262444 0.4257279 -0.3967749 -0.03747577 -0.40787593 -1.2122104 -0.30339807 0.130125 -0.62644666 0.26675856 0.013769866 -0.1276069 -0.06142604 0.09269444 -0.8940897 -0.06709409 1.5493217 -0.5111035 -0.56810814 -0.8868064 0.53044474 0.24323758 0.28227672 0.37045655 0.96381676 0.59145224 -0.5161995 0.20356227 0.46903515 0.18748991 -0.20303471 -0.040329713 -0.0035384088 -0.18014628 0.062144887 -0.3663675 0.47537956 0.17999963 0.47812358 0.19660869 0.13985553 0.15521206 0.16767618 -0.038010973 -0.23981348 0.026937548 -0.81789136 -0.21007891 -0.115065895 0.16459742 -0.43270224 -0.19162668 0.14818361 0.111821696 0.06207568 0.54832387 0.2846553 -0.63105977 0.31272367 0.7793818 -0.3469302 0.0094986595 -0.019986518 0.3434665 -0.120089814 0.2688142 -0.44595456 -0.8860093 0.09568994 -0.42359903 1.1077411 0.55404264 0.74075603 -0.5595509 0.62068224 0.7492828 0.123279564 -0.5682799 0.58891857 -0.15192452 0.051841903 -0.1449755 0.6955563 0.29711854 -0.23426731 -0.4663079 -0.1927586 0.039012186 0.16974553 0.51344097 0.65791667 -0.0054026125 0.6900313 -1.046901 0.07344961 -0.08123214 -0.5853313 -0.42380884 -0.35564098 -0.078686215 -0.13287787 -0.0005231855 -0.34068638 0.34444177 -0.4213334 -0.7461628 -0.5515028 0.5441059 -0.41566357 0.2971183 0.7816099 0.30962053 -0.43941596 0.1249458 -0.01650352 -0.19381744 -0.2501324 0.69764805 -0.48674572 -0.6757498 -0.19297883 -0.018242938 -0.22708197 0.16898614 0.18447727 0.6951568 0.07524348 -0.019541148 0.09505354 0.79902846 0.33911774 0.3229841 0.49028283 0.2561707
ldr -0.7928739 -0.36450976 0.81852514 -0.39263585 1.6016384 -0.3164781 0.46966133 -1.1066403 0.57283694 0.59911865 -0.5067714 -1.015841 -0.37885773 0.12231571 0.64362395 0.31339943 -0.2175303 -0.50954705 0.092008814 -0.19719204 0.36802137 0.21394046 -0.9599635 0.5702637 0.27430028 0.66021526 1.3182209 0.22681756 0.43013096 -1.0313747 0.4466493 1.2477772 -0.16388115 0.4195583 0.7257223 0.1257278 1.476851 0.100276366 -0.16401294 0.9514456 -0.222885 0.12489444 0.020969352 0.058101133 -0.37071162 0.23455554 0.2549809 0.55665535 1.0547172 -0.25991 0.18714446 -0.10304781 -0.03574228 0.4504869 -0.064304404 -0.45266947 0.9813376 0.28524265 1.5886427 0.26747242 1.1206584 0.36910036 -0.012476015 0.003967453 0.018812425 -0.59411436 -0.32004884 0.03473769 0.20062193 -0.25017798 0.30334976 -0.4490718 0.35801658 -1.0463445 0.79096407 1.8619584 -0.26162022 -0.2016004 0.18522215 -0.984095 -0.6735812 0.22972958 -0.63057804 -0.2228718 0.51975435 0.6977196 1.1547863 0.38671982 0.9491243 -0.38454574 0.17680864 0.07043479 0.08454392 -0.97855085 0.34778407 -0.56397104 -0.3010189 -0.23222713 0.019652996 0.18379241 -0.11100396 1.0053732 0.055510934 0.061960712 -0.105182864 -0.10030163 -0.74087834 -1.3864588 -0.23109733 -0.42174762 -0.61578786 -0.15889299 0.13267313 0.62869024 -0.21178378 -0.36613062 -0.97465104 0.10342517 0.46043637 -0.16745669 -0.11567388 -0.29279912 0.757772 0.6886724 0.0072106775 -0.20601259 -0.5854902 -0.68887514 0.08202724 0.39492318 0.6172967 -0.20976485 0.09844371 -1.1715084 -0.6947759 0.1639178 0.41166845 -0.22104372 -0.88018095 -0.44392762 -0.3287103 -0.14267273 0.2474337 0.3693254 0.24410854 -0.8927931 0.16904646 -0.6043347 0.41209415 0.19710028 0.6562507 0.49143124 -0.4572229 -1.1624851 -0.11029887 -0.1665189 -0.790323 -0.15044165 -0.46833798 -0.57357526 1.2928598 0.9145699 0.40143856 -0.31834736 1.187605 0.19869508 0.47303268 -0.46594274 -0.9199485 -0.33119985 -1.6818708 0.2220837 -1.1566902 -0.9565545 0.8353973 0.5899985 -0.25567928 0.9170583 0.9707036 0.48028275 -0.5022822 -0.50473136 0.24710986 0.33156672 -1.3909605 -0.2540182 0.39605787 0.39303082 0.029669898 -0.6859464 -0.15146433 0.8736274 -0.31347305 -0.1544257 -0.067755036 -0.1935626 0.068583705 0.611098 -0.3180678 -0.6334321 0.26599637 -0.32915312 -0.86637807 -1.5471268 0.052966252 -0.54742897 -0.42475694 0.67591614 0.48987076 -0.5905285 -0.70065635 0.9999711 -0.38842314 0.7098236 -0.8806318 0.08742633 -0.45351422 -0.29515395 0.50178236 -0.25026387 -0.24875103 -1.0483835 1.3198501 -0.09657424 -0.32296404 -0.13490674 0.07125918 0.48369625 0.24635386 1.1886758 -0.91730726 0.06756657 -0.08634888 -0.60933274 0.10615751 -0.48598891 -0.07239615 -0.11711752 0.31343848 0.8210145 0.20911714 -0.3135116 0.22175077 0.7317162 0.54396653 0.26921365 0.5185783 -0.060143374 0.534822 -0.02214768 -0.58435726 -0.58584493 0.33492202 0.43658257 1.0644301 -0.51093715 0.80027455 0.32002643 0.1509031 -0.34093633 0.22777677 -1.5119975 -0.8041587 0.25997925 -0.7113313 0.32755312 0.6130221 0.6152126 -0.36112896 0.12415397 -0.949719 -1.470259 -0.14257902 1.3014956 -0.58811235 0.38197687 0.7156677 0.5786138 -0.4527344 0.39278322 0.17752306 0.48036146 0.8703086 0.527779 -0.34805134 -0.56060034 0.082618825 0.73347694 0.5667287 -0.11198164 0.34973937 0.1607877 0.43644115 0.54802006 0.5832497 0.59875697 0.50398 -0.43660107 0.6627881 0.6797227
r2 0.20576201 -0.5997228 -0.27984726 0.42557248 0.13393065 0.4807749 0.1648977 -0.02320411 0.5858169 0.55557054 -0.7701336 -0.86981475 0.14366037 0.28046235 0.02178894 -0.1883599 -0.24170788 -0.49955598 0.47430104 -0.15561964 -0.09538745 -0.027007513 -0.5278222 0.32068312 -0.009933973 -0.03869941 0.81638867 0.25018427 0.06625277 -0.81991553 0.57840675 0.46527088 0.114422135 0.4512589 -0.039448578 -0.006811767 0.94984794 0.5861495 -0.24363093 0.73691994 0.14291403 0.1395651 -0.3886659 -0.2930742 0.019682795 0.41495365 0.21855646 0.32714182 1.237769 -0.5760845 0.55388516 0.545507 0.63507706 -0.23458518 0.05214947 -0.5671419 -0.028707314 -0.66405225 0.84281975 -0.40383247 0.26263344 -0.44900492 -0.18521765 -0.7808433 -0.25773335 -0.7118985 -0.48006463 -0.24286278 0.7203206 0.12095907 0.14371142 -0.6854216 0.23299506 -0.9248067 0.2076592 0.9415171 0.534005 -0.7465013 -0.2562611 0.71515834 -0.38085252 -0.23835179 -0.23502591 -1.1778078 0.5096872 0.16110827 -0.07916701 0.10097745 0.9392051 0.16280039 0.5625429 0.048201077 0.5358749 -0.5982393 -0.28876516 -0.41634086 0.17341414 0.19228621 0.084361926 0.43879968 -0.45391855 1.045827 0.38138065 0.40940934 -0.2350043 0.0068476773 -0.74700534 -0.9416467 -0.49787766 -0.743155 0.33079666 -0.053276096 -0.37900826 0.08109475 0.23281325 -0.18893997 0.32559863 -0.1701226 0.4303115 -0.041928343 -0.55042166 -0.14152476 0.2509545 0.73511153 -0.26559234 0.39574876 -0.42518005 -0.3387496 -0.6045542 0.123063274 0.48415893 0.17847009 -0.38413906 -0.028782653 -0.901067 0.2758518 0.3396429 0.5513258 -0.4561552 -0.39782575 -0.21774493 0.2379883 0.79965734 -0.021886917 0.1688277 -1.3040622 0.71442235 -1.0046482 0.16223489 0.5311323 -0.7742255 0.3103634 -0.12643881 -0.703685 -0.1013218 0.35673848 -0.9027538 0.9372518 -0.040566258 -0.40243486 0.79435736 0.79797 -0.29497015 -0.391601 -0.28951758 -0.39659223 -0.08231976 -0.79596734 -0.52147216 0.1661361 -0.82794285 1.3490417 0.23171055 -0.6371751 0.54856604 0.7886958 -0.22794707 1.1819957 0.029326145 0.2370657 0.75374645 -0.43450361 -0.73276764 0.496743 -1.3169665 0.36438048 0.53089345 -0.29023948 -0.23887144 -0.5157471 0.077692114 -0.22758403 -1.0803368 -0.36336887 -0.1957671 0.005479139 0.4411134 0.24559373 -0.696421 -0.46913135 -0.018581852 -0.2747216 -0.54153514 -1.1265087 -0.7279392 0.018302748 -0.7963442 -0.27524126 1.0214208 -0.16196036 -0.07900706 1.3473178 0.22462626 0.37714738 -0.31205723 0.40747073 -0.7398353 -0.98613626 0.5542348 -0.15852794 -0.19000183 -1.0900828 0.8676405 0.85046196 -0.39709097 0.037707295 0.2099334 0.030299637 0.40685531 0.6725762 -0.97039497 0.26439205 0.44079447 0.38672054 0.05565869 -0.29135737 -0.76465356 -0.74897075 -1.1974981 0.7492531 -0.25230703 -0.5559407 0.2765365 0.3082037 -0.009727045 -0.21207538 -0.27199933 -0.41892788 -0.06470955 -0.18349817 -0.36260822 0.32414874 -0.028442174 0.046095077 0.48606098 -0.64109087 -0.039410513 0.798051 -1.0138019 0.38596517 -0.20550667 -1.455233 -0.28317648 0.65723175 0.28841245 0.08781186 0.5430787 0.23999232 0.15816393 0.6204361 0.00848134 -0.85034597 0.15572935 0.8992275 -0.18976024 0.3191738 0.090005904 0.052206893 0.17562154 0.37704325 -0.6795417 0.4031889 0.9859377 -0.2193514 -0.0827427 0.14185183 0.5090916 1.0239055 0.20982063 -0.46783683 0.14970578 -0.94497883 -0.050363123 -0.18142253 -0.8167287 0.41860273 0.5067463 -0.77584565 -0.432162 0.13643226
[sp -0.41364422 -1.0734987 0.5048897 1.1331378 0.9556075 0.30398843 -0.07747643 -1.0043064 0.7189078 0.7973532 -0.8539901 -1.1704865 0.5952269 0.82293916 0.8949383 0.18319336 -0.17696242 -0.22854161 1.176404 -0.45792297 0.5830022 0.017776871 -1.5506952 1.0843917 -0.5291865 -0.03621134 1.3900017 0.6909873 0.8306718 -1.6473889 0.60405236 1.0298017 0.042620435 0.043767665 -0.027060583 -0.26882154 1.5018302 0.56821424 -0.042080168 1.4684505 0.11195177 -0.019303173 -0.059136126 -0.79322267 -0.10437597 0.29005134 -1.0981072 0.17467201 1.2984619 -0.912288 -0.2010608 -0.2962851 -0.28544965 -0.9796019 0.3739535 -1.4070793 0.050193053 -0.467182 1.2942148 -0.04205716 0.7526733 -0.1870916 -0.27642438 0.55281216 0.10318945 -0.48187742 -0.73644125 0.88465434 0.73379165 0.9720888 -0.40065643 -1.323319 0.3404741 -0.7641873 0.39137444 0.7463318 0.10577249 -0.21066324 -0.20871365 -0.12891719 -0.71400964 -1.0287526 -1.6494527 -0.5055281 0.06484329 -0.51330245 1.0099547 -0.7392449 0.7058518 -0.64419514 0.3832104 -0.40070352 0.65107673 -0.26355377 0.5374121 -0.08188473 -0.2649387 -0.30958807 0.23494872 0.23687631 0.143195 0.5345325 0.9233514 0.19679534 -0.5470593 -0.25501552 -0.8163042 -0.8810075 0.024391295 -0.8359451 -0.50566715 -0.3934321 0.22178558 0.52002335 0.06492328 -0.07091369 -0.21448259 0.37371293 0.47724557 0.41757295 -0.105152994 -0.13130172 1.3634553 0.70233387 -0.33666492 0.49193618 -1.7450811 -0.6254267 -0.97052044 0.6333682 0.62404436 0.16716032 -0.68288547 -1.5597879 -1.6324989 1.0754284 -0.28689572 -0.5704768 -1.0663155 -0.8331478 0.2865605 0.15747832 0.890294 1.2202569 0.45082512 -1.2001358 -0.070255905 -1.944655 2.2454028 0.47591394 -0.020063814 0.44310838 0.4536585 -2.330973 -1.2626276 0.08199791 -1.1246793 0.27783236 -0.05931157 -0.8279097 1.4130752 1.1571603 -0.4618182 0.035066124 1.5363485 0.8377079 0.03180838 -0.18831915 -1.2785913 0.19260517 -2.3043969 0.44519272 -0.1913872 -0.5290701 0.43873656 1.3026158 0.01063116 0.60767716 1.2024057 0.47636914 -0.7032925 -0.85618925 -0.870859 0.68010014 -1.6798897 -0.333965 0.22126321 0.46063957 -0.12153446 -0.4008927 0.07381457 0.7757906 -1.6523173 -0.9590887 -0.22875202 -0.573281 -0.17312741 0.7646912 -1.1871128 -0.7070295 0.30743805 -0.55175674 -1.0423235 -1.2729479 0.3699366 -0.31251985 -1.1860759 -0.030410543 0.8277419 -0.3357271 0.28540245 1.936428 -0.27479193 0.14530037 0.4727425 -0.16421267 -0.764154 -1.2531248 0.5383608 -1.2004819 0.14085245 -0.8373966 1.0436621 0.12391597 0.11386266 -0.74059397 0.330106 -0.28503016 0.8140727 0.97911745 -0.720949 -0.30583867 0.3888824 -0.12948501 0.082130946 0.16435918 -1.2052805 0.07899146 -1.1164157 0.8989662 0.14280437 -0.84952134 0.62897897 1.3910917 0.4919484 -0.58286244 -0.7691703 -0.81637377 0.37719983 7.061727e-05 -0.47389218 -0.05204803 0.80911684 -0.16892856 1.1430024 -0.33266982 0.26983163 1.4527986 -0.6308485 -0.10145676 -0.55335927 -1.288119 -0.35618415 -0.25035328 -0.53874743 -0.26092184 0.7177153 0.5700507 -0.5056182 0.34157848 -1.407201 -0.9730829 0.6103408 1.2055563 0.03563409 -0.49539864 0.36225063 -0.19754148 0.012302477 0.91980565 -0.41515204 0.076679654 0.35212052 0.093138866 0.0070520192 0.122685745 0.29723254 0.47622606 0.3233898 0.40361887 -0.038821045 -0.27066386 0.31449702 0.49754366 0.06144483 0.86888397 0.6288786 -0.9706669 0.16868804 0.41716197
add -0.15801014 0.7968926 0.08938011 -0.2924511 0.07906527 -0.90125304 -0.24158457 0.13228105 0.0026466858 0.19579397 0.33877367 0.44801956 0.37170342 0.07266969 0.032736436 0.009391388 -0.3560747 -0.6254502 -0.2756762 0.6177998 -0.40478125 -0.36009768 0.31944156 -0.68968445 0.008524854 -0.1281813 0.05930297 -0.11797111 -0.71419084 0.82030696 -0.379412 -0.28866032 0.5093715 -0.58772963 0.45849025 0.3788252 -0.008762333 -0.5297281 0.17825592 -0.8020364 -0.13085267 -0.72623056 0.6816178 -0.83470994 0.3756785 0.24052346 -0.42311165 0.82067513 -0.15857004 0.17302054 -0.22383146 0.22245526 0.095161565 -0.3930469 -0.0027501162 -0.1324977 -0.38556382 0.408677 -0.6539893 -0.45907944 -0.34705222 0.81014544 -0.04826867 0.5661943 0.0443621 -0.26245818 0.2724838 -0.26666313 -0.38766065 -0.49471402 0.28501907 -0.060839504 -0.51952124 -0.18683355 0.12576479 0.0051666833 -0.29172805 0.28210297 -0.071532026 -0.13615231 -0.19983514 -0.053141963 0.5824133 0.31696862 0.13998614 0.45973212 -0.28101602 0.5918575 0.72228575 0.39243013 0.1644179 0.29754078 -0.10319559 -0.38357508 -0.1597931 -0.060880866 0.115520835 -0.22415298 -0.24607164 0.14494547 -0.28974766 0.3095359 -0.11210844 0.1959881 -0.1607957 -0.34979108 0.05795401 -0.39593932 -0.08271471 0.56108886 0.1864926 -0.1144947 -0.058934193 -0.5797743 -0.104261026 -0.6641988 -0.45603454 -0.25157967 0.14009891 -0.93520534 -0.15148635 0.5337406 -0.036038022 0.5497832 0.5555848 -0.49716383 0.62975305 0.08094739 0.22515704 -0.13272372 0.07021653 0.3377615 0.3963692 0.2908889 -0.13103434 0.19204378 0.19137822 -0.45777962 0.20578666 0.11879387 -0.11182174 -0.54835325 -0.41777575 -0.57085973 0.46540475 -0.29401574 0.24023487 0.1932077 -0.027395409 -0.19555892 -0.3068892 -0.0355462 -0.08834874 0.3621007 0.36523682 -0.19212613 -0.48227215 -0.3112997 -0.06921763 0.08853153 0.0108555 -0.09160445 0.5564108 -0.34546673 -0.8505896 -0.71506244 -0.20299862 -0.43292624 0.22176486 0.550361 0.11614879 0.88729626 -0.29155555 0.14199343 0.29105124 0.06362929 -0.7437979 0.2945274 -0.28415585 0.05349983 1.2966253 0.058211073 -0.09896548 -0.056433864 -0.2902399 0.7268705 0.7173114 -0.15144587 -0.6557353 0.1772415 -0.09157561 -0.40770468 0.23621827 -0.5756496 0.24568066 -0.14980195 0.55462134 -0.44311854 0.06842545 -0.22755182 0.37861374 -0.33551437 -0.53740984 -0.9922771 -0.06885836 0.5174626 -0.92443347 0.15086152 0.28351474 0.5360071 -0.48855147 -0.17069495 -0.41063237 -0.44682518 -0.45117542 0.025699958 -0.45353583 -0.6339287 -0.24594404 0.2786412 0.12502846 -0.2127084 0.68520534 0.36518583 0.15894534 0.25190356 -0.13133462 0.38175523 0.2817773 0.30478734 0.111728795 0.58302003 0.19955254 0.108566724 -0.21110186 -0.37431133 -0.3740707 -0.9013518 0.095443234 0.23011693 -0.35694602 -0.12634408 -0.16534826 -0.28716406 0.09620288 -0.31667772 0.76087564 0.037958913 0.26210758 0.13142188 0.17246139 0.3531767 -0.046048503 0.7078417 0.41462705 -0.46848035 0.66558474 0.00038219386 0.23304938 -0.27810022 -0.08597781 -0.3015903 -0.39771926 -0.3618892 -0.16933066 -0.031600494 0.16444519 0.084924094 -0.562305 0.17493115 -0.71012795 -0.94529796 -0.7595574 0.6410083 -1.1237458 0.27943608 0.8978147 0.26755327 -0.50681305 -0.107448734 0.22467598 0.2774194 0.21191466 0.031716127 -0.37488088 -0.40577683 -0.075798914 0.2990154 0.36354464 0.11262264 -0.13434027 0.09352986 0.37294492 -0.062112983 0.75213313 0.27346683 0.7736893 -0.923549 1.0714121 -0.45523414
push 2.2552116 0.5226074 -0.46278155 -0.66790533 -0.6466428 -0.15079969 0.41675743 0.4234928 -0.60911936 -0.3446964 0.5148564 0.5311994 1.1093636 0.19311526 0.0016838919 -0.36195314 1.0638496 0.72528505 -0.47953513 -0.40422958 0.53438354 -0.4941526 -0.3625821 0.048990913 0.07703389 -1.1803634 1.1391317 -0.37329537 -1.0236344 -0.14066324 -0.7963851 0.8032114 -0.5149116 -2.018809 0.40830675 1.0665919 0.23337625 -0.24178083 0.0471817 -1.0769504 -0.2713563 -0.86555314 1.3201395 -1.1024863 0.69675934 -0.29619607 0.017842274 1.5535234 -0.6292546 -0.59429574 -1.0511215 0.4331843 -1.338971 -0.79238355 -0.41054013 -0.9776571 0.23761244 0.08737688 0.4462194 -0.21866551 -0.8214018 1.4870344 -0.4630388 0.8474137 -0.089463465 1.4194033 -0.357338 -0.28034827 -0.6722528 -0.4830057 -0.37399864 0.1571316 -0.73985845 0.06089725 1.7945768 0.58442765 1.2664331 0.056152258 0.96811783 0.05386785 -0.93059826 -1.0315317 -0.17149973 1.0132189 0.05354884 0.7003582 0.29727277 0.012267404 1.4447348 1.0819374 -0.40704575 0.06290352 1.1267691 1.0012337 -0.6202214 0.950166 0.98832273 -0.45224693 -1.050584 0.7278442 0.2079996 0.8223746 -0.46737546 0.53472173 -0.7142383 0.49948838 1.4927607 -0.03909876 -1.3461707 -0.32791972 0.21693057 -0.9337471 0.22308074 -1.2972338 0.940903 -0.65736455 -0.38233364 1.3723164 -0.9829959 -0.59453595 -0.25295192 0.650248 0.5788135 0.90633273 0.026100323 0.1911521 -0.570545 -0.4069641 0.55283433 0.7165526 -0.73260933 1.0749547 0.2830669 0.16422255 -0.7002806 0.17719322 -0.16317825 -1.4619398 0.5448741 0.022294566 0.97576284 0.4327366 -0.19643207 -0.10672825 0.7220066 0.43505606 0.022015609 -0.8305871 0.90112597 -0.5657999 -1.0771135 -0.9539228 -0.4468628 0.7170997 0.32370368 0.06876609 0.25576672 0.085636534 1.0437039 0.4978437 0.55668885 -0.08139413 0.7827721 -0.116377175 -0.18266764 0.3392348 -0.43762884 0.31952286 -0.51886535 -0.04509988 -1.0189157 -0.5651185 0.6668273 1.0160049 -1.3976053 0.95147204 0.96935487 0.3220817 -0.9330876 -0.16026217 0.9475311 0.1061432 0.5405141 0.25841686 -0.8327346 0.5246925 1.0451502 0.6582839 -0.35295174 -0.509035 1.5349146 0.1141959 -0.82702905 -0.09087797 1.4336246 -0.54158896 -0.07187335 -0.59323317 0.03788203 -0.55443907 0.11296296 -0.03829648 0.37620115 0.9171662 0.60672426 1.9090906 -0.64807224 -0.64220506 0.46410322 1.8373058 -0.25799155 0.30286428 -0.87856495 -1.0098139 -0.4020104 0.07895688 -1.0734292 -0.5810379 -0.37713763 0.44269747 0.6041746 1.6459069 0.7092682 0.5669717 0.65730333 0.6090858 -0.183419 -0.90604913 0.6916725 0.331623 0.34686294 0.33766714 0.215679 -0.8965654 0.14076342 -0.47819313 0.6104568 0.30209103 -0.7334277 -0.3000744 -0.08688363 0.42068568 0.29526547 -0.7780871 -0.4641858 -0.538689 0.40592661 -0.73158705 1.7092102 -0.34604862 -0.3072163 -0.032718685 -0.4434191 -0.9799862 1.0052898 -0.084184244 0.36203942 -0.15371495 0.93721753 -0.59363264 -0.6056104 0.19494253 -0.85347635 -1.3203355 -0.043391284 -0.5065188 -0.8232067 -0.5615453 -0.908285 -0.11594963 -1.111373 -0.341417 -1.1040493 0.44580844 -0.12563254 -0.1625371 -0.10507911 0.11471997 0.15045133 0.43999857 -1.1573861 -0.7151699 0.66613597 0.307878 -0.20516278 -0.091970086 0.35046268 0.63833785 0.039524887 0.4919342 -0.36825585 -0.43655676 -0.30701974 -0.8031565 -0.31594747 0.22000557 -0.34726715 -0.29360783 -0.6954971 0.038411207
cmp -0.621514 -0.35238138 0.6635824 -0.038435332 0.48059443 -0.60063493 0.061051793 -0.7775334 -1.4469103 -0.9178283 -0.048014034 -0.70783615 -0.6373232 -0.047375534 0.29595327 0.62386614 0.3258184 0.015321561 -0.41020256 -0.7224009 0.24318424 0.7379364 0.81071454 0.22781695 0.50673 0.08723155 -0.83663386 -0.363377 0.14818048 -0.5532743 0.9595353 0.63467 -0.07406325 0.71534866 0.47449347 -0.03666226 -1.2032275 -0.39451468 -0.1230407 -0.2668387 0.645096 0.21926066 0.27979514 0.8475418 -0.97826576 1.1894757 -1.1105975 0.2964653 0.030217467 1.3568783 0.31242424 0.07178527 0.76165843 0.6923942 -0.09188569 -0.638004 -0.73690104 0.36252135 -0.6217406 -0.23590617 0.34353033 1.1021062 0.9761861 -0.067758605 -0.18302836 -0.41554475 -0.15900101 -0.4944862 0.75345564 0.29339883 0.07672038 0.37409908 0.62081647 -0.42952326 -0.39718994 1.2990204 -0.19101259 -0.74027646 0.56381696 0.4007799 0.26756516 1.025847 -0.0034187073 -0.7514922 0.565902 0.7714064 0.55264384 0.24080254 -0.057749756 0.33884138 -0.16622204 -0.057247207 0.45420817 -0.3315723 0.20634244 -0.75289583 -0.69184285 -0.43298832 0.2070884 -0.23176914 0.32466444 0.6463019 -0.09253709 -0.045493007 0.37987396 -0.20013934 0.0898448 -0.29385483 -0.34832808 -0.5633274 0.26705852 0.13027216 0.46581185 0.7311324 -0.16654351 -0.27225435 -0.23451734 -0.25546923 -0.17015554 -0.14346762 0.33035204 -0.3456488 0.07673226 -0.6653703 -0.53096473 -0.189579 0.48380944 0.20310932 0.17458557 -0.41564065 0.48777097 -1.002963 -0.26095468 0.34318766 1.4178816 -0.4089146 0.35693002 1.2762408 -0.37033197 0.45522583 -0.40478954 0.58634436 0.724322 -0.21847452 -0.54313695 -0.30532908 -0.05486558 0.6902562 -0.82613325 1.2343765 0.9520315 -0.24960265 -1.469409 0.106953844 0.2417311 0.77858126 0.46869656 -0.029038506 -0.53273785 -0.24823035 -0.54700726 0.30384377 -0.17096283 -0.64646214 -0.87009656 -0.3128554 0.47905767 -0.46530852 0.43384612 -0.49116808 0.41718572 0.90108484 -0.17630847 -0.28009558 -0.11371965 -0.713686 0.78873515 -0.23372893 0.2360658 0.8618487 0.42758048 1.2396488 -0.33864173 0.15441142 0.49054068 0.75923157 -0.9826582 -0.3579209 0.692688 -0.40376967 -1.2139825 -0.40854695 -0.33036238 -0.24850827 0.13039015 0.42771584 0.7174458 -0.5972525 0.50860816 -0.16901769 -1.0811639 0.29306802 -0.371983 -1.0657641 -0.20906822 -0.931927 0.059474252 0.29179066 0.65522164 -0.11501146 -0.14362212 0.4212612 0.35972056 0.67058367 0.7900139 0.16534124 0.47812632 1.1722646 -0.64759976 -0.034942057 -0.09012395 0.18129179 -0.5531048 -0.10374675 -0.7871309 -0.47496045 0.04056515 0.29074654 -1.3994735 -0.103484854 -0.1791275 -0.08685284 -0.12304375 0.25102895 -0.41799074 0.18276195 -0.28788137 0.26068902 0.26129934 0.17511705 -0.65129113 0.14447245 -0.46080858 0.32834458 -0.5141611 0.78824794 0.0370528 0.7504612 -0.20883584 -0.51118904 0.0948303 -0.32514662 0.15489073 -0.02530054 -0.23793665 -0.60658926 -0.39117396 -0.77814525 -0.4768495 0.87352675 0.9430885 -0.48772997 -0.12157913 0.76785535 -0.23510125 0.6238284 -0.16916347 0.2162957 0.8085112 -0.38915768 0.91377276 0.6574777 0.4426317 -0.7456172 0.74906904 0.7608218 -0.91757625 -0.014513531 -0.036045246 -0.47105187 0.20343433 0.16085134 0.19115084 0.5312754 0.39994493 0.39761886 -0.2886367 -0.17533766 0.62483776 -0.311409 0.13076472 -0.25686517 0.31519344 0.51011455 -0.426908 -1.242109 -0.93754154 0.6896694 -0.2442857 -0.2953228
qword 0.3457806 0.9236306 -0.7836382 -0.67856145 -0.73324865 0.20329224 0.6571605 0.8116998 0.92132145 0.10567502 0.122125596 1.180487 -0.97580767 -2.0184 -1.2921877 -0.7610327 0.6516838 0.9740201 -0.13442318 -0.65312666 0.893991 0.16136117 0.6733522 0.87444437 0.08931341 0.64855754 0.31092158 -0.28176793 0.22865057 -0.06772866 -0.5460261 -0.948934 0.41056216 -0.19640407 1.1100909 0.26308084 1.0261526 -0.5272738 0.11742106 -0.72168356 -0.52046126 -1.288449 1.0846615 -0.82200724 0.7327183 0.10825396 0.68183774 1.3820566 -0.40514365 -0.25275025 -0.035058074 0.5811771 0.998285 0.4241186 -0.138871 1.1628381 0.4650637 1.2420918 -0.96508497 -0.39446253 0.126848 0.38752797 0.35123026 0.047000375 0.024041116 0.424061 -0.360698 1.6539459 0.2309457 1.4290934 -1.5332515 -1.1448013 -0.29679462 0.4358978 -1.3975439 -1.7154986 -0.904372 0.91258967 -0.27484414 0.27764174 -0.29219952 0.7679953 -0.40148303 0.65888906 0.9381083 0.29030204 -1.928759 0.5186747 0.09981993 0.7671981 -0.3804402 0.23362704 0.4510664 -0.6852317 0.83740604 1.2698513 -0.15881515 -1.0936958 -0.51539946 -1.7603815 0.63565797 -0.70489466 -1.3827729 0.50384974 -0.28234068 -1.6756536 0.3313277 -0.00030378927 -0.057585113 0.61197996 0.2694059 -0.86562186 0.8299474 -1.3618609 -0.5340314 -0.096751235 -0.9194917 -0.24599798 0.120602265 -1.5846131 1.4323535 1.826075 -0.06073727 0.0007267582 1.2276747 -1.2970382 1.1609942 1.1359832 -0.22303209 -1.5794494 -0.81604695 0.19920653 1.6277559 0.9891224 0.1171373 -0.68034065 -0.9260311 -1.3243233 0.08992377 0.41159484 -0.15135413 0.40896827 -1.2434196 -0.2610602 0.9634452 -0.093405776 -0.9421833 0.032892335 -0.57064337 -0.53839076 0.11767223 -0.33238292 1.4111265 -0.62834513 -1.1372917 -1.4356707 -1.0985289 -2.1019044 -1.5692036 1.1913018 -0.54232717 -0.05298225 0.38195583 0.17909718 -1.8802115 0.19494195 -1.1421689 0.31350976 -0.51882714 0.6440045 -0.12054574 0.7837332 0.21948655 1.8600559 -0.9784808 0.4364703 0.12967406 -1.2561184 0.16991644 0.3769979 1.8156637 0.8643896 -1.3633958 0.86363304 0.45227402 1.6925151 0.6273053 0.055127393 -0.83215123 1.2189611 -0.94026846 -0.5473899 0.18502837 -0.838027 1.51127 0.98497504 1.6922038 -0.8086971 -0.0018279479 0.5943935 -1.6059586 -1.2718222 0.08180728 -0.07524265 0.8621295 -0.80687886 -0.25160775 -0.13416018 0.9626612 -0.5285488 0.7890614 0.21456641 -0.6751955 -1.2758265 1.8985847 0.45071024 -0.99511564 -0.048970334 -0.5504092 0.61897576 -0.23193687 1.3640983 0.22425523 -0.24141395 1.0863427 1.0468866 -0.9401639 0.059630375 -0.20391977 -0.9491816 0.49011043 1.3216604 0.69047195 1.24346 -0.8048824 0.49002764 -1.0947964 -0.6023997 0.34801093 -0.11449748 -0.8692657 0.91475517 -0.21216403 -0.8620682 0.8226531 -1.9087955 -0.60839105 0.2101677 -0.26446682 0.49054715 1.4122567 0.8463177 0.69212353 1.833592 0.32497814 -0.43066317 0.67745715 -1.1582222 1.3622475 -1.0047045 0.091725916 0.5250089 -0.5448312 -0.9410809 0.3762129 -0.48701185 -0.017378487 -0.3067635 0.28532103 0.06925715 -0.39789858 -1.1523528 -1.3927032 -0.68675387 -1.3533447 0.022376096 2.1008668 -0.0060333028 -1.4546787 -0.86074686 0.9698757 -0.4809612 -1.1266372 0.90261096 -0.99799246 -0.81709105 -0.24025057 -0.41579077 -0.0013329999 -0.35030696 -0.25125188 1.3345999 0.29757538 0.5494485 1.0416344 1.1953162 0.5537441 -0.19099826 1.8609201 -0.22319776
r3 0.34991026 -0.77066267 -0.58023244 0.5688389 0.007895594 0.80302215 0.10974097 0.13494113 0.98651636 0.7565147 -0.8698823 -0.59614575 0.08214194 -0.0028011373 -0.14162575 -0.41506806 -0.21093737 -0.3510111 0.5078368 -0.15693031 -0.008224492 -0.008624267 -0.5779198 0.5122682 0.16336788 -0.007025054 1.2781147 0.07837002 0.11293501 -0.86577487 0.25909242 0.45747918 0.45218042 0.25575584 0.19805317 0.036259983 1.0911379 0.6597513 -0.08759331 0.6655348 0.047894176 -0.024529656 -0.43349522 -0.6769007 0.26340982 0.26069316 0.25472602 0.36469695 1.5753708 -0.6538119 0.52946967 0.67989516 0.5710618 -0.466291 0.05710656 -0.79168 -0.16750373 -0.76711446 0.98701066 -0.6452664 0.23266727 -0.4455934 -0.5061122 -0.7939368 -0.18990262 -0.90043175 -0.31752625 -0.49181825 0.5572161 0.10789567 0.42522782 -0.7566378 -0.08712644 -1.0229045 0.4035019 0.68946856 0.8724196 -0.7816279 -0.43471602 0.694162 -0.41485804 -0.3787964 -0.048046142 -1.5885922 0.37406272 0.12638816 -0.38223204 -0.056585588 1.0005094 0.096263595 0.6744532 -0.015573889 0.39491737 -0.5875418 -0.5302436 -0.56218445 0.18521023 0.37414834 0.099007815 0.45170414 -0.6787998 1.0230188 0.36279956 0.38199827 -0.28667882 -0.004223804 -0.937589 -0.89596504 -0.4637377 -0.84330773 0.411097 -0.07149882 -0.47172114 -0.14046404 0.33779103 -0.25290972 0.40511236 -0.15682586 0.38440505 0.104378425 -0.80858135 -0.19522035 0.16398847 0.9106285 -0.14134596 0.46673796 -0.41993955 -0.38988757 -0.58422333 0.04291311 0.42449915 0.329488 -0.5138124 0.061780892 -1.2160597 0.30167088 0.32702768 0.5326254 -0.416131 -0.4489728 -0.27891523 0.21225728 0.72352296 -0.16844438 0.1490342 -1.4240242 1.1508164 -1.1976264 0.084367305 0.38311347 -1.0126324 0.4179978 0.00882279 -0.75718594 -0.087792575 0.20126225 -0.98967606 1.1614523 0.08500747 -0.5232796 0.7779891 0.8151653 -0.16356306 -0.4804062 -0.71630776 -0.5026664 -0.17968594 -1.0060284 -0.6720386 0.2871004 -0.9709303 1.8188953 0.22393836 -0.7724741 0.8244268 0.9768794 -0.53286815 1.5292417 -0.22533445 0.3841961 1.1715881 -0.4433925 -0.6017879 0.62458795 -1.598119 0.35562688 0.73492163 -0.482261 -0.3622669 -0.17554455 0.062041674 -0.2664754 -1.1298047 -0.39896402 -0.18402041 -0.009765489 0.5262033 0.46216667 -0.88137335 -0.5067991 0.11619643 -0.42320687 -0.61381894 -1.1108176 -0.90789753 0.19989596 -1.0281994 -0.41640687 1.2912917 -0.095635585 -0.11070801 1.6803663 0.19464624 0.40002507 -0.52990156 0.45206296 -1.012157 -1.2331326 0.6646766 0.051539827 -0.1555796 -1.2964001 0.99077517 1.0356305 -0.16476637 0.19737755 0.16863868 0.060047667 0.46837252 0.82396966 -1.0959538 0.34221527 0.47917435 0.47600374 0.0030157631 -0.41741604 -0.9464826 -0.9436568 -1.4940997 0.92636853 -0.41132635 -0.6158961 0.4391228 0.36716783 0.07304169 -0.38744494 -0.3487548 -0.6913522 -0.11038722 -0.17331614 -0.48875487 0.3069901 -0.15127726 -0.053129077 0.6728308 -0.6081574 -0.058145717 0.8072783 -1.0133048 0.32290766 -0.29242325 -1.4414705 -0.39966196 0.56098825 0.5044485 -0.14733808 0.6594802 0.151765 0.2456028 0.75355977 0.018791713 -1.0322826 0.10024398 1.0383846 -0.38718525 0.41012308 0.45158198 -0.042262103 0.30022478 0.39364138 -0.9953451 0.4813743 1.2533264 -0.3590813 -0.16197939 -0.0014810096 0.84742576 1.2674919 0.15749016 -0.6633917 0.07965387 -1.2663361 -0.16632521 -0.33976284 -1.0783787 0.5832055 0.64020336 -0.9034002 -0.7293223 0.21415578
edx -0.8856535 0.4014469 0.48384553 0.34539035 0.013176122 -0.73211014 -0.31454873 0.2989462 -0.71305716 -0.48117968 0.54513305 -0.47352332 0.5856402 0.6262957 0.12344147 0.64740694 -0.5858349 -1.0023458 -0.19034703 0.6470344 -0.8413937 -0.34315968 0.63635725 -0.80366445 -0.24030575 -0.14213914 -1.5667373 0.31920713 -0.5986799 0.48532304 0.3054303 -0.07058101 0.13229059 0.6026106 -0.5379233 0.4682404 0.341983 -0.3090748 -0.77158713 0.17966764 -0.06407154 0.19535716 -0.36964986 0.45690283 -0.21412128 0.924517 0.18342286 0.23299143 -0.2732702 0.2652413 0.47758183 -0.25000778 0.5039693 -0.12808353 0.10866129 0.88243544 0.16202015 0.25284514 -0.68717724 0.4247896 -0.39902574 0.023300316 0.640349 0.25056413 0.13692468 0.6721805 -0.09221755 0.14567506 0.19836362 -0.35288173 -0.06760222 0.7659131 0.6712782 0.21979634 0.22836477 1.1625175 -0.16867249 -0.3879638 0.18241608 0.57237864 -0.26282653 -0.29153666 -0.5318008 1.1148306 0.30834478 -0.10208044 0.57217944 0.49768683 0.12946653 0.47956 1.0074269 -0.13285387 0.7976327 0.11017798 0.8893525 0.8831411 -0.074505135 -0.9178123 -0.025518011 0.25675416 0.2099214 0.52080286 0.9217294 0.784838 0.030259173 -1.2890223 0.30757922 -0.26620966 -0.59119445 0.008507014 -0.2804596 -0.39291173 -0.30114403 0.15392801 -0.25431424 0.29447487 0.046163507 -0.5982375 0.27744058 -1.4194132 0.38130903 0.82356703 0.55816144 -0.38622397 -0.3617223 0.03623226 -0.41880003 0.15370408 -0.26372728 0.27473378 0.7905856 0.39390624 -0.1526413 -0.097450085 -0.12230899 0.39362112 -0.15504628 -0.19816194 -0.49162212 -0.18803218 0.37349117 -0.8735342 0.48338738 0.47408733 0.36086947 -0.7446925 -0.63260084 -0.56946385 1.2553426 0.41421676 0.42247605 -0.38956958 0.13388374 -0.87328357 -0.6476571 0.6542625 -0.788207 -0.8056624 -0.7634154 -0.15263845 0.4779418 0.49015698 -0.9420574 -0.6289431 0.54100597 -0.11663468 -0.21376833 0.08855547 -0.10934398 1.1877096 -0.8587399 0.73936737 0.21421364 0.3282847 0.40016472 0.44306943 0.51372635 -0.9541716 1.0377665 -0.27451366 -0.07547955 0.36956105 -1.7469566 0.07852783 0.28326645 0.46275035 0.40987152 0.5013843 -0.23468153 -1.0168079 -0.41225776 -0.32594332 -0.9536418 -0.71794766 -0.3875372 -0.5257452 0.19317728 -0.72181165 0.05018073 -0.3205192 -0.2813372 0.2575057 -0.94598067 -1.1913385 0.2200594 -0.51479614 -0.7719567 -0.08026564 0.18480125 0.48517236 -0.034558874 -0.23242515 -0.14023975 -0.37690663 1.2509052 -0.53366846 -0.18150355 -0.8523763 -1.4086903 -1.0433942 0.5929952 0.0748502 -0.087771975 0.1603157 -0.2381511 -1.0236756 0.5033437 -0.23100534 -0.4343847 0.09985431 1.1270131 0.2640496 0.7185489 1.6711503 -1.4666675 0.3734239 -2.0497413 -0.9702865 -0.5866329 -0.37518108 -0.47270596 -0.61677545 -0.63742816 0.36176935 -0.21040942 -1.1127249 0.19293739 0.48138055 -0.17119783 0.30218303 0.6821202 1.0323123 1.1106617 0.021860352 -0.4580733 -0.1930059 1.0362585 0.814349 -0.6162429 -0.23280802 -0.16505374 0.073471546 0.24808998 -1.3227252 -1.4919306 0.5637986 0.120157294 0.95866174 -0.9275373 0.2811387 -1.6084292 -0.34272268 -0.3348847 0.37105823 -0.9138982 0.519526 0.21455236 0.27948886 -1.3825647 -0.5645893 1.2339914 0.03936218 -0.2553954 -0.012143864 -0.79225075 0.28952596 -1.1246474 -1.1688052 0.2154323 0.54325986 -0.20336172 1.0721896 1.125675 0.48100913 1.6335311 0.56656474 0.5131309 -0.85779136 2.2423406 -0.63527125
rax 0.42971423 1.3270171 -1.0113308 -1.0198531 -1.1040713 0.0058044298 0.52122617 1.1169736 0.7399284 -0.47273037 0.18996872 1.0304142 -1.5299147 -2.1307266 -1.5667236 -0.72122514 0.58430845 0.8959633 -0.6286792 -0.765524 0.72478765 0.124490485 0.9312961 0.68655413 0.3486823 0.89905775 -0.44971254 -0.60475206 0.25026205 0.20307164 -0.621005 -0.9042119 0.2621597 -0.44607896 0.884758 0.4525089 0.4200045 -0.8666294 0.37427253 -0.88390285 -0.3518932 -0.94018686 1.2320342 -0.5175106 0.5810611 0.22734667 0.64598024 1.4678866 -0.58797354 0.095156334 -0.048107527 0.7087573 0.9062606 0.81349415 -0.20429575 1.4050971 0.40402603 1.4671344 -1.2721211 -0.53129804 -0.28643024 0.39006394 0.41274837 0.2105724 -0.22081663 0.75623566 -0.14218126 1.611362 0.20520504 1.2829477 -1.1756274 -0.31663448 -0.01945765 0.6652209 -1.3688213 -1.549998 -0.9875447 0.80949914 -0.0489877 0.34972504 -0.004642589 1.1549668 -0.10116553 1.4628347 0.9876593 0.48029307 -1.5446925 0.87702864 0.11163984 1.1470762 -0.10241705 0.2420088 0.2553855 -0.6241231 0.86205155 1.6880226 -0.24608004 -1.1375859 -0.49965495 -1.4981508 0.7550006 -0.38951075 -1.1734153 0.76824486 0.16062078 -1.5278676 0.47991562 -0.13569288 -0.7373716 0.22531971 0.28884467 -0.69897586 0.8039387 -1.2335885 -0.38547552 -0.037637185 -0.4068722 -0.21091872 0.17032725 -1.9194566 1.5446377 1.8387762 -0.16162148 -0.19781044 0.86433357 -1.1710565 1.1743622 1.0991384 0.09136641 -1.3575974 -0.6798684 0.16711533 1.5670139 0.9664998 0.45346552 -0.7695195 -0.37429827 -0.8390715 0.011877866 0.3314486 0.03741573 0.2866785 -0.92357385 0.08624425 0.40147135 0.0067433785 -1.0374534 0.21107836 -0.803904 -0.4732481 0.5693852 -0.86043376 0.92968196 -0.41020754 -0.8031854 -0.8705452 -0.63307065 -2.0310109 -1.5005176 1.2386615 -0.73670363 -0.21080866 -0.23520356 0.08337194 -1.349533 0.05933919 -0.96547866 0.44591546 -0.496353 0.41743338 -0.23220283 0.09059292 0.42521295 1.7944661 -0.6583158 0.17304227 0.68826216 -1.4905117 0.22061688 0.18801452 0.9502165 1.0488749 -1.1219268 0.595105 1.0587282 1.2159375 0.57617486 0.50099415 -0.47520724 0.7666972 -0.6613227 -0.64060426 -0.124082536 -0.42802083 1.0223851 1.070359 1.4039888 -0.98042446 0.48786968 0.4194378 -1.7030188 -0.6042289 0.36410844 0.08971149 0.8518471 -1.0359274 0.0035337403 -0.14135875 0.6413107 -0.19146134 0.53964525 -0.5891521 -0.5934197 -1.1931671 1.9984102 0.54169655 -0.85213757 0.07119549 -1.0656894 0.51833665 0.122507595 1.5709178 -0.19416133 -0.4101416 0.6869577 0.9850818 -0.526787 -0.085082546 -0.78478473 -1.4105285 0.777458 1.2002089 0.5710562 1.8031342 -1.253405 0.2804953 -1.000694 -0.9756908 0.37739262 -0.49788347 -1.058903 0.6465147 -1.0231119 -1.223235 0.626363 -1.8240337 -0.41028777 0.5169527 -0.034430016 0.4734122 1.671259 1.2080883 0.8452761 1.3049208 0.046721235 -0.38906035 0.8249819 -0.75764424 0.84579843 -1.0079441 -0.018706076 0.3380849 -0.50531614 -1.3846626 -0.3958225 0.27037957 -0.08803517 0.16618142 0.08591487 0.5022785 -1.0228298 -1.0887905 -1.804913 -0.33659294 -1.6771871 0.78684235 1.7989731 0.63123685 -2.1030707 -1.3125136 1.2678045 -0.3234634 -1.1096593 0.9387248 -1.546861 -0.7545543 -0.7393533 -1.2463555 -0.20277908 -0.120463744 -0.12735873 1.9961919 0.69945675 0.56612355 1.6035153 0.7706867 0.23704953 0.3448014 2.0957756 -0.29610282
call 0.92322284 0.5452219 -0.12006083 -0.61345387 -0.62217456 0.13794313 0.54134655 0.38980976 0.4864848 -0.10981558 0.45508152 0.62410897 -0.49680063 -0.55541325 -0.290109 -0.30734265 0.37616357 0.76281995 -0.25992158 -0.5210019 0.6650088 -0.115818344 -0.25854856 0.31679404 0.011249641 0.2969935 0.6691779 -0.24682681 0.3298956 -0.16120055 -0.82006717 0.112706006 -0.60839987 -0.8511957 0.42175967 0.19836079 0.32845554 -0.31396276 0.5781819 0.076963395 -0.20800133 -0.14466912 1.0152388 -0.457919 0.3191934 -0.6518129 0.33736825 0.8923631 -0.47764662 -0.47561574 -0.7730295 0.03324552 -0.83056 0.42548302 -0.20349082 0.19406942 0.77106375 0.7440126 0.22774984 -0.07976012 -0.30218354 0.2055225 -0.25685924 0.51939285 -0.10423376 0.910366 -0.20623088 0.9161773 -0.39895818 0.12631367 -0.373492 0.12069726 -0.046160754 0.5134243 0.5470659 -0.32040063 -0.05041287 0.56626886 0.355174 -0.724871 -0.33191696 -0.10073631 -0.53345823 1.4615159 0.252236 0.28572842 0.40267903 0.14570746 0.5713682 0.5074077 -0.3058449 0.16457409 0.08452362 0.067300715 0.2634801 1.0564183 0.20581025 -0.52806616 -0.43656647 -0.1865346 0.4794159 -0.026556067 -0.45095342 0.20615149 -0.10488572 -0.21092217 0.2893939 -0.50180626 -0.64832187 -0.32658648 -0.28309548 -0.5399347 0.21763399 -0.4972263 0.14615653 0.17421338 -0.40667275 0.7549749 -0.004929 -0.5852263 0.59333587 0.45884272 0.5433235 0.24483253 0.104654625 -0.15313277 -0.47736943 -0.18374948 0.15099359 0.30645055 -0.12012539 0.38894144 0.8204203 -0.44036204 -0.5359681 -0.26936582 0.10986998 -0.8179778 -0.08635817 -0.40163025 0.3079723 0.20582004 -0.260313 0.7779946 0.13977115 0.34220412 -0.88606167 -0.4646891 0.38725036 -0.60067433 0.4550846 -0.6946681 0.38843414 -0.39302593 -0.26217532 -0.35315785 0.1429772 -0.645074 0.035167057 0.5486124 0.22025363 0.102712095 0.43858635 0.31733513 0.5588557 0.33426788 -0.16480424 0.45218515 -0.89755404 0.10466404 -0.85742563 -0.95879817 -0.059413336 1.0653396 -0.59056914 0.540712 0.5109519 -0.47141814 0.2294081 -0.14933 -0.35720533 -0.035669945 0.29565972 0.2131708 -0.15348363 -0.2059617 0.8589491 0.9123898 -0.049997058 0.16440707 0.9671644 0.6019448 -0.34177417 -0.08058936 0.4537098 0.27754012 -0.044450555 -0.14229162 0.26956066 -0.21444559 -0.21054718 0.042704113 0.45875606 0.42737478 1.0961593 0.10236805 0.25852227 0.08075289 -0.32397133 0.2817762 0.19838396 -0.5849828 -0.8532889 -0.6972791 0.5497614 0.20655976 -0.5493093 0.02021302 -0.33231616 -0.25257933 0.33273557 1.1234524 0.3923228 -0.41853216 0.5045896 0.49846247 -0.13599247 -0.24095555 0.3097378 -0.2382781 0.020383483 0.19501421 0.07575854 -0.049277686 -0.18343236 -0.15660359 0.3682384 0.21589892 -0.009681147 -0.3558059 0.048071895 0.13017708 -0.56985736 -0.5998438 0.51944566 -1.0235006 0.01978603 -0.4461046 0.8886942 0.3739749 0.32755315 0.24581078 0.42446637 -0.3492338 0.5690337 0.18070628 0.8119631 0.32392803 0.46044156 -0.9364833 -0.55736333 -0.05533208 -0.525771 -1.0509683 -0.69545364 0.18467146 -0.020859685 0.001158798 -0.7576442 0.10657346 -1.2957978 -0.5309949 -1.1241202 0.588276 -0.71585315 0.14991963 0.45676965 0.68582314 -0.8322538 0.15959899 0.29436877 -0.36282936 -0.18102872 0.44431627 -0.80485857 -0.5422216 -0.42069533 -0.62680924 -0.2820368 0.6699645 0.24414204 1.2904994 0.109010816 -0.06448884 1.2360837 0.16135378 -0.3434295 0.84710974 0.36546806 0.32658705
ecx 0.2074004 0.05812203 0.051539995 0.55016065 -0.50391614 -0.35250464 -0.48891923 0.33649534 -1.2048533 -1.2624253 0.032646593 -0.92281723 0.41588828 0.49950495 -0.18746807 0.32150847 0.41693613 0.04984035 -0.30860898 -0.19417815 -0.5050608 -0.10966593 0.21365696 0.024361307 -0.050352402 -0.60435253 -1.5304072 0.0033079889 -0.44361553 -0.068932034 0.5660122 0.5214853 -0.21125287 -0.08829543 -0.98983467 0.39559665 -0.7066345 -0.3463481 -0.35600314 -0.015299156 0.6170869 0.3525583 0.07754536 0.2568436 -0.23324618 0.7961174 -0.88779366 0.012604469 -0.3356731 0.3796867 0.039017607 -0.30346245 0.042446736 -0.5042401 0.12537742 -0.16824095 -0.73980194 -0.27548465 -0.77562964 -0.025586383 -0.831723 0.22536884 0.5682968 0.59169394 -0.12659241 1.2046324 -0.36544555 -0.27881053 0.4570241 -0.1121183 -0.2939371 1.1833996 0.6457703 0.3282768 0.61448896 1.4630297 0.75703776 -0.8088783 0.6184479 0.9575091 0.19701752 -0.5942962 -0.6270353 1.0486609 -0.06617314 -0.3555532 0.8144058 -0.0045885947 -0.2176625 0.62919325 0.5487297 -0.44957334 0.9485042 1.0440159 0.40489942 1.1980082 0.08231648 -0.6562193 0.11609154 0.69703007 0.5647426 0.81122386 1.4285355 0.6724405 0.2069258 -0.31743488 0.93805116 0.3479734 -1.2872941 -0.9475329 0.052200563 -0.31796148 -0.19421946 0.1570256 0.48958153 0.2635049 1.0608518 0.05283015 -0.5374931 -0.6034748 0.1728261 0.40680358 0.4158145 -0.617792 -1.147622 0.6212783 -1.0833741 0.1463542 -0.34258872 0.6614004 0.27711457 0.31593606 -0.6561159 -0.12738024 0.061001167 0.48716524 -0.10227036 0.14559893 -0.2875713 -0.14076884 1.1189728 0.092007324 1.1352286 0.8053606 -0.19395205 -0.3399854 -0.5246903 -0.96626145 1.4877636 0.652868 0.03203945 -1.0115749 -0.3623261 -0.58196396 -0.759041 1.2258939 0.11036679 -0.11758747 0.26623446 -0.24816433 0.25276217 0.32571995 -1.4953712 -0.2954401 1.0733452 0.4688736 -0.4685976 0.4898063 -0.31697512 0.18566859 -1.0255601 -0.3938045 1.0568405 0.7020153 0.00011515473 0.44382846 1.5864099 -0.89007163 0.5363441 -0.3486976 -0.6465366 0.4015725 -1.4414383 0.39398128 0.9348772 0.32003742 -0.14290859 0.9742454 0.1599133 -1.2935675 0.02819267 -0.41644365 -1.5020145 -0.043446407 -0.6574769 -0.8004264 -0.6710523 -0.4200749 0.2839033 -0.3085061 -0.24451897 1.2308751 -0.26361796 0.42959744 0.1326506 -0.07202171 -0.2588113 -0.6614639 -0.21343724 1.202279 0.17604785 -0.17346075 0.48520684 -0.08679893 1.1764063 -0.48691848 0.08557282 -0.50094515 -1.2195745 -1.0416303 0.9373911 0.60521257 -0.62706566 0.26093826 -0.33966044 -1.2015358 0.94495225 -1.0463281 -0.43173963 -0.58393204 1.1817828 -0.41869593 0.5201829 1.4544343 -1.1154172 0.3794266 -1.377867 -0.34223253 -1.2584853 -0.47623974 -0.44088504 -0.9318387 -0.74568784 0.4003264 -1.0567683 -0.57499605 -0.2961562 0.14221714 0.17117691 -0.26714134 0.4858274 0.8267488 0.7581974 -1.4231544 -0.49507156 -0.0146441385 0.07798946 0.9430883 -0.9207907 0.19107935 -0.6307274 0.22905469 0.39030433 -1.210781 -1.2043668 0.787445 -0.31552556 0.63640493 -0.51616186 0.24165612 -1.5001016 0.8116131 0.02033393 -0.031958867 0.26546687 0.35006452 -1.226984 0.16731648 -0.54877263 -0.41824478 0.23224169 -0.29674825 -0.026502414 -0.26748347 -0.32842883 0.8565995 -0.74270797 -1.4107769 -0.17371385 0.61642736 -0.34208772 0.4182954 0.6555525 0.09465871 0.6303674 -0.48513076 -0.4471126 -0.1204674 0.32257378 -0.38625577
str -0.56994456 -0.97771215 0.7370769 0.5164465 1.164717 0.08335868 0.26885042 -0.9152527 0.25694585 0.4531083 -0.6415722 -1.2850597 0.12722997 0.49697974 0.6597222 0.3704997 -0.12850507 -0.5283979 0.42734253 -0.1738287 0.15403351 0.104687385 -1.0747801 0.6685151 0.095145345 0.22240806 1.0135846 0.3403649 0.34279892 -1.1262269 0.6049344 1.2912419 0.041983053 0.42068675 0.25928944 0.0903325 1.2855415 0.23134926 -0.2987089 1.0234755 -0.006231111 0.09295691 -0.17348997 -0.07173916 -0.302269 0.41972396 -0.33794993 0.2554801 1.0781162 -0.30558 0.16572264 -0.21815847 -0.01859455 -0.22589788 0.131077 -0.8263138 0.38691187 -0.16853724 1.303576 0.123782635 0.78390455 0.2933455 -0.09984181 0.21768723 0.11878673 -0.39543703 -0.34292987 -0.23384811 0.26830617 -0.2933431 0.2821704 -0.30655614 0.38085923 -0.9003616 1.0025033 2.0899756 0.21646242 -0.49134845 0.13617863 -0.5186845 -0.5157492 -0.38835317 -0.80497295 -0.4590307 0.22795628 0.13926497 0.98679274 -0.16192834 0.6111137 -0.46705884 0.41243824 -0.23372021 0.3281775 -0.4181534 0.3459418 -0.2982011 -0.28062573 -0.2062506 0.17306343 0.36503333 -0.052531827 0.8471288 0.6889062 0.07199693 -0.17345713 -0.23339835 -0.63728523 -0.8695984 -0.11852615 -0.54032105 -0.4845183 -0.124932975 -0.023643903 0.58899564 -0.057870742 -0.21183507 -0.47444817 0.09204586 0.20942761 0.10053326 -0.32549316 -0.24144769 0.8197168 0.39949188 -0.28402114 0.25826564 -0.94769776 -0.66021174 -0.21935105 0.5670457 0.6634289 -0.038522005 -0.37851676 -1.1257502 -0.8747963 0.49409872 0.12414303 -0.07014764 -0.87774855 -0.5283475 -0.08755176 -0.12430837 0.579888 0.47518393 0.1526471 -1.1196046 0.33497512 -0.96334106 1.040595 0.40782425 0.24214572 0.43907687 -0.2551006 -1.332665 -0.4259968 0.06317862 -0.80949885 0.08684758 -0.08951442 -0.74806374 1.3488177 0.97925436 -0.16564114 -0.38203916 1.1737975 0.3644138 0.19033916 -0.37688452 -0.9099586 -0.020657944 -1.8244344 0.61987644 -0.6961327 -0.9221019 0.87072176 0.76035523 -0.06345253 0.7936383 0.9097809 0.45055655 -0.41803893 -0.4856766 -0.39019057 0.4710867 -1.3268528 -0.25407523 0.18190351 0.37705088 -0.06933825 -0.7420096 -0.26644874 0.7566264 -0.58963764 -0.16555816 -0.2948443 -0.5863981 -0.16845644 0.76710224 -0.5768928 -0.6053215 0.41923028 -0.17906804 -0.92810756 -1.3175173 -0.16381542 -0.29012102 -0.62133396 0.37128165 0.40171182 -0.35409912 -0.44473478 1.2163273 -0.09031088 0.7432952 -0.7577082 -0.16189186 -0.32755977 -0.57481676 0.4748863 -0.48650542 -0.051242225 -1.1151433 0.94277585 0.17004241 -0.26802856 -0.58465683 0.24644314 0.15308182 0.3199759 1.0954026 -0.6111212 -0.21825576 0.050050452 -0.30174854 0.06915039 -0.22241706 -0.65884674 -0.13709609 -0.32017338 0.8244636 0.16893002 -0.6368086 0.441118 1.0915036 0.31033027 0.20947121 0.13332519 -0.20813364 0.3310897 -0.08994195 -0.618192 -0.29155526 0.48990774 -0.003979506 0.8256106 -0.40263706 0.39422348 0.7294161 -0.35513747 0.07477654 -0.033953644 -1.2092581 -0.4283514 0.18182157 -0.61886716 0.0650247 0.60198843 0.6158918 -0.2605409 0.07346373 -0.76184905 -0.8586593 0.43355364 1.0786498 -0.06699471 0.109401986 0.21660681 0.20660691 0.014345739 0.55112195 -0.13034034 0.3529687 0.9074184 0.11670746 -0.115348764 -0.066445224 0.24069087 0.65382105 0.46490514 0.0196805 0.13157552 -0.34328315 0.2870541 0.38755614 0.13630536 0.5830122 0.38824618 -0.7414036 0.21303284 0.55023724
esi 1.0077327 -0.08736349 -0.509093 -0.22639002 -0.8925724 0.6554099 0.47710752 0.70692533 0.08316111 -0.66349083 0.35336083 0.3806267 -0.54275244 -0.56941676 -0.6676003 -0.4451301 0.76600385 0.8255749 -0.5231186 -0.43222675 0.34708527 -0.017119419 0.0055093556 0.38384286 0.59867126 0.16969705 -0.44974542 -0.60333574 0.15791717 -0.105264015 -0.682665 0.3084532 0.06742779 -0.6883784 0.05808141 0.69249827 -0.45405498 -0.44872797 0.3024021 -0.47865906 -0.20977509 -0.14487904 0.48361355 -0.5529244 0.34377772 -0.17251846 -0.066690095 0.2944263 -0.3062168 0.30824953 -0.46761036 -0.28420183 -0.6475939 -0.024070682 -0.11462417 0.08972396 -0.04278603 0.4588886 -0.3280923 -0.20363718 -0.5007945 0.3929834 -0.24706589 0.90044445 -0.13102089 1.3747776 -0.017738167 0.40135792 -0.28454894 0.16503944 -0.19005741 0.80838007 0.060451787 0.50188386 0.47242272 -0.059525363 0.5020482 -0.033270195 0.33633497 0.08706474 -0.043109797 -0.34236327 -0.26541927 1.2394699 -0.23723736 -0.19994032 0.4421656 -0.027236149 -0.22878486 0.4157628 0.15017803 -0.3911855 0.33507982 0.8030282 0.25753197 1.3836302 0.088330135 -0.345365 -0.3291832 0.4641413 0.21518406 0.33171242 0.3707911 0.6547499 0.06588436 -0.4076493 0.6896496 -0.06005361 -1.1630994 -0.752121 -0.25245377 -0.6670166 -0.17117015 -0.24712089 0.4312307 0.47425258 0.30899128 0.49583343 -0.54311335 -0.561896 0.26056093 0.5813048 0.16080911 -0.31107554 -0.49760324 0.34033543 -0.5771164 0.04384543 0.269166 0.33237398 -0.35851878 0.41055277 -0.10885745 -0.31931028 -0.42722228 -0.17915367 -0.018775444 -0.57716554 -0.18025994 -0.13967903 0.9156561 -0.16008031 -0.066598505 0.4505938 -0.23051037 0.31681365 -0.18937834 -0.69557697 0.40612713 -0.32652792 0.24824919 -0.8216556 0.03326456 -0.49481925 -0.41964135 0.2578183 0.48874483 -0.35504487 0.15797904 0.10016678 -0.13311042 -0.33001405 -0.5305371 0.12092578 0.7052839 0.37969553 -0.5035032 0.63543814 -0.6200634 0.23267888 -0.9567239 -1.1251115 0.22080404 0.8579225 -0.029432224 0.35241333 1.0345169 -0.6735301 0.0056369016 -0.30637938 -1.0642787 0.3102715 0.0773721 0.10357653 0.8411545 -0.5679269 0.35594565 1.1708317 0.10219659 -0.41109923 0.35371664 0.2323231 -0.7506272 0.44243655 0.06865853 -0.291482 -0.33092833 -0.09215634 0.41028637 -0.05174106 -0.41441476 0.5734756 0.1593329 1.013799 0.4361887 -0.078925006 0.13489082 -0.3688768 -0.15628207 0.7029132 -0.023871312 -0.37626556 -0.2545618 -0.10847821 0.47511196 -0.062841974 -0.17618741 -0.19018142 -0.9012601 -0.17546551 0.64047396 0.8097248 -0.46516222 -0.15197758 0.38520408 0.03991194 0.4263454 -0.7209404 -0.5911047 -0.42407468 0.9993955 -0.16432598 -0.30721173 0.43145 -0.49488205 -0.033306904 0.23789309 0.09945838 0.18795751 -0.9687748 0.09126378 -0.06781972 -0.46651226 -0.42402428 -0.22262697 -0.2538074 -0.08842069 0.08176083 0.27271456 0.4066985 0.34574583 0.31221968 0.23869407 -1.158506 -0.3819442 0.6196158 0.25835013 0.41220304 0.09088688 -0.58167773 -0.41562513 0.4214119 0.05521537 -1.0722386 -0.93907315 0.29902753 -0.09784801 0.5057457 -0.19648676 0.55863374 -0.9850259 0.10018685 -0.276929 0.16278583 -0.17662439 0.7630031 -0.18669987 0.5877563 -0.45260093 -0.39822286 0.3262347 -0.31959665 0.05973594 -0.07289521 -0.97583145 -0.12161366 -0.40961412 -1.0259079 -0.40697953 0.4918574 -0.092346646 0.8269645 0.45329916 -0.08143187 0.9308569 0.35939512 -0.2645198 0.5238249 0.09486906 0.46494395
xor 0.03709983 0.5671338 0.21032327 -0.112814456 -0.50644606 -0.14483759 0.5053404 0.5296714 0.47046667 0.19484714 0.7983496 0.64757526 0.04135901 -0.0918622 -0.05167882 0.11563366 -0.05817195 0.3171196 0.17565745 -0.018523421 0.22619006 -0.026160328 0.35847288 -0.010451772 -0.52235425 0.40188056 -0.48913184 0.28805107 0.26150498 0.13704513 -0.46489397 -0.7197233 0.23466256 -0.049270745 0.22859292 0.21384679 0.30430385 -0.45759556 0.20037952 -0.07908319 -0.45515466 -0.24529961 0.4350018 -0.74863887 0.34198847 -0.16896293 -0.07617698 0.33208296 -0.36490798 -0.17771786 -0.2781533 -0.24635644 -0.40443593 -0.03409364 0.07219067 0.7016742 0.44318917 0.7911174 -0.43588227 0.029233024 -0.033247 -0.10858451 -0.22914502 0.8122379 0.21482527 0.5187593 0.044605218 1.0963212 -0.31080985 0.37781766 -0.43092683 -0.16817722 0.16432789 0.3830903 0.023752205 -0.63588136 -0.6998951 0.6520433 -0.05509106 -0.5453636 -0.4766973 -0.2622763 -0.80817497 1.5095232 0.1320857 -0.03909927 0.50954664 0.13685638 -0.012337326 0.11183126 0.11637965 0.10458607 0.22506945 -0.41621146 0.7059003 0.69132864 -0.18885233 -0.5371292 -0.3313023 -0.465932 0.23766471 -0.50474435 -0.4409618 0.3534549 -0.44298455 -1.3553654 0.29436406 -0.7468531 -0.32768896 0.00901181 -0.61622655 -0.8700829 -0.061090607 -0.19857083 -0.27975023 0.6973845 -0.93190247 0.14373945 0.5462741 -1.0166957 0.9062694 0.9720601 0.8007051 0.08393105 0.5056398 -0.23909053 -0.41421083 0.2392834 -0.58503264 0.016836433 0.3182 0.3667697 0.81481034 -0.45065397 -0.6062612 0.225571 -0.29039758 -1.3221424 -0.402922 -0.26957718 0.31165457 -0.69752955 -0.70711005 0.7412623 0.8925745 0.2833851 -1.0847182 -0.6742407 1.1473962 -0.5146932 0.6682099 -0.14842084 1.0208087 -1.0105782 -0.85072106 -0.3739627 -0.52985865 -0.8440437 -0.8392927 0.16116631 0.1140009 0.2554897 0.66355574 0.25953007 0.20256864 0.04276337 -0.24076533 0.21207839 -0.43550518 1.2287126 -0.26031786 0.098988645 -0.50985366 0.736514 -0.33068734 0.48946577 -0.38492352 -0.95890635 0.5245914 -0.070922114 -0.48564205 -0.11880093 -0.024625573 -0.16254933 -0.17940848 -0.27703008 0.66011685 0.28575596 -0.24763283 0.6659996 0.18675558 0.46279716 -0.09451436 -0.70650744 0.29846993 0.22630082 0.331718 -0.19641829 -0.12422872 0.06644701 -0.13267751 -0.65867877 -0.14092968 -0.28002843 0.93081456 -0.34711662 -0.1626082 0.15517338 -0.14130336 -0.45349088 0.23544776 -0.32599968 -0.8679707 -0.6400958 0.79735154 -0.17088327 -0.34985593 -0.35521713 -0.3921953 -0.63090456 0.020633193 0.4551257 0.2434423 -0.547517 0.63491124 0.27092022 -0.23605813 0.09653915 0.2059698 0.1973046 0.26578805 0.31363162 0.13197428 0.24903768 -0.4704648 0.058831472 -0.06074035 0.1325415 0.40782517 -0.503067 0.35943693 0.45936558 -0.15886886 -0.2207042 0.9056861 -1.2009951 -0.055833213 -0.23625891 0.057469275 0.7495376 0.5539153 0.17844442 0.735016 0.47053564 -0.04985253 0.47570792 0.81662035 0.28293532 0.40175742 -1.1504914 0.05388172 0.10950635 -0.3356306 -0.8916692 -0.5477298 -0.0012759783 0.35045597 0.33552516 -0.5721972 0.28904796 -0.9343489 -1.0332355 -0.51698303 0.6443232 -1.0175761 0.12193788 1.5004685 0.31946164 -1.055233 0.034988046 0.92962456 -0.12440346 -0.7651513 0.5701559 -0.7789163 -0.7865597 -0.5822097 -0.59484893 -0.086866856 0.51203984 0.27579203 1.4298499 0.46762678 0.16326328 1.2470945 0.9003219 0.879213 -0.08963517 1.9470677 -0.20939404
#0 -1.2601186 -0.06427535 0.3911256 -1.3688608 1.5932618 -0.069340214 0.7773554 -0.95292026 1.0046073 0.5219381 -0.4035755 -0.74859816 -1.326568 -0.43747523 0.2847616 0.28034553 -0.86388963 -1.1148742 -0.41691574 0.2422638 -0.032525126 0.43080086 -0.3408596 -0.24510098 0.77478635 1.3203588 0.6278392 0.074919306 0.4247712 -0.3424672 0.41674376 0.6433832 -0.13664842 1.0267836 0.868768 0.14962074 0.7469237 0.07390605 -0.06788754 0.54836494 -0.24372101 0.45491943 -0.27751216 0.42006066 -0.6313984 0.4522835 0.926637 0.49873096 0.96269447 0.27770713 0.7736541 -0.10257697 0.5718596 1.3676804 -0.37534678 0.48369297 1.0892713 0.6258633 1.0366353 0.2337469 1.1271359 -0.05523043 0.28888047 -0.52763575 -0.43994018 -1.0361112 -0.03827178 0.9352831 0.6392485 0.40514153 0.26311135 -0.65130675 0.6212687 -0.95542514 -1.0906267 0.11320904 -1.1662751 0.05545233 -0.3926185 -0.3749911 -0.42172605 1.3806038 0.18875588 -0.25390995 0.76996845 1.0512419 1.0577836 1.2123914 0.6520251 -0.055040225 0.29898095 0.501417 -0.10589551 -1.5746179 0.40324327 -0.74872476 -0.5074377 -0.2133601 0.0011310701 0.22940837 -0.42098707 1.3384107 -0.39465734 0.33778626 0.25710645 -0.02304609 -0.9033464 -1.7802469 -0.5562483 -0.4222427 -0.51666874 0.065027885 -0.04396621 0.91981554 -0.3586408 -0.124331646 -0.76675373 -0.4278373 0.9279583 -0.5649782 0.14538479 -0.34451282 0.17388792 0.53794134 -0.021879459 -0.5530882 0.12914352 -0.38713297 0.24809049 -0.054749236 0.6123431 -0.68599373 0.48563612 -0.5255446 -0.07506992 -0.48749897 0.76752883 0.39953345 -0.68714154 -0.11712976 -0.54720306 -0.43828312 0.16089094 -0.01265257 0.01700027 -0.63266724 0.05914885 0.086430654 -1.0105689 0.21726844 1.0323207 0.6594397 -0.735247 -0.73092 0.42737952 0.026918935 -0.5143706 -0.038926415 -1.0908368 -0.31977037 0.6595039 0.7153841 0.3022416 -0.4877375 0.55747515 -0.5246534 0.56575507 -0.664064 -0.55729395 -0.38482907 -0.8380365 0.24837537 -1.186837 -1.0047977 1.2282238 0.23395503 -0.36390617 0.7463618 0.8007998 0.22179098 -0.56053346 -0.20369568 0.47586322 0.1154586 -0.76537544 -0.16076188 0.51413363 0.07779138 0.32093135 -0.88379526 -0.22894791 0.28852168 -0.25088826 0.108442225 -0.30949607 0.33852932 0.29647475 0.07099305 0.20666938 -0.4455848 -0.18671733 -0.033827364 -0.8097344 -1.6280079 -0.23760574 -1.3668617 -0.058491234 0.7660974 0.72681826 -0.9865437 -0.8608594 0.46552396 -0.26973197 0.92215943 -0.44970647 0.39145383 -0.37405756 -0.07153953 -0.025566591 -0.14979509 -0.51752454 -1.0713617 1.1769325 -0.034663208 -0.6083227 0.38698915 0.2292908 0.81328046 -0.5541083 0.79810876 -0.794157 0.4870993 -0.065723054 0.12430842 -0.41036054 -0.6394217 0.30888823 -0.6301254 0.8248763 0.3981148 -0.18438432 0.10983378 -0.46207774 -0.10314024 0.46704587 0.3101724 0.8114339 0.6552646 -0.09470403 0.14653113 -0.05218684 -0.37214696 0.22232676 0.77568567 0.29125786 -0.42135823 1.1231134 0.025957447 0.40595916 -0.6804487 0.64894825 -1.3929415 -0.8100936 0.36855713 -0.8985315 1.0666844 0.521764 0.8298138 -0.11978927 0.57149774 -0.8328926 -1.8106282 -0.75382274 0.904201 -1.2568157 1.1703023 0.89971703 0.9944428 -1.2270705 -0.40748304 1.0511687 0.6967691 0.45191488 0.68656015 -0.80139565 -0.8012902 -0.46217307 0.027619738 0.31667575 -0.5233871 0.56053895 0.8550405 0.6416222 0.7744837 1.105532 0.66476667 0.57429737 0.19242305 1.0646311 0.6258835
esp 2.0756314 0.9490217 -0.5800465 -1.0207607 -0.48892054 -0.7377795 -0.02053912 0.3646438 -1.1162978 -1.2056261 0.16809808 -0.45233282 0.6672287 0.24185273 -0.1934665 -0.18174256 1.1098576 0.43927112 -0.97695464 -0.58352333 0.12778783 -0.43594897 -0.23158401 0.021237878 0.35695234 -1.094666 0.24834949 -0.524274 -1.2646356 -0.12295954 -0.17566346 1.3030136 -0.791516 -1.9765593 -0.1101331 1.2733583 -0.31217206 -0.5287396 0.02493616 -1.052193 0.22294754 -0.30015782 1.2742089 -0.62492186 0.27611175 0.29081988 -0.16693881 1.6551312 -0.43176687 -0.2501601 -0.64430386 0.55363554 -1.0741081 -0.43318683 -0.4796863 -0.91249955 0.043385148 -0.056761857 0.3503297 -0.34335873 -1.0817157 1.4533575 -0.075365566 0.7372798 -0.51755553 1.484822 -0.39827865 -0.5666856 -0.20344484 -0.64678794 -0.10006822 0.8930662 -0.20842506 -0.20424475 1.7499102 1.5377753 1.2658886 -0.47227108 1.1695037 0.51382524 -0.5816587 -0.5635201 0.047500227 1.5488126 0.22890972 1.0477293 0.9529434 0.5786321 1.5878774 1.5824637 -0.0066947015 0.12140186 1.2159458 0.99294126 -0.65701956 1.181339 0.877572 -0.51260513 -0.87720037 1.2992141 0.28726462 1.838625 0.21560241 0.91075295 -0.23597176 0.912448 1.7041135 -0.3002297 -2.3587108 -1.0816164 0.38529956 -0.64662725 0.13773596 -0.9065695 1.3016449 -0.8234076 0.4654517 1.238438 -0.9839972 -0.91697156 -0.30205682 0.5078394 0.51490325 0.79982793 -0.70416754 0.403181 -0.8881001 -0.43309548 0.6638101 1.0847998 -0.47618476 0.94008696 0.021633087 0.17483173 -0.3266616 0.276575 0.4766894 -0.70674926 0.28537518 -0.041242976 1.4314939 0.57067245 0.63303196 0.24562922 0.26988307 0.1469538 0.0010720198 -1.048417 0.97714853 -0.09880533 -0.81600493 -1.4613328 -1.2506398 0.68364364 0.4677324 1.0201707 0.44435364 0.31789023 1.0475368 0.3032951 0.55287284 0.114824966 -0.123486325 -0.4335019 0.32870883 0.22610065 -0.42665717 0.2927946 -0.67347145 -0.58921164 -1.4280655 -0.9326662 1.0875264 0.89388454 -0.8746004 0.91782737 1.750151 0.29118374 -0.77799153 -0.29911909 0.512422 0.29571033 0.21421623 0.4286952 -0.2951877 0.61972135 0.9666906 1.0852346 -0.021361744 -1.3743199 1.5821176 -0.3387135 -1.6605457 0.18846509 0.6762148 -0.734946 -0.4622585 -0.7826179 0.4758484 -0.9134363 0.0523575 0.9389829 0.2086542 0.84139985 0.36535212 1.4912513 -0.7483823 -0.8006486 0.46006945 2.3401332 -0.6302225 0.050305728 -0.45192307 -0.70291287 -0.23178457 0.16630356 -1.0446707 -0.77662456 -0.9434676 0.035639543 0.9624414 1.5596129 0.56404585 0.7779646 -0.030364923 0.24995266 0.58482736 -1.2110821 0.17460786 -0.11740906 0.5401102 0.15203977 0.4262224 0.08439441 -0.55910414 -0.66182107 0.25598997 -0.3522381 -1.269349 -0.36585268 -0.5673231 -0.26119146 -0.61343944 -0.81846404 -1.1157005 -0.50598127 0.63902104 -0.4113493 1.9033436 -0.71192455 -0.0424118 0.38091293 -0.15956084 -1.7007728 0.9030671 -0.34046394 0.44289583 0.41436216 0.2700274 -0.4625005 -0.8210703 -0.27499968 -0.7904229 -1.784608 -0.9340761 0.60900474 -0.96657735 0.026200999 -1.1880827 0.367248 -2.2836704 -0.2553367 -1.4887254 0.90829456 -0.3704573 0.6206887 -0.81911075 0.73295206 -0.533393 -0.047198307 -0.92283195 -0.44071278 0.87561065 0.24797118 -0.58372444 0.22625265 -0.18467343 -0.1880129 -0.07027046 0.5611322 -0.3298277 0.04670301 0.27969402 -0.62634546 0.32865256 -0.4065239 -0.44525212 -0.17058593 -0.4368214 -0.18438758
edi 0.970085 -0.758739 0.0118236225 0.12654535 -0.5306981 0.94157994 0.6704195 0.21439026 -0.052314043 -0.5340454 0.68775487 0.49951446 -0.27899027 -0.01779395 0.029113516 -0.21795894 0.83741003 1.0145084 -0.21632893 -0.60442597 0.86558026 0.08758157 -0.45453784 0.43543974 0.5285399 0.1660398 -0.42945516 -0.4462696 0.7267998 -0.63231367 -0.80230194 0.76020247 -0.032522343 -0.6639261 0.18585403 0.7768728 -0.7566974 -0.41480967 0.36347932 -0.1426136 -0.39645818 -0.0491936 0.5254804 -0.7818192 0.1387771 -0.24249806 -0.74233377 0.04181775 -0.23842525 0.5488312 -0.87140846 -0.903945 -1.3539392 -0.16512711 0.057485845 -0.49309167 -0.049484458 0.73880357 0.035895374 -0.044836923 -0.10740812 0.68243366 -0.37233526 1.654063 -0.0055623334 1.7439783 -0.2716712 0.7081162 -0.29721266 0.49957654 -0.25597137 0.7506945 0.29073226 0.393127 1.0060656 0.26581702 0.5838573 -0.19411227 0.6377021 -0.37479395 -0.37290075 -0.90784585 -1.2461674 1.4536407 -0.47624296 -0.5052908 1.6071271 -0.5061984 -0.26436666 -0.10277739 0.075179935 -0.85847104 0.6926893 1.0604736 0.7093918 1.4123363 -0.097671315 -0.48136675 -0.39525726 0.71376956 0.3494326 0.42152196 0.66748637 0.75310016 -0.2500751 -0.5988087 0.6408713 -0.43301755 -1.3044475 -1.2075663 -0.85947174 -1.1851716 -0.12797233 0.36632282 0.47909176 0.859658 -0.15251979 0.9452709 -0.6106392 -0.3575054 0.41413382 0.41082278 0.8560726 -0.34968534 -1.0378591 0.6039857 -1.5531838 -0.30441624 0.11576412 0.7759027 -0.06999191 0.2567368 -0.68423015 -1.3572385 -0.81365097 0.03655898 -0.08022574 -0.93982196 -0.64690775 -0.4037704 1.2174559 -0.35670972 0.029597735 1.0123303 -0.34697467 0.5709838 -0.2970054 -1.1917194 1.3200792 -0.0837179 0.7156743 -0.715906 -0.2916946 -1.4012771 -0.68882376 0.49384713 0.8298832 -0.30466127 0.23085882 -0.49392083 0.2378744 -0.16029082 -0.4937415 0.18238057 1.8719972 0.75590533 -0.06453325 0.70275587 -1.0214418 0.31690544 -1.7666948 -1.7177142 -0.40858465 0.48729923 0.010371998 0.4878268 1.262634 -0.47040576 0.49360043 -0.1267647 -2.4676893 -0.0025985192 0.58873403 -0.08268018 0.4076084 -1.5102857 0.16626048 1.6053545 0.4452598 -0.81575346 0.5067417 1.0129446 -1.1470708 0.5082936 -0.08661197 -0.56012195 -0.8253633 0.340122 0.32129332 -0.267769 -0.28918222 0.70727247 -0.06836061 1.0507277 0.83748084 -0.29534483 0.37432733 -0.1401866 -0.4343892 0.5889868 -0.05901655 -0.014999322 -0.4033007 0.30939314 0.45234212 -0.3437838 0.1269105 -0.15111892 -0.8710542 -0.782779 0.74026734 0.58154505 -0.52335423 -0.59469366 0.323313 -0.4706813 0.66952604 -0.85349697 -0.69814 0.30036515 1.0363215 -0.65699136 -0.8159597 -0.51561314 -0.155126 0.12346248 0.7011424 1.0661434 0.6921509 -1.3325908 0.85105324 -0.25011772 0.016877815 0.2600569 -0.14556278 0.40836743 -0.23104066 0.0044844104 0.3627134 0.676921 -0.25126982 -0.33206382 0.21563569 -1.7490623 -0.3250066 1.0179205 0.35293528 0.73865914 0.10399146 -0.76465374 -0.1828241 0.102164485 0.026262222 -0.9393262 -1.3995051 0.18302904 0.08935316 0.8689923 -0.2965197 0.56734085 -1.1410679 0.0625523 0.3704047 0.3624522 0.33478585 0.7824964 -0.4617748 0.6407462 -0.12397012 0.08637231 0.32827368 -0.40312842 0.21046044 -0.033446632 -0.7915562 -0.12496176 -0.44686833 -0.88055825 -0.2445693 0.96716774 0.04546081 0.90875024 0.66238016 0.22706735 1.0365591 0.44125444 -0.49016532 0.7489485 -0.26710156 1.0297338
bl 0.10512817 0.56033 -0.14234719 -1.5972842 1.0255327 -0.2609474 0.89026046 -0.78515166 1.3609557 0.4802028 -0.1404254 0.10064307 -0.7962605 -0.58001703 0.24151097 -0.11353046 -0.14140256 0.15427083 -0.43028712 0.07182854 0.6323086 0.40327868 -0.7491425 0.3919233 0.24088156 0.8059412 1.0452144 0.0010644895 0.3716244 -0.19553834 -0.5039941 0.2954447 -0.11082229 -0.68684167 0.90600777 0.3627515 0.4507007 -0.09086059 0.5919555 -0.20893453 -0.5974748 0.065801986 0.20457439 -0.8277562 -0.005691591 -0.26935732 0.33004963 0.5452849 0.44881302 -0.296021 -0.20175652 -0.5089263 -0.956503 0.44691488 -0.2880333 0.1604987 1.0482608 0.745708 1.2049357 0.39136165 0.8209563 0.30385724 -0.43956614 1.0054961 -0.05183637 -0.032510176 0.031848907 1.3445568 -0.09962674 0.8281663 -0.13286307 -0.5653607 -0.13868421 -0.45812908 -0.37539196 -1.3669782 -0.89391136 0.86904037 -0.049773213 -1.2797256 -0.773246 0.43853435 -0.22382408 1.2257692 -0.2965204 0.5793773 1.5946975 0.72884816 0.48225188 -0.2116516 -0.24300498 0.30706066 0.0215823 -0.5852741 0.40094203 0.02550088 -0.1794042 -0.009112316 -0.36606398 0.46447787 -0.07387381 0.6679158 -0.7033975 0.26853567 -0.27138084 0.76205415 0.28104323 -0.9487664 -0.6066984 -0.37744102 -0.9989355 -0.504871 0.44613707 0.42804953 0.10324833 -0.17109796 -0.83759737 0.6246903 0.31750116 0.1511923 0.4202233 -0.2823239 0.781215 1.0373759 0.29411176 -0.5094615 -0.8541309 -0.4454265 0.37218732 0.45864645 -0.24319415 -0.17583816 0.37211832 -1.0904641 -0.61725 0.07291256 0.35740274 -1.3470165 -0.09912745 -0.054183133 0.49565244 -0.44197884 -0.6731766 0.5461258 0.39575776 0.86887765 -0.14993718 -0.49424097 0.45328677 -0.8314545 0.72553986 0.5028107 -0.12300823 -0.59157807 0.33527467 -0.334488 0.35362798 1.5506477e-05 -0.40439346 -0.27072835 0.37612435 -0.11644017 0.9069498 0.44169015 1.5934811 0.5619003 0.51531935 0.28810486 -0.6698377 -0.892936 -1.1040637 -2.1972835 -0.948097 -0.3664534 0.3671383 0.44853416 -0.37699172 0.22877991 0.4845728 -0.25709248 -1.9035282 -0.88321245 1.8779746 -0.1910301 -0.58229166 -1.1864794 0.5865775 0.5504663 0.26853952 -0.18607898 0.9928802 0.7870623 -0.40298042 -0.398485 0.10154803 -0.16016932 -0.45699564 0.013587939 -0.0028619468 -0.4576836 0.71741086 -0.32127166 -0.72343785 -0.3932395 0.9106049 -0.3558741 -0.7726466 0.3424238 0.4759315 -0.09802546 -0.9382801 0.2913668 -1.0194165 -0.22675544 -0.431295 -0.048926745 -0.5507992 -0.44680354 0.12652479 -0.26586697 -0.03785091 -0.2261742 1.2038013 -0.5971738 0.41726032 0.7180147 0.31508595 0.02605848 0.30802906 0.5196543 -0.2414146 0.32068175 -0.4706747 -1.047951 -0.0113613475 -0.71639633 1.5086215 0.24784082 1.0398695 0.042163625 0.30933118 0.32179308 -0.07165483 -0.19620933 0.36966836 0.12748484 0.73818046 -0.16849914 0.8649621 0.056103826 -0.22539406 -1.0736886 -0.12923454 -0.062383696 0.9916567 0.31083858 0.69342107 0.033215 1.5414691 -1.4226875 0.19435845 -0.39819533 -0.74362755 -0.53864455 -0.63337517 0.31433216 -0.11343213 0.3111707 -0.9789215 0.5053767 -1.7652543 -1.451258 -0.6306509 1.3350503 -0.8758733 0.057010535 1.0221881 0.7296408 -0.42498317 0.2652825 0.20266427 0.25780553 -0.22814931 0.63830435 -0.65945107 -1.210311 -0.16526912 -0.12415245 -0.14452755 0.047928583 0.09884137 1.3399544 0.5437307 0.47671238 1.4987075 0.69549626 0.6044019 0.2614351 0.3763642 0.76125294
rdi 0.60396403 1.2944859 -0.8371762 -0.4514424 -1.2788707 0.13470644 0.19601807 1.2605339 1.1458937 -0.088944755 0.45545295 1.1482657 -0.8342639 -1.405918 -1.2324339 -0.7368381 0.42017853 0.9544167 -0.039924517 -0.7210089 0.7290366 -0.28584376 0.292265 0.6345175 -0.17567648 0.7214539 0.14520173 -0.2639836 0.57156086 -0.10504945 -0.8860198 -0.9124209 0.012087926 -0.70324177 0.563713 0.30121714 1.0167134 -0.6496671 0.5590999 -0.15707155 -0.36610922 -0.83152896 1.384689 -0.97230667 0.89452463 -0.36784816 0.49368522 1.3672075 -0.39232224 -0.598109 -0.5123293 0.7187881 0.16861358 0.39927045 -0.1883486 0.9373568 0.62231964 1.2096065 -0.6968193 -0.6805347 -0.5207275 -0.17138833 -0.17900865 0.2859422 -0.22982976 0.77254283 -0.29403886 1.9648141 0.013732757 1.2003409 -1.0838959 -0.68327266 -0.058808457 0.7834485 -0.6797062 -1.5137565 -0.7864146 0.991285 -0.24450848 0.124348946 -0.27721092 0.26698378 -0.6982149 1.601154 0.9489513 0.16549511 -1.1876261 0.3507435 0.45048296 0.86333406 -0.08541345 0.20396766 -0.028004544 -0.53425825 0.57456475 1.6500422 0.055920657 -0.9024478 -0.46354756 -1.3713506 0.64729357 -0.6643699 -1.0057207 0.6883497 -0.13401611 -1.5409284 0.057815544 -0.678911 -0.66826355 0.009794319 0.063858 -0.8429929 0.52480096 -1.3105215 -0.32982972 0.2977304 -0.39092898 0.19486511 0.54645675 -1.7946365 1.4199176 1.8108296 0.31128183 0.27392858 0.7952663 -0.6879072 0.4429099 0.705882 -0.33601975 -0.9166521 -0.3312486 0.6517712 1.5232686 0.33190405 -0.5687673 -0.3056174 -0.38164854 -1.117254 -0.2939189 -0.3532778 0.05822137 0.20820454 -0.65384156 0.74912214 0.5643178 -0.3536179 -1.2770419 -0.62793356 0.09995541 -0.6665687 0.31919035 -0.93194777 1.4477655 -1.0274668 -1.1637473 -0.8932338 -1.04191 -1.6846756 -1.0163263 1.1620998 -0.27449766 0.018902434 -0.13942948 0.44203898 -0.7496601 0.27241352 -0.9824697 0.57085174 -1.0313548 0.7852643 -0.59174806 0.076911345 0.5111473 1.7911434 -0.8078263 0.6085539 0.35818335 -1.1427003 0.2372267 0.17850937 0.83032954 0.51345396 -0.8089889 0.5007515 0.17323677 0.5854564 1.0809855 0.61356 -0.5541578 1.2201457 0.21097237 -0.074520126 -0.46416378 -0.24948868 0.84178877 1.0049222 0.94080687 -0.40035096 0.055764712 0.27954724 -1.2111527 -0.7080538 0.9350332 0.27538222 0.96149397 -0.48093486 0.27045587 -0.11915528 0.23361036 -0.2999483 0.8511513 -0.5870273 -0.84728813 -1.229435 1.6394573 0.59485734 -1.0318453 -0.33509105 -0.38759327 0.2684646 0.2304602 1.4473236 -0.01583378 -0.5436329 0.859067 1.0212413 -0.7012064 -0.1506784 -0.018070256 -1.0754539 0.2082923 0.917999 0.5168695 1.3546383 -0.7421196 0.20947172 -0.8653548 -0.6469669 -0.10091302 -0.46578276 -0.41960487 0.44059268 -0.7643801 -1.1113299 1.1739933 -2.2429616 -0.83699363 -0.19399601 0.28143075 0.7566752 1.1998814 1.3098114 0.8714406 1.0181698 0.22281681 -0.043644544 1.1339172 0.1879734 0.27122203 -1.2153614 -0.6831826 0.008897738 -0.5824821 -1.4219433 -0.45998877 0.00804858 0.24738003 0.0685365 -0.21328253 0.59927523 -1.163899 -1.2109535 -1.7681289 0.25165823 -1.6425922 0.48965487 1.8363366 0.5803034 -1.9881897 -0.6545941 0.87319636 -0.42695642 -0.8643447 0.7613487 -1.5012265 -0.69277096 -0.56230974 -0.9957026 -0.46932667 0.22857746 0.14167279 1.7696122 0.28175366 0.23522463 1.1974721 1.2326936 0.47407478 0.3382091 1.941071 -0.16119608
sub 0.95294464 0.27644944 -0.20633161 -0.27095494 0.008393811 -0.45409545 -0.17446569 -0.07579833 -0.6160657 -0.23253235 0.0253133 0.09899713 0.6494883 0.16697355 0.14144677 -0.1707252 0.4990958 0.10431277 -0.35613465 -0.16900006 0.21122786 -0.30571792 -0.2582516 -0.001138644 0.25233725 -0.78979164 0.8499485 -0.34470224 -0.7036649 -0.07408748 -0.32397276 0.72298145 -0.20330861 -1.2181289 0.30305833 0.5673088 0.021371262 -0.06092828 0.017847909 -0.66275907 -0.029204989 -0.5697033 0.63203037 -0.44743738 0.24925211 0.079152614 -0.17965129 0.8748012 -0.087368004 -0.13557823 -0.5008533 0.38820443 -0.5684092 -0.48536855 -0.264114 -0.9096822 -0.13746046 -0.11423914 0.40184933 -0.18952471 -0.44608873 1.1248856 -0.22047828 0.35109633 -0.08159072 0.44597968 -0.11800119 -0.5634102 -0.22504605 -0.33058235 0.076668054 0.07775685 -0.49012613 -0.26800847 1.0086044 0.6735027 0.9196619 -0.21364756 0.57629806 0.2350936 -0.46960706 -0.47052947 0.2375921 -0.05846619 0.033056326 0.4993983 -0.07321464 -0.055408105 0.9778421 0.59046763 -0.15962397 -0.05001595 0.58136094 0.61435723 -0.6048214 0.15764256 0.5196887 -0.10553498 -0.47284272 0.5292395 0.045164898 0.691364 -0.1436369 0.25324753 -0.24877422 0.6093841 0.6544048 0.21515182 -0.59984875 -0.15491346 0.36029863 -0.20564829 0.32036552 -0.6619156 0.5182679 -0.7501773 -0.008338902 0.65979075 -0.69222146 -0.06426608 -0.51596224 0.07495358 0.0867469 0.5644015 -0.09197098 0.13429017 -0.021680752 -0.37041655 0.7300696 0.32801208 -0.45729426 0.48732093 -0.21768521 0.24762292 -0.13279414 0.123553485 0.077082664 -0.30033156 0.40429667 0.09922495 0.34172153 0.37639257 0.1559908 -0.42419484 0.019571904 -0.03264387 0.5792802 -0.1642679 0.103697024 -0.08419624 -0.82325035 -0.44145 -0.77058125 0.7171517 0.61743104 0.17954628 0.21647435 0.29326385 0.7910287 0.13874204 0.27802983 -0.09105243 0.24621557 -0.37320656 -0.5945925 0.010222172 -0.09850674 -0.097391985 -0.11144924 -0.32191405 -0.5764892 0.1726917 0.42658526 0.14223512 -0.4820565 0.32565895 0.62206256 0.59062296 -0.77497214 0.15152468 0.9755742 0.3249025 0.34860674 0.19108666 -0.58576155 0.42086324 0.3404325 0.12346532 -0.09375786 -0.41039482 0.6312754 -0.122578815 -0.5156969 0.20401858 0.7499751 -0.38270065 -0.05131169 -0.27530995 0.040821988 -0.39146444 0.059330184 0.067207895 0.17739376 0.26193774 -0.11889926 1.1697057 -0.51476824 -0.34296575 0.5511963 1.2255337 -0.3432995 0.47803545 -0.20272335 -0.28834116 -0.57575154 0.15332638 -0.5821652 -0.27361977 -0.04538895 0.6355615 0.36837164 0.67823774 0.31138563 0.5184595 0.097354345 0.26465082 -0.14042798 -0.38510504 0.1340109 0.23950194 0.05093538 0.17135291 0.0353846 -0.6075879 0.17498617 -0.36718768 0.15025876 -0.089018226 -0.5075837 0.12571168 -0.2920248 0.053056862 0.28269216 -0.27188703 -0.4741988 0.26233485 0.33364373 -0.23724559 1.0074605 -0.521138 -0.44314426 -0.07963844 -0.51893735 -0.5613098 0.7194304 -0.3457808 -0.07632004 -0.26986143 0.28447896 0.25034058 -0.27079627 -0.036947493 -0.42078456 -0.30993786 0.1904748 -0.38607875 -0.512016 -0.36257598 -0.20425549 -0.12881736 -0.106131665 0.07629166 -0.34647897 0.12209549 0.27329797 -0.020445324 -0.4259197 -0.082371436 0.54049784 0.23826672 -1.1010907 -0.20406632 0.7627177 0.085694864 0.1444071 0.19909838 0.5126288 0.781905 0.19321881 -0.046056513 -0.3125391 -0.87758404 -0.24098907 -0.41692853 -0.8127602 -0.030896151 -0.44468585 -0.3639316 -0.97338015 0.060267396
